<?xml version="1.0"?>
<MethodSetup Method="BDT::BDT">
  <GeneralInfo>
    <Info name="TMVA Release" value="4.2.0 [262656]"/>
    <Info name="ROOT Release" value="5.34/18 [336402]"/>
    <Info name="Creator" value="flowers1"/>
    <Info name="Date" value="Tue Jun 30 15:25:44 2015"/>
    <Info name="Host" value="Linux cmsdev02.cern.ch 2.6.32-431.23.3.el6.x86_64 #1 SMP Wed Jul 30 09:43:11 CEST 2014 x86_64 x86_64 x86_64 GNU/Linux"/>
    <Info name="Dir" value="/uscms_data/d3/flowers1/May2015/CMSSW_7_2_3/src/ttH-LeptonPlusJets/AnalysisCode/macros/TRAINHOUSE"/>
    <Info name="Training events" value="1696"/>
    <Info name="TrainingTime" value="2.55666971e-01"/>
    <Info name="AnalysisType" value="Classification"/>
  </GeneralInfo>
  <Options>
    <Option name="V" modified="Yes">False</Option>
    <Option name="VerbosityLevel" modified="No">Default</Option>
    <Option name="VarTransform" modified="No">None</Option>
    <Option name="H" modified="Yes">False</Option>
    <Option name="CreateMVAPdfs" modified="No">False</Option>
    <Option name="IgnoreNegWeightsInTraining" modified="No">False</Option>
    <Option name="NTrees" modified="Yes">100</Option>
    <Option name="MaxDepth" modified="No">2</Option>
    <Option name="MinNodeSize" modified="No">5%</Option>
    <Option name="nCuts" modified="Yes">20</Option>
    <Option name="BoostType" modified="Yes">Grad</Option>
    <Option name="AdaBoostR2Loss" modified="No">quadratic</Option>
    <Option name="UseBaggedBoost" modified="No">False</Option>
    <Option name="Shrinkage" modified="Yes">1.000000e-01</Option>
    <Option name="AdaBoostBeta" modified="No">5.000000e-01</Option>
    <Option name="UseRandomisedTrees" modified="No">False</Option>
    <Option name="UseNvars" modified="No">4</Option>
    <Option name="UsePoissonNvars" modified="No">True</Option>
    <Option name="BaggedSampleFraction" modified="No">6.000000e-01</Option>
    <Option name="UseYesNoLeaf" modified="No">True</Option>
    <Option name="NegWeightTreatment" modified="Yes">ignorenegweightsintraining</Option>
    <Option name="Css" modified="No">1.000000e+00</Option>
    <Option name="Cts_sb" modified="No">1.000000e+00</Option>
    <Option name="Ctb_ss" modified="No">1.000000e+00</Option>
    <Option name="Cbb" modified="No">1.000000e+00</Option>
    <Option name="NodePurityLimit" modified="No">5.000000e-01</Option>
    <Option name="SeparationType" modified="No">giniindex</Option>
    <Option name="DoBoostMonitor" modified="No">False</Option>
    <Option name="UseFisherCuts" modified="No">False</Option>
    <Option name="MinLinCorrForFisher" modified="No">8.000000e-01</Option>
    <Option name="UseExclusiveVars" modified="No">False</Option>
    <Option name="DoPreselection" modified="No">False</Option>
    <Option name="SigToBkgFraction" modified="No">1.000000e+00</Option>
    <Option name="PruneMethod" modified="No">nopruning</Option>
    <Option name="PruneStrength" modified="No">0.000000e+00</Option>
    <Option name="PruningValFraction" modified="No">5.000000e-01</Option>
    <Option name="nEventsMin" modified="No">0</Option>
    <Option name="UseBaggedGrad" modified="Yes">False</Option>
    <Option name="GradBaggingFraction" modified="No">6.000000e-01</Option>
    <Option name="UseNTrainEvents" modified="No">0</Option>
    <Option name="NNodesMax" modified="Yes">5</Option>
  </Options>
  <Variables NVar="14">
    <Variable VarIndex="0" Expression="second_jet_pt" Label="second_jet_pt" Title="second_jet_pt" Unit="second_jet_pt" Internal="second_jet_pt" Type="F" Min="3.66424789e+01" Max="7.32424927e+02"/>
    <Variable VarIndex="1" Expression="third_jet_pt" Label="third_jet_pt" Title="third_jet_pt" Unit="third_jet_pt" Internal="third_jet_pt" Type="F" Min="3.22821541e+01" Max="3.52907562e+02"/>
    <Variable VarIndex="2" Expression="fourth_jet_pt" Label="fourth_jet_pt" Title="fourth_jet_pt" Unit="fourth_jet_pt" Internal="fourth_jet_pt" Type="F" Min="3.06958828e+01" Max="2.48460678e+02"/>
    <Variable VarIndex="3" Expression="all_sum_pt_with_met" Label="all_sum_pt_with_met" Title="all_sum_pt_with_met" Unit="all_sum_pt_with_met" Internal="all_sum_pt_with_met" Type="F" Min="2.67039551e+02" Max="2.13144019e+03"/>
    <Variable VarIndex="4" Expression="HT" Label="HT" Title="HT" Unit="HT" Internal="HT" Type="F" Min="1.86953201e+02" Max="1.72415161e+03"/>
    <Variable VarIndex="5" Expression="avg_dr_tagged_jets" Label="avg_dr_tagged_jets" Title="avg_dr_tagged_jets" Unit="avg_dr_tagged_jets" Internal="avg_dr_tagged_jets" Type="F" Min="6.38118386e-01" Max="3.87531829e+00"/>
    <Variable VarIndex="6" Expression="avg_btag_disc_btags" Label="avg_btag_disc_btags" Title="avg_btag_disc_btags" Unit="avg_btag_disc_btags" Internal="avg_btag_disc_btags" Type="F" Min="8.29765856e-01" Max="9.99360323e-01"/>
    <Variable VarIndex="7" Expression="dev_from_avg_disc_btags" Label="dev_from_avg_disc_btags" Title="dev_from_avg_disc_btags" Unit="dev_from_avg_disc_btags" Internal="dev_from_avg_disc_btags" Type="F" Min="2.95704154e-07" Max="7.57151796e-03"/>
    <Variable VarIndex="8" Expression="h3" Label="h3" Title="h3" Unit="h3" Internal="h3" Type="F" Min="-2.46332604e-02" Max="9.90658700e-01"/>
    <Variable VarIndex="9" Expression="second_highest_btag" Label="second_highest_btag" Title="second_highest_btag" Unit="second_highest_btag" Internal="second_highest_btag" Type="F" Min="8.17660034e-01" Max="9.99751091e-01"/>
    <Variable VarIndex="10" Expression="third_highest_btag" Label="third_highest_btag" Title="third_highest_btag" Unit="third_highest_btag" Internal="third_highest_btag" Type="F" Min="8.14050496e-01" Max="9.98661339e-01"/>
    <Variable VarIndex="11" Expression="maxeta_jet_jet" Label="maxeta_jet_jet" Title="maxeta_jet_jet" Unit="maxeta_jet_jet" Internal="maxeta_jet_jet" Type="F" Min="7.01468289e-02" Max="1.62478983e+00"/>
    <Variable VarIndex="12" Expression="maxeta_jet_tag" Label="maxeta_jet_tag" Title="maxeta_jet_tag" Unit="maxeta_jet_tag" Internal="maxeta_jet_tag" Type="F" Min="4.73143011e-02" Max="1.51063418e+00"/>
    <Variable VarIndex="13" Expression="maxeta_tag_tag" Label="maxeta_tag_tag" Title="maxeta_tag_tag" Unit="maxeta_tag_tag" Internal="maxeta_tag_tag" Type="F" Min="4.47914982e-03" Max="1.53125191e+00"/>
  </Variables>
  <Spectators NSpec="0"/>
  <Classes NClass="2">
    <Class Name="Signal" Index="0"/>
    <Class Name="Background" Index="1"/>
  </Classes>
  <Transformations NTransformations="0"/>
  <MVAPdfs/>
  <Weights NTrees="100" AnalysisType="1">
    <BinaryTree type="DecisionTree" boostWeight="1.0000000000000000e+00" itree="0">
      <Node pos="s" depth="0" NCoef="0" IVar="6" Cut="9.7513252496719360e-01" cType="1" res="0.0000000000000000e+00" rms="5.0000000000000000e-01" purity="5.0000000000000000e-01" nType="0">
        <Node pos="l" depth="1" NCoef="0" IVar="3" Cut="5.3338250732421875e+02" cType="1" res="-4.8991356045007706e-02" rms="4.9759405851364136e-01" purity="4.5100864768028259e-01" nType="0">
          <Node pos="l" depth="2" NCoef="0" IVar="-1" Cut="0.0000000000000000e+00" cType="1" res="-2.8779068961739540e-02" rms="4.7884666919708252e-01" purity="3.5610464215278625e-01" nType="-99"/>
          <Node pos="r" depth="2" NCoef="0" IVar="-1" Cut="0.0000000000000000e+00" cType="1" res="8.8571431115269661e-03" rms="4.9803492426872253e-01" purity="5.4428571462631226e-01" nType="-99"/>
        </Node>
        <Node pos="r" depth="1" NCoef="0" IVar="5" Cut="2.3271384239196777e+00" cType="1" res="2.2077922523021698e-01" rms="4.4861623644828796e-01" purity="7.2077924013137817e-01" nType="0">
          <Node pos="l" depth="2" NCoef="0" IVar="-1" Cut="0.0000000000000000e+00" cType="1" res="6.0909092426300049e-02" rms="3.9655020833015442e-01" purity="8.0454546213150024e-01" nType="-99"/>
          <Node pos="r" depth="2" NCoef="0" IVar="-1" Cut="0.0000000000000000e+00" cType="1" res="2.2727272007614374e-03" rms="4.9987083673477173e-01" purity="5.1136362552642822e-01" nType="-99"/>
        </Node>
      </Node>
    </BinaryTree>
    <BinaryTree type="DecisionTree" boostWeight="1.0000000000000000e+00" itree="1">
      <Node pos="s" depth="0" NCoef="0" IVar="6" Cut="9.5898067951202393e-01" cType="1" res="3.3178630474139936e-06" rms="4.9594983458518982e-01" purity="5.0000000000000000e-01" nType="0">
        <Node pos="l" depth="1" NCoef="0" IVar="3" Cut="5.3338250732421875e+02" cType="1" res="-6.7691013216972351e-02" rms="4.9282082915306091e-01" purity="4.2754918336868286e-01" nType="0">
          <Node pos="l" depth="2" NCoef="0" IVar="-1" Cut="0.0000000000000000e+00" cType="1" res="-3.3047679811716080e-02" rms="4.6667373180389404e-01" purity="3.2051283121109009e-01" nType="-99"/>
          <Node pos="r" depth="2" NCoef="0" IVar="-1" Cut="0.0000000000000000e+00" cType="1" res="5.0587635487318039e-03" rms="4.9911591410636902e-01" purity="5.2972030639648438e-01" nType="-99"/>
        </Node>
        <Node pos="r" depth="1" NCoef="0" IVar="5" Cut="2.4673798084259033e+00" cType="1" res="1.3094149529933929e-01" rms="4.7533351182937622e-01" purity="6.4013838768005371e-01" nType="0">
          <Node pos="l" depth="2" NCoef="0" IVar="-1" Cut="0.0000000000000000e+00" cType="1" res="3.8159128278493881e-02" rms="4.5337420701980591e-01" purity="7.0235544443130493e-01" nType="-99"/>
          <Node pos="r" depth="2" NCoef="0" IVar="-1" Cut="0.0000000000000000e+00" cType="1" res="-2.3866688832640648e-02" rms="4.8397845029830933e-01" purity="3.7837839126586914e-01" nType="-99"/>
        </Node>
      </Node>
    </BinaryTree>
    <BinaryTree type="DecisionTree" boostWeight="1.0000000000000000e+00" itree="2">
      <Node pos="s" depth="0" NCoef="0" IVar="6" Cut="9.7513252496719360e-01" cType="1" res="3.1014446904009674e-06" rms="4.9212911725044250e-01" purity="5.0000000000000000e-01" nType="0">
        <Node pos="l" depth="1" NCoef="0" IVar="2" Cut="4.4723922729492188e+01" cType="1" res="-4.1131645441055298e-02" rms="4.9334061145782471e-01" purity="4.5100864768028259e-01" nType="0">
          <Node pos="l" depth="2" NCoef="0" IVar="-1" Cut="0.0000000000000000e+00" cType="1" res="-3.0773503705859184e-02" rms="4.6682199835777283e-01" purity="3.2916668057441711e-01" nType="-99"/>
          <Node pos="r" depth="2" NCoef="0" IVar="-1" Cut="0.0000000000000000e+00" cType="1" res="3.6561710294336081e-03" rms="4.9663555622100830e-01" purity="5.1541852951049805e-01" nType="-99"/>
        </Node>
        <Node pos="r" depth="1" NCoef="0" IVar="5" Cut="2.3271384239196777e+00" cType="1" res="1.8537656962871552e-01" rms="4.4138675928115845e-01" purity="7.2077924013137817e-01" nType="0">
          <Node pos="l" depth="2" NCoef="0" IVar="-1" Cut="0.0000000000000000e+00" cType="1" res="5.1537070423364639e-02" rms="3.9655020833015442e-01" purity="8.0454546213150024e-01" nType="-99"/>
          <Node pos="r" depth="2" NCoef="0" IVar="-1" Cut="0.0000000000000000e+00" cType="1" res="2.1791653707623482e-03" rms="4.9610698223114014e-01" purity="5.1136362552642822e-01" nType="-99"/>
        </Node>
      </Node>
    </BinaryTree>
    <BinaryTree type="DecisionTree" boostWeight="1.0000000000000000e+00" itree="3">
      <Node pos="s" depth="0" NCoef="0" IVar="10" Cut="9.0196043252944946e-01" cType="1" res="1.6448932001367211e-05" rms="4.8917976021766663e-01" purity="5.0000000000000000e-01" nType="0">
        <Node pos="l" depth="1" NCoef="0" IVar="3" Cut="6.2216345214843750e+02" cType="1" res="-6.5796054899692535e-02" rms="4.8875543475151062e-01" purity="4.1906654834747314e-01" nType="0">
          <Node pos="l" depth="2" NCoef="0" IVar="-1" Cut="0.0000000000000000e+00" cType="1" res="-2.4472262710332870e-02" rms="4.7502094507217407e-01" purity="3.5215452313423157e-01" nType="-99"/>
          <Node pos="r" depth="2" NCoef="0" IVar="-1" Cut="0.0000000000000000e+00" cType="1" res="9.4164479523897171e-03" rms="4.9648231267929077e-01" purity="5.5389219522476196e-01" nType="-99"/>
        </Node>
        <Node pos="r" depth="1" NCoef="0" IVar="5" Cut="2.4650471210479736e+00" cType="1" res="9.6203960478305817e-02" rms="4.7362536191940308e-01" purity="6.1828738451004028e-01" nType="0">
          <Node pos="l" depth="2" NCoef="0" IVar="-1" Cut="0.0000000000000000e+00" cType="1" res="3.2377976924180984e-02" rms="4.5268827676773071e-01" purity="6.9345796108245850e-01" nType="-99"/>
          <Node pos="r" depth="2" NCoef="0" IVar="-1" Cut="0.0000000000000000e+00" cType="1" res="-2.5304764509201050e-02" rms="4.7745835781097412e-01" purity="3.5714286565780640e-01" nType="-99"/>
        </Node>
      </Node>
    </BinaryTree>
    <BinaryTree type="DecisionTree" boostWeight="1.0000000000000000e+00" itree="4">
      <Node pos="s" depth="0" NCoef="0" IVar="4" Cut="2.6015313720703125e+02" cType="1" res="1.9115535906166770e-05" rms="4.8610389232635498e-01" purity="5.0000000000000000e-01" nType="0">
        <Node pos="l" depth="1" NCoef="0" IVar="-1" Cut="0.0000000000000000e+00" cType="1" res="-5.6206066161394119e-02" rms="3.7949872016906738e-01" purity="1.8487395346164703e-01" nType="-99"/>
        <Node pos="r" depth="1" NCoef="0" IVar="5" Cut="2.3562078475952148e+00" cType="1" res="2.0965972915291786e-02" rms="4.8683348298072815e-01" purity="5.2377933263778687e-01" nType="0">
          <Node pos="l" depth="2" NCoef="0" IVar="-1" Cut="0.0000000000000000e+00" cType="1" res="1.3722519390285015e-02" rms="4.7996231913566589e-01" purity="5.7971012592315674e-01" nType="-99"/>
          <Node pos="r" depth="2" NCoef="0" IVar="-1" Cut="0.0000000000000000e+00" cType="1" res="-1.7822546884417534e-02" rms="4.8511141538619995e-01" purity="3.9323467016220093e-01" nType="-99"/>
        </Node>
      </Node>
    </BinaryTree>
    <BinaryTree type="DecisionTree" boostWeight="1.0000000000000000e+00" itree="5">
      <Node pos="s" depth="0" NCoef="0" IVar="6" Cut="9.7513252496719360e-01" cType="1" res="6.8169124460837338e-06" rms="4.8404043912887573e-01" purity="5.0000000000000000e-01" nType="0">
        <Node pos="l" depth="1" NCoef="0" IVar="4" Cut="2.5907037353515625e+02" cType="1" res="-3.4329518675804138e-02" rms="4.8784267902374268e-01" purity="4.5100864768028259e-01" nType="0">
          <Node pos="l" depth="2" NCoef="0" IVar="-1" Cut="0.0000000000000000e+00" cType="1" res="-5.6102797389030457e-02" rms="3.5709804296493530e-01" purity="1.5094339847564697e-01" nType="-99"/>
          <Node pos="r" depth="2" NCoef="0" IVar="-1" Cut="0.0000000000000000e+00" cType="1" res="-2.9230013024061918e-03" rms="4.9193373322486877e-01" purity="4.7581902146339417e-01" nType="-99"/>
        </Node>
        <Node pos="r" depth="1" NCoef="0" IVar="11" Cut="8.5184413194656372e-01" cType="1" res="1.5474329888820648e-01" rms="4.3403434753417969e-01" purity="7.2077924013137817e-01" nType="0">
          <Node pos="l" depth="2" NCoef="0" IVar="-1" Cut="0.0000000000000000e+00" cType="1" res="4.5262720435857773e-02" rms="3.9271414279937744e-01" purity="7.9292929172515869e-01" nType="-99"/>
          <Node pos="r" depth="2" NCoef="0" IVar="-1" Cut="0.0000000000000000e+00" cType="1" res="7.7643059194087982e-03" rms="4.7815266251564026e-01" purity="5.9090906381607056e-01" nType="-99"/>
        </Node>
      </Node>
    </BinaryTree>
    <BinaryTree type="DecisionTree" boostWeight="1.0000000000000000e+00" itree="6">
      <Node pos="s" depth="0" NCoef="0" IVar="6" Cut="9.2667698860168457e-01" cType="1" res="8.6472600742126815e-06" rms="4.8198843002319336e-01" purity="5.0000000000000000e-01" nType="0">
        <Node pos="l" depth="1" NCoef="0" IVar="1" Cut="5.4907386779785156e+01" cType="1" res="-1.0966887325048447e-01" rms="4.7094064950942993e-01" purity="3.6268344521522522e-01" nType="0">
          <Node pos="l" depth="2" NCoef="0" IVar="-1" Cut="0.0000000000000000e+00" cType="1" res="-4.9113254994153976e-02" rms="3.9277216792106628e-01" purity="1.9607843458652496e-01" nType="-99"/>
          <Node pos="r" depth="2" NCoef="0" IVar="-1" Cut="0.0000000000000000e+00" cType="1" res="-9.6350610256195068e-03" rms="4.9174749851226807e-01" purity="4.4135802984237671e-01" nType="-99"/>
        </Node>
        <Node pos="r" depth="1" NCoef="0" IVar="3" Cut="5.4986791992187500e+02" cType="1" res="4.2925938963890076e-02" rms="4.7946164011955261e-01" purity="5.5373257398605347e-01" nType="0">
          <Node pos="l" depth="2" NCoef="0" IVar="-1" Cut="0.0000000000000000e+00" cType="1" res="-3.1626897398382425e-03" rms="4.8289451003074646e-01" purity="4.7492164373397827e-01" nType="-99"/>
          <Node pos="r" depth="2" NCoef="0" IVar="-1" Cut="0.0000000000000000e+00" cType="1" res="2.1701069548726082e-02" rms="4.6730995178222656e-01" purity="6.4027535915374756e-01" nType="-99"/>
        </Node>
      </Node>
    </BinaryTree>
    <BinaryTree type="DecisionTree" boostWeight="1.0000000000000000e+00" itree="7">
      <Node pos="s" depth="0" NCoef="0" IVar="6" Cut="9.7513252496719360e-01" cType="1" res="-1.7906697848957265e-06" rms="4.8010450601577759e-01" purity="5.0000000000000000e-01" nType="0">
        <Node pos="l" depth="1" NCoef="0" IVar="8" Cut="2.1710291504859924e-01" cType="1" res="-2.9929915443062782e-02" rms="4.8514869809150696e-01" purity="4.5100864768028259e-01" nType="0">
          <Node pos="l" depth="2" NCoef="0" IVar="-1" Cut="0.0000000000000000e+00" cType="1" res="1.0650873184204102e-02" rms="4.8691788315773010e-01" purity="5.3714287281036377e-01" nType="-99"/>
          <Node pos="r" depth="2" NCoef="0" IVar="-1" Cut="0.0000000000000000e+00" cType="1" res="-1.6213351860642433e-02" rms="4.7711411118507385e-01" purity="3.9860948920249939e-01" nType="-99"/>
        </Node>
        <Node pos="r" depth="1" NCoef="0" IVar="5" Cut="2.3271384239196777e+00" cType="1" res="1.3486911356449127e-01" rms="4.3166187405586243e-01" purity="7.2077924013137817e-01" nType="0">
          <Node pos="l" depth="2" NCoef="0" IVar="-1" Cut="0.0000000000000000e+00" cType="1" res="3.9769254624843597e-02" rms="3.9262357354164124e-01" purity="8.0454546213150024e-01" nType="-99"/>
          <Node pos="r" depth="2" NCoef="0" IVar="-1" Cut="0.0000000000000000e+00" cType="1" res="4.6392477815970778e-04" rms="4.9211469292640686e-01" purity="5.1136362552642822e-01" nType="-99"/>
        </Node>
      </Node>
    </BinaryTree>
    <BinaryTree type="DecisionTree" boostWeight="1.0000000000000000e+00" itree="8">
      <Node pos="s" depth="0" NCoef="0" IVar="6" Cut="9.2667698860168457e-01" cType="1" res="1.8485417967895046e-05" rms="4.7840115427970886e-01" purity="5.0000000000000000e-01" nType="0">
        <Node pos="l" depth="1" NCoef="0" IVar="3" Cut="4.9836801147460938e+02" cType="1" res="-9.5686912536621094e-02" rms="4.6852964162826538e-01" purity="3.6268344521522522e-01" nType="0">
          <Node pos="l" depth="2" NCoef="0" IVar="-1" Cut="0.0000000000000000e+00" cType="1" res="-3.9799988269805908e-02" rms="4.1074222326278687e-01" purity="2.2499999403953552e-01" nType="-99"/>
          <Node pos="r" depth="2" NCoef="0" IVar="-1" Cut="0.0000000000000000e+00" cType="1" res="-5.1541244611144066e-03" rms="4.9448928236961365e-01" purity="4.6209385991096497e-01" nType="-99"/>
        </Node>
        <Node pos="r" depth="1" NCoef="0" IVar="8" Cut="4.1049185395240784e-01" cType="1" res="3.7468422204256058e-02" rms="4.7701022028923035e-01" purity="5.5373257398605347e-01" nType="0">
          <Node pos="l" depth="2" NCoef="0" IVar="-1" Cut="0.0000000000000000e+00" cType="1" res="1.5332385897636414e-02" rms="4.7001230716705322e-01" purity="5.9905099868774414e-01" nType="-99"/>
          <Node pos="r" depth="2" NCoef="0" IVar="-1" Cut="0.0000000000000000e+00" cType="1" res="-9.4920275732874870e-03" rms="4.8183342814445496e-01" purity="4.5212766528129578e-01" nType="-99"/>
        </Node>
      </Node>
    </BinaryTree>
    <BinaryTree type="DecisionTree" boostWeight="1.0000000000000000e+00" itree="9">
      <Node pos="s" depth="0" NCoef="0" IVar="2" Cut="4.1065635681152344e+01" cType="1" res="3.5837467748933705e-06" rms="4.7688442468643188e-01" purity="5.0000000000000000e-01" nType="0">
        <Node pos="l" depth="1" NCoef="0" IVar="9" Cut="9.8262131214141846e-01" cType="1" res="-1.0937897861003876e-01" rms="4.5120275020599365e-01" purity="3.4574466943740845e-01" nType="0">
          <Node pos="l" depth="2" NCoef="0" IVar="-1" Cut="0.0000000000000000e+00" cType="1" res="-3.3693239092826843e-02" rms="4.2930108308792114e-01" purity="2.6881721615791321e-01" nType="-99"/>
          <Node pos="r" depth="2" NCoef="0" IVar="-1" Cut="0.0000000000000000e+00" cType="1" res="9.2932833358645439e-03" rms="4.7636738419532776e-01" purity="5.6701028347015381e-01" nType="-99"/>
        </Node>
        <Node pos="r" depth="1" NCoef="0" IVar="5" Cut="2.4860470294952393e+00" cType="1" res="3.1161041930317879e-02" rms="4.7940504550933838e-01" purity="5.4393941164016724e-01" nType="0">
          <Node pos="l" depth="2" NCoef="0" IVar="-1" Cut="0.0000000000000000e+00" cType="1" res="1.2639880180358887e-02" rms="4.7537165880203247e-01" purity="5.8582091331481934e-01" nType="-99"/>
          <Node pos="r" depth="2" NCoef="0" IVar="-1" Cut="0.0000000000000000e+00" cType="1" res="-2.0575460046529770e-02" rms="4.7403410077095032e-01" purity="3.6290323734283447e-01" nType="-99"/>
        </Node>
      </Node>
    </BinaryTree>
    <BinaryTree type="DecisionTree" boostWeight="1.0000000000000000e+00" itree="10">
      <Node pos="s" depth="0" NCoef="0" IVar="3" Cut="5.3338250732421875e+02" cType="1" res="-9.5246005002991296e-06" rms="4.7523894906044006e-01" purity="5.0000000000000000e-01" nType="0">
        <Node pos="l" depth="1" NCoef="0" IVar="8" Cut="1.2621849775314331e-01" cType="1" res="-5.7238146662712097e-02" rms="4.6653431653976440e-01" purity="4.0794223546981812e-01" nType="0">
          <Node pos="l" depth="2" NCoef="0" IVar="-1" Cut="0.0000000000000000e+00" cType="1" res="1.8236443400382996e-02" rms="4.7879895567893982e-01" purity="5.7988166809082031e-01" nType="-99"/>
          <Node pos="r" depth="2" NCoef="0" IVar="-1" Cut="0.0000000000000000e+00" cType="1" res="-1.9524050876498222e-02" rms="4.5592924952507019e-01" purity="3.6404833197593689e-01" nType="-99"/>
        </Node>
        <Node pos="r" depth="1" NCoef="0" IVar="12" Cut="8.1381517648696899e-01" cType="1" res="5.4969649761915207e-02" rms="4.7703093290328979e-01" purity="5.8843928575515747e-01" nType="0">
          <Node pos="l" depth="2" NCoef="0" IVar="-1" Cut="0.0000000000000000e+00" cType="1" res="1.8894210457801819e-02" rms="4.6889773011207581e-01" purity="6.3206106424331665e-01" nType="-99"/>
          <Node pos="r" depth="2" NCoef="0" IVar="-1" Cut="0.0000000000000000e+00" cType="1" res="-1.2670565396547318e-02" rms="4.8303046822547913e-01" purity="4.5238095521926880e-01" nType="-99"/>
        </Node>
      </Node>
    </BinaryTree>
    <BinaryTree type="DecisionTree" boostWeight="1.0000000000000000e+00" itree="11">
      <Node pos="s" depth="0" NCoef="0" IVar="10" Cut="9.0196043252944946e-01" cType="1" res="-9.4012621048022993e-06" rms="4.7365167737007141e-01" purity="5.0000000000000000e-01" nType="0">
        <Node pos="l" depth="1" NCoef="0" IVar="2" Cut="6.5347419738769531e+01" cType="1" res="-4.5983672142028809e-02" rms="4.7831466794013977e-01" purity="4.1906654834747314e-01" nType="0">
          <Node pos="l" depth="2" NCoef="0" IVar="-1" Cut="0.0000000000000000e+00" cType="1" res="-1.6402570530772209e-02" rms="4.6874475479125977e-01" purity="3.6979165673255920e-01" nType="-99"/>
          <Node pos="r" depth="2" NCoef="0" IVar="-1" Cut="0.0000000000000000e+00" cType="1" res="1.2716904282569885e-02" rms="4.9219188094139099e-01" purity="5.7740586996078491e-01" nType="-99"/>
        </Node>
        <Node pos="r" depth="1" NCoef="0" IVar="5" Cut="2.4650471210479736e+00" cType="1" res="6.7183762788772583e-02" rms="4.5853471755981445e-01" purity="6.1828738451004028e-01" nType="0">
          <Node pos="l" depth="2" NCoef="0" IVar="-1" Cut="0.0000000000000000e+00" cType="1" res="2.3821953684091568e-02" rms="4.4346129894256592e-01" purity="6.9345796108245850e-01" nType="-99"/>
          <Node pos="r" depth="2" NCoef="0" IVar="-1" Cut="0.0000000000000000e+00" cType="1" res="-1.9358551129698753e-02" rms="4.7271031141281128e-01" purity="3.5714286565780640e-01" nType="-99"/>
        </Node>
      </Node>
    </BinaryTree>
    <BinaryTree type="DecisionTree" boostWeight="1.0000000000000000e+00" itree="12">
      <Node pos="s" depth="0" NCoef="0" IVar="4" Cut="2.6015313720703125e+02" cType="1" res="-2.0400884750415571e-06" rms="4.7201332449913025e-01" purity="5.0000000000000000e-01" nType="0">
        <Node pos="l" depth="1" NCoef="0" IVar="-1" Cut="0.0000000000000000e+00" cType="1" res="-4.2277939617633820e-02" rms="3.7201890349388123e-01" purity="1.8487395346164703e-01" nType="-99"/>
        <Node pos="r" depth="1" NCoef="0" IVar="8" Cut="2.1710291504859924e-01" cType="1" res="1.4611004851758480e-02" rms="4.7552272677421570e-01" purity="5.2377933263778687e-01" nType="0">
          <Node pos="l" depth="2" NCoef="0" IVar="-1" Cut="0.0000000000000000e+00" cType="1" res="1.6383696347475052e-02" rms="4.6954491734504700e-01" purity="6.1056107282638550e-01" nType="-99"/>
          <Node pos="r" depth="2" NCoef="0" IVar="-1" Cut="0.0000000000000000e+00" cType="1" res="-5.3268298506736755e-03" rms="4.7473093867301941e-01" purity="4.6961894631385803e-01" nType="-99"/>
        </Node>
      </Node>
    </BinaryTree>
    <BinaryTree type="DecisionTree" boostWeight="1.0000000000000000e+00" itree="13">
      <Node pos="s" depth="0" NCoef="0" IVar="10" Cut="9.0196043252944946e-01" cType="1" res="-1.3209615644882433e-05" rms="4.7096636891365051e-01" purity="5.0000000000000000e-01" nType="0">
        <Node pos="l" depth="1" NCoef="0" IVar="2" Cut="6.5347419738769531e+01" cType="1" res="-4.1103757917881012e-02" rms="4.7666290402412415e-01" purity="4.1906654834747314e-01" nType="0">
          <Node pos="l" depth="2" NCoef="0" IVar="-1" Cut="0.0000000000000000e+00" cType="1" res="-1.4727754518389702e-02" rms="4.6770629286766052e-01" purity="3.6979165673255920e-01" nType="-99"/>
          <Node pos="r" depth="2" NCoef="0" IVar="-1" Cut="0.0000000000000000e+00" cType="1" res="1.1299140751361847e-02" rms="4.9192234873771667e-01" purity="5.7740586996078491e-01" nType="-99"/>
        </Node>
        <Node pos="r" depth="1" NCoef="0" IVar="5" Cut="2.4650471210479736e+00" cType="1" res="6.0042206197977066e-02" rms="4.5590049028396606e-01" purity="6.1828738451004028e-01" nType="0">
          <Node pos="l" depth="2" NCoef="0" IVar="-1" Cut="0.0000000000000000e+00" cType="1" res="2.1433237940073013e-02" rms="4.4249033927917480e-01" purity="6.9345796108245850e-01" nType="-99"/>
          <Node pos="r" depth="2" NCoef="0" IVar="-1" Cut="0.0000000000000000e+00" cType="1" res="-1.7154233530163765e-02" rms="4.7218942642211914e-01" purity="3.5714286565780640e-01" nType="-99"/>
        </Node>
      </Node>
    </BinaryTree>
    <BinaryTree type="DecisionTree" boostWeight="1.0000000000000000e+00" itree="14">
      <Node pos="s" depth="0" NCoef="0" IVar="4" Cut="2.6015313720703125e+02" cType="1" res="-6.0022862271580379e-06" rms="4.6967375278472900e-01" purity="5.0000000000000000e-01" nType="0">
        <Node pos="l" depth="1" NCoef="0" IVar="-1" Cut="0.0000000000000000e+00" cType="1" res="-3.8587886840105057e-02" rms="3.7206840515136719e-01" purity="1.8487395346164703e-01" nType="-99"/>
        <Node pos="r" depth="1" NCoef="0" IVar="11" Cut="7.3642241954803467e-01" cType="1" res="1.2948535382747650e-02" rms="4.7371014952659607e-01" purity="5.2377933263778687e-01" nType="0">
          <Node pos="l" depth="2" NCoef="0" IVar="-1" Cut="0.0000000000000000e+00" cType="1" res="1.4107713475823402e-02" rms="4.6579492092132568e-01" purity="5.9269660711288452e-01" nType="-99"/>
          <Node pos="r" depth="2" NCoef="0" IVar="-1" Cut="0.0000000000000000e+00" cType="1" res="-6.6863964311778545e-03" rms="4.7535514831542969e-01" purity="4.6705201268196106e-01" nType="-99"/>
        </Node>
      </Node>
    </BinaryTree>
    <BinaryTree type="DecisionTree" boostWeight="1.0000000000000000e+00" itree="15">
      <Node pos="s" depth="0" NCoef="0" IVar="6" Cut="9.2667698860168457e-01" cType="1" res="-1.6806612620712258e-05" rms="4.6876889467239380e-01" purity="5.0000000000000000e-01" nType="0">
        <Node pos="l" depth="1" NCoef="0" IVar="1" Cut="5.4907386779785156e+01" cType="1" res="-7.4610158801078796e-02" rms="4.5995044708251953e-01" purity="3.6268344521522522e-01" nType="0">
          <Node pos="l" depth="2" NCoef="0" IVar="-1" Cut="0.0000000000000000e+00" cType="1" res="-3.5992670804262161e-02" rms="3.8843017816543579e-01" purity="1.9607843458652496e-01" nType="-99"/>
          <Node pos="r" depth="2" NCoef="0" IVar="-1" Cut="0.0000000000000000e+00" cType="1" res="-6.6922674886882305e-03" rms="4.8456984758377075e-01" purity="4.4135802984237671e-01" nType="-99"/>
        </Node>
        <Node pos="r" depth="1" NCoef="0" IVar="6" Cut="9.7862225770950317e-01" cType="1" res="2.9171895235776901e-02" rms="4.6895602345466614e-01" purity="5.5373257398605347e-01" nType="0">
          <Node pos="l" depth="2" NCoef="0" IVar="-1" Cut="0.0000000000000000e+00" cType="1" res="1.2185734231024981e-03" rms="4.8034283518791199e-01" purity="5.0414079427719116e-01" nType="-99"/>
          <Node pos="r" depth="2" NCoef="0" IVar="-1" Cut="0.0000000000000000e+00" cType="1" res="2.5931773707270622e-02" rms="4.1074541211128235e-01" purity="7.4308300018310547e-01" nType="-99"/>
        </Node>
      </Node>
    </BinaryTree>
    <BinaryTree type="DecisionTree" boostWeight="1.0000000000000000e+00" itree="16">
      <Node pos="s" depth="0" NCoef="0" IVar="8" Cut="2.1710291504859924e-01" cType="1" res="-1.8885340978158638e-05" rms="4.6785369515419006e-01" purity="5.0000000000000000e-01" nType="0">
        <Node pos="l" depth="1" NCoef="0" IVar="1" Cut="1.0148001098632812e+02" cType="1" res="5.7385463267564774e-02" rms="4.6618652343750000e-01" purity="5.8525347709655762e-01" nType="0">
          <Node pos="l" depth="2" NCoef="0" IVar="-1" Cut="0.0000000000000000e+00" cType="1" res="7.2475359775125980e-03" rms="4.7127771377563477e-01" purity="5.5229359865188599e-01" nType="-99"/>
          <Node pos="r" depth="2" NCoef="0" IVar="-1" Cut="0.0000000000000000e+00" cType="1" res="3.6506224423646927e-02" rms="4.1999158263206482e-01" purity="7.5471699237823486e-01" nType="-99"/>
        </Node>
        <Node pos="r" depth="1" NCoef="0" IVar="11" Cut="7.8078073263168335e-01" cType="1" res="-3.5779871046543121e-02" rms="4.6532297134399414e-01" purity="4.4688996672630310e-01" nType="0">
          <Node pos="l" depth="2" NCoef="0" IVar="-1" Cut="0.0000000000000000e+00" cType="1" res="5.7525429874658585e-03" rms="4.6852687001228333e-01" purity="5.2941179275512695e-01" nType="-99"/>
          <Node pos="r" depth="2" NCoef="0" IVar="-1" Cut="0.0000000000000000e+00" cType="1" res="-2.2831117734313011e-02" rms="4.5057126879692078e-01" purity="3.5123968124389648e-01" nType="-99"/>
        </Node>
      </Node>
    </BinaryTree>
    <BinaryTree type="DecisionTree" boostWeight="1.0000000000000000e+00" itree="17">
      <Node pos="s" depth="0" NCoef="0" IVar="3" Cut="5.3338250732421875e+02" cType="1" res="-1.6001236872398295e-05" rms="4.6666225790977478e-01" purity="5.0000000000000000e-01" nType="0">
        <Node pos="l" depth="1" NCoef="0" IVar="8" Cut="2.5479930639266968e-01" cType="1" res="-4.3567437678575516e-02" rms="4.5835727453231812e-01" purity="4.0794223546981812e-01" nType="0">
          <Node pos="l" depth="2" NCoef="0" IVar="-1" Cut="0.0000000000000000e+00" cType="1" res="4.8206411302089691e-03" rms="4.7105321288108826e-01" purity="5.0393700599670410e-01" nType="-99"/>
          <Node pos="r" depth="2" NCoef="0" IVar="-1" Cut="0.0000000000000000e+00" cType="1" res="-2.1274628117680550e-02" rms="4.3954619765281677e-01" purity="3.2666665315628052e-01" nType="-99"/>
        </Node>
        <Node pos="r" depth="1" NCoef="0" IVar="12" Cut="8.1381517648696899e-01" cType="1" res="4.1823588311672211e-02" rms="4.7072419524192810e-01" purity="5.8843928575515747e-01" nType="0">
          <Node pos="l" depth="2" NCoef="0" IVar="-1" Cut="0.0000000000000000e+00" cType="1" res="1.4739408157765865e-02" rms="4.6536737680435181e-01" purity="6.3206106424331665e-01" nType="-99"/>
          <Node pos="r" depth="2" NCoef="0" IVar="-1" Cut="0.0000000000000000e+00" cType="1" res="-1.0029661469161510e-02" rms="4.7575020790100098e-01" purity="4.5238095521926880e-01" nType="-99"/>
        </Node>
      </Node>
    </BinaryTree>
    <BinaryTree type="DecisionTree" boostWeight="1.0000000000000000e+00" itree="18">
      <Node pos="s" depth="0" NCoef="0" IVar="6" Cut="9.2667698860168457e-01" cType="1" res="-1.7997746908804402e-05" rms="4.6568179130554199e-01" purity="5.0000000000000000e-01" nType="0">
        <Node pos="l" depth="1" NCoef="0" IVar="11" Cut="8.4523350000381470e-01" cType="1" res="-6.6975243389606476e-02" rms="4.5634359121322632e-01" purity="3.6268344521522522e-01" nType="0">
          <Node pos="l" depth="2" NCoef="0" IVar="-1" Cut="0.0000000000000000e+00" cType="1" res="-3.9330413565039635e-03" rms="4.6518880128860474e-01" purity="4.2965778708457947e-01" nType="-99"/>
          <Node pos="r" depth="2" NCoef="0" IVar="-1" Cut="0.0000000000000000e+00" cType="1" res="-2.6908254250884056e-02" rms="4.3804207444190979e-01" purity="2.8037384152412415e-01" nType="-99"/>
        </Node>
        <Node pos="r" depth="1" NCoef="0" IVar="6" Cut="9.7862225770950317e-01" cType="1" res="2.6182664558291435e-02" rms="4.6667748689651489e-01" purity="5.5373257398605347e-01" nType="0">
          <Node pos="l" depth="2" NCoef="0" IVar="-1" Cut="0.0000000000000000e+00" cType="1" res="1.1169662466272712e-03" rms="4.7847092151641846e-01" purity="5.0414079427719116e-01" nType="-99"/>
          <Node pos="r" depth="2" NCoef="0" IVar="-1" Cut="0.0000000000000000e+00" cType="1" res="2.3636763915419579e-02" rms="4.0901240706443787e-01" purity="7.4308300018310547e-01" nType="-99"/>
        </Node>
      </Node>
    </BinaryTree>
    <BinaryTree type="DecisionTree" boostWeight="1.0000000000000000e+00" itree="19">
      <Node pos="s" depth="0" NCoef="0" IVar="2" Cut="4.1065635681152344e+01" cType="1" res="-1.4101550732448231e-05" rms="4.6495586633682251e-01" purity="5.0000000000000000e-01" nType="0">
        <Node pos="l" depth="1" NCoef="0" IVar="0" Cut="1.0290747070312500e+02" cType="1" res="-7.5802095234394073e-02" rms="4.3967691063880920e-01" purity="3.4574466943740845e-01" nType="0">
          <Node pos="l" depth="2" NCoef="0" IVar="-1" Cut="0.0000000000000000e+00" cType="1" res="-2.4695074185729027e-02" rms="4.2485302686691284e-01" purity="2.9310345649719238e-01" nType="-99"/>
          <Node pos="r" depth="2" NCoef="0" IVar="-1" Cut="0.0000000000000000e+00" cType="1" res="9.5261661335825920e-03" rms="4.6616098284721375e-01" purity="5.2325582504272461e-01" nType="-99"/>
        </Node>
        <Node pos="r" depth="1" NCoef="0" IVar="5" Cut="2.3438985347747803e+00" cType="1" res="2.1573994308710098e-02" rms="4.6967622637748718e-01" purity="5.4393941164016724e-01" nType="0">
          <Node pos="l" depth="2" NCoef="0" IVar="-1" Cut="0.0000000000000000e+00" cType="1" res="1.0552243329584599e-02" rms="4.6377018094062805e-01" purity="6.0021549463272095e-01" nType="-99"/>
          <Node pos="r" depth="2" NCoef="0" IVar="-1" Cut="0.0000000000000000e+00" cType="1" res="-9.5595531165599823e-03" rms="4.7654590010643005e-01" purity="4.1071429848670959e-01" nType="-99"/>
        </Node>
      </Node>
    </BinaryTree>
    <BinaryTree type="DecisionTree" boostWeight="1.0000000000000000e+00" itree="20">
      <Node pos="s" depth="0" NCoef="0" IVar="8" Cut="2.1710291504859924e-01" cType="1" res="-1.9630706447060220e-05" rms="4.6414223313331604e-01" purity="5.0000000000000000e-01" nType="0">
        <Node pos="l" depth="1" NCoef="0" IVar="9" Cut="9.7373241186141968e-01" cType="1" res="4.8182673752307892e-02" rms="4.6374049782752991e-01" purity="5.8525347709655762e-01" nType="0">
          <Node pos="l" depth="2" NCoef="0" IVar="-1" Cut="0.0000000000000000e+00" cType="1" res="1.3139978982508183e-03" rms="4.8168292641639709e-01" purity="4.9584487080574036e-01" nType="-99"/>
          <Node pos="r" depth="2" NCoef="0" IVar="-1" Cut="0.0000000000000000e+00" cType="1" res="2.1760731935501099e-02" rms="4.3479287624359131e-01" purity="6.9655174016952515e-01" nType="-99"/>
        </Node>
        <Node pos="r" depth="1" NCoef="0" IVar="11" Cut="7.8078073263168335e-01" cType="1" res="-3.0048049986362457e-02" rms="4.6185612678527832e-01" purity="4.4688996672630310e-01" nType="0">
          <Node pos="l" depth="2" NCoef="0" IVar="-1" Cut="0.0000000000000000e+00" cType="1" res="4.9394555389881134e-03" rms="4.6683982014656067e-01" purity="5.2941179275512695e-01" nType="-99"/>
          <Node pos="r" depth="2" NCoef="0" IVar="-1" Cut="0.0000000000000000e+00" cType="1" res="-1.9550517201423645e-02" rms="4.4808256626129150e-01" purity="3.5123968124389648e-01" nType="-99"/>
        </Node>
      </Node>
    </BinaryTree>
    <BinaryTree type="DecisionTree" boostWeight="1.0000000000000000e+00" itree="21">
      <Node pos="s" depth="0" NCoef="0" IVar="3" Cut="6.2216345214843750e+02" cType="1" res="-1.6454809156130068e-05" rms="4.6328008174896240e-01" purity="5.0000000000000000e-01" nType="0">
        <Node pos="l" depth="1" NCoef="0" IVar="6" Cut="9.2667698860168457e-01" cType="1" res="-2.6265038177371025e-02" rms="4.6007961034774780e-01" purity="4.4541484117507935e-01" nType="0">
          <Node pos="l" depth="2" NCoef="0" IVar="-1" Cut="0.0000000000000000e+00" cType="1" res="-2.0884564146399498e-02" rms="4.3413162231445312e-01" purity="2.8482973575592041e-01" nType="-99"/>
          <Node pos="r" depth="2" NCoef="0" IVar="-1" Cut="0.0000000000000000e+00" cType="1" res="1.9613426411524415e-04" rms="4.6708604693412781e-01" purity="5.0851583480834961e-01" nType="-99"/>
        </Node>
        <Node pos="r" depth="1" NCoef="0" IVar="5" Cut="2.2486271858215332e+00" cType="1" res="5.4529149085283279e-02" rms="4.6514773368835449e-01" purity="6.1343014240264893e-01" nType="0">
          <Node pos="l" depth="2" NCoef="0" IVar="-1" Cut="0.0000000000000000e+00" cType="1" res="2.1643405780196190e-02" rms="4.4228300452232361e-01" purity="6.9444441795349121e-01" nType="-99"/>
          <Node pos="r" depth="2" NCoef="0" IVar="-1" Cut="0.0000000000000000e+00" cType="1" res="-2.6725952047854662e-03" rms="4.8806643486022949e-01" purity="4.9779736995697021e-01" nType="-99"/>
        </Node>
      </Node>
    </BinaryTree>
    <BinaryTree type="DecisionTree" boostWeight="1.0000000000000000e+00" itree="22">
      <Node pos="s" depth="0" NCoef="0" IVar="4" Cut="2.6015313720703125e+02" cType="1" res="-1.5918296412564814e-05" rms="4.6255546808242798e-01" purity="5.0000000000000000e-01" nType="0">
        <Node pos="l" depth="1" NCoef="0" IVar="-1" Cut="0.0000000000000000e+00" cType="1" res="-3.2174535095691681e-02" rms="3.7091964483261108e-01" purity="1.8487395346164703e-01" nType="-99"/>
        <Node pos="r" depth="1" NCoef="0" IVar="10" Cut="9.0196043252944946e-01" cType="1" res="1.0020313784480095e-02" rms="4.6721017360687256e-01" purity="5.2377933263778687e-01" nType="0">
          <Node pos="l" depth="2" NCoef="0" IVar="-1" Cut="0.0000000000000000e+00" cType="1" res="-4.2323726229369640e-03" rms="4.7844010591506958e-01" purity="4.4360086321830750e-01" nType="-99"/>
          <Node pos="r" depth="2" NCoef="0" IVar="-1" Cut="0.0000000000000000e+00" cType="1" res="1.1476042680442333e-02" rms="4.4742068648338318e-01" purity="6.3664120435714722e-01" nType="-99"/>
        </Node>
      </Node>
    </BinaryTree>
    <BinaryTree type="DecisionTree" boostWeight="1.0000000000000000e+00" itree="23">
      <Node pos="s" depth="0" NCoef="0" IVar="8" Cut="2.1710291504859924e-01" cType="1" res="-2.1405368897831067e-05" rms="4.6205955743789673e-01" purity="5.0000000000000000e-01" nType="0">
        <Node pos="l" depth="1" NCoef="0" IVar="1" Cut="1.0148001098632812e+02" cType="1" res="4.2969316244125366e-02" rms="4.6195045113563538e-01" purity="5.8525347709655762e-01" nType="0">
          <Node pos="l" depth="2" NCoef="0" IVar="-1" Cut="0.0000000000000000e+00" cType="1" res="5.2655087783932686e-03" rms="4.6802404522895813e-01" purity="5.5229359865188599e-01" nType="-99"/>
          <Node pos="r" depth="2" NCoef="0" IVar="-1" Cut="0.0000000000000000e+00" cType="1" res="2.9768636450171471e-02" rms="4.1690555214881897e-01" purity="7.5471699237823486e-01" nType="-99"/>
        </Node>
        <Node pos="r" depth="1" NCoef="0" IVar="11" Cut="7.8078073263168335e-01" cType="1" res="-2.6803184300661087e-02" rms="4.6010130643844604e-01" purity="4.4688996672630310e-01" nType="0">
          <Node pos="l" depth="2" NCoef="0" IVar="-1" Cut="0.0000000000000000e+00" cType="1" res="4.4165216386318207e-03" rms="4.6562713384628296e-01" purity="5.2941179275512695e-01" nType="-99"/>
          <Node pos="r" depth="2" NCoef="0" IVar="-1" Cut="0.0000000000000000e+00" cType="1" res="-1.7600296065211296e-02" rms="4.4730159640312195e-01" purity="3.5123968124389648e-01" nType="-99"/>
        </Node>
      </Node>
    </BinaryTree>
    <BinaryTree type="DecisionTree" boostWeight="1.0000000000000000e+00" itree="24">
      <Node pos="s" depth="0" NCoef="0" IVar="2" Cut="4.1065635681152344e+01" cType="1" res="-1.8401238776277751e-05" rms="4.6137502789497375e-01" purity="5.0000000000000000e-01" nType="0">
        <Node pos="l" depth="1" NCoef="0" IVar="9" Cut="9.8262131214141846e-01" cType="1" res="-6.2342219054698944e-02" rms="4.3591448664665222e-01" purity="3.4574466943740845e-01" nType="0">
          <Node pos="l" depth="2" NCoef="0" IVar="-1" Cut="0.0000000000000000e+00" cType="1" res="-2.2007768973708153e-02" rms="4.1897073388099670e-01" purity="2.6881721615791321e-01" nType="-99"/>
          <Node pos="r" depth="2" NCoef="0" IVar="-1" Cut="0.0000000000000000e+00" cType="1" res="8.4303840994834900e-03" rms="4.6668711304664612e-01" purity="5.6701028347015381e-01" nType="-99"/>
        </Node>
        <Node pos="r" depth="1" NCoef="0" IVar="5" Cut="2.4860470294952393e+00" cType="1" res="1.7734443768858910e-02" rms="4.6685418486595154e-01" purity="5.4393941164016724e-01" nType="0">
          <Node pos="l" depth="2" NCoef="0" IVar="-1" Cut="0.0000000000000000e+00" cType="1" res="7.4319997802376747e-03" rms="4.6531444787979126e-01" purity="5.8582091331481934e-01" nType="-99"/>
          <Node pos="r" depth="2" NCoef="0" IVar="-1" Cut="0.0000000000000000e+00" cType="1" res="-1.1966795660555363e-02" rms="4.6610012650489807e-01" purity="3.6290323734283447e-01" nType="-99"/>
        </Node>
      </Node>
    </BinaryTree>
    <BinaryTree type="DecisionTree" boostWeight="1.0000000000000000e+00" itree="25">
      <Node pos="s" depth="0" NCoef="0" IVar="3" Cut="6.2216345214843750e+02" cType="1" res="-2.5334426027256995e-05" rms="4.6081557869911194e-01" purity="5.0000000000000000e-01" nType="0">
        <Node pos="l" depth="1" NCoef="0" IVar="8" Cut="4.1520267724990845e-01" cType="1" res="-2.2295067086815834e-02" rms="4.5783513784408569e-01" purity="4.4541484117507935e-01" nType="0">
          <Node pos="l" depth="2" NCoef="0" IVar="-1" Cut="0.0000000000000000e+00" cType="1" res="8.2072167424485087e-04" rms="4.6012082695960999e-01" purity="4.8894348740577698e-01" nType="-99"/>
          <Node pos="r" depth="2" NCoef="0" IVar="-1" Cut="0.0000000000000000e+00" cType="1" res="-1.8730785697698593e-02" rms="4.4571053981781006e-01" purity="3.3836859464645386e-01" nType="-99"/>
        </Node>
        <Node pos="r" depth="1" NCoef="0" IVar="13" Cut="3.1262505054473877e-01" cType="1" res="4.6252056956291199e-02" rms="4.6353900432586670e-01" purity="6.1343014240264893e-01" nType="0">
          <Node pos="l" depth="2" NCoef="0" IVar="-1" Cut="0.0000000000000000e+00" cType="1" res="2.9388319700956345e-02" rms="4.2297893762588501e-01" purity="7.3484849929809570e-01" nType="-99"/>
          <Node pos="r" depth="2" NCoef="0" IVar="-1" Cut="0.0000000000000000e+00" cType="1" res="3.7132906727492809e-03" rms="4.7198426723480225e-01" purity="5.7517898082733154e-01" nType="-99"/>
        </Node>
      </Node>
    </BinaryTree>
    <BinaryTree type="DecisionTree" boostWeight="1.0000000000000000e+00" itree="26">
      <Node pos="s" depth="0" NCoef="0" IVar="6" Cut="9.7513252496719360e-01" cType="1" res="-2.1263404050841928e-05" rms="4.6022498607635498e-01" purity="5.0000000000000000e-01" nType="0">
        <Node pos="l" depth="1" NCoef="0" IVar="8" Cut="1.2040844559669495e-01" cType="1" res="-1.5053133480250835e-02" rms="4.6809649467468262e-01" purity="4.5100864768028259e-01" nType="0">
          <Node pos="l" depth="2" NCoef="0" IVar="-1" Cut="0.0000000000000000e+00" cType="1" res="1.2754097580909729e-02" rms="4.7291287779808044e-01" purity="5.8695650100708008e-01" nType="-99"/>
          <Node pos="r" depth="2" NCoef="0" IVar="-1" Cut="0.0000000000000000e+00" cType="1" res="-7.2075799107551575e-03" rms="4.6496382355690002e-01" purity="4.1726619005203247e-01" nType="-99"/>
        </Node>
        <Node pos="r" depth="1" NCoef="0" IVar="13" Cut="4.3940746784210205e-01" cType="1" res="6.7719765007495880e-02" rms="4.1625669598579407e-01" purity="7.2077924013137817e-01" nType="0">
          <Node pos="l" depth="2" NCoef="0" IVar="-1" Cut="0.0000000000000000e+00" cType="1" res="3.2876580953598022e-02" rms="3.6292082071304321e-01" purity="8.2307690382003784e-01" nType="-99"/>
          <Node pos="r" depth="2" NCoef="0" IVar="-1" Cut="0.0000000000000000e+00" cType="1" res="3.8641113787889481e-03" rms="4.4443890452384949e-01" purity="6.4606744050979614e-01" nType="-99"/>
        </Node>
      </Node>
    </BinaryTree>
    <BinaryTree type="DecisionTree" boostWeight="1.0000000000000000e+00" itree="27">
      <Node pos="s" depth="0" NCoef="0" IVar="4" Cut="2.6015313720703125e+02" cType="1" res="-7.0968890213407576e-06" rms="4.5967698097229004e-01" purity="5.0000000000000000e-01" nType="0">
        <Node pos="l" depth="1" NCoef="0" IVar="-1" Cut="0.0000000000000000e+00" cType="1" res="-2.8414757922291756e-02" rms="3.6955681443214417e-01" purity="1.8487395346164703e-01" nType="-99"/>
        <Node pos="r" depth="1" NCoef="0" IVar="6" Cut="9.2667698860168457e-01" cType="1" res="8.4754209965467453e-03" rms="4.6466827392578125e-01" purity="5.2377933263778687e-01" nType="0">
          <Node pos="l" depth="2" NCoef="0" IVar="-1" Cut="0.0000000000000000e+00" cType="1" res="-9.3454802408814430e-03" rms="4.6124839782714844e-01" purity="3.8747099041938782e-01" nType="-99"/>
          <Node pos="r" depth="2" NCoef="0" IVar="-1" Cut="0.0000000000000000e+00" cType="1" res="6.0491492040455341e-03" rms="4.6440601348876953e-01" purity="5.7504361867904663e-01" nType="-99"/>
        </Node>
      </Node>
    </BinaryTree>
    <BinaryTree type="DecisionTree" boostWeight="1.0000000000000000e+00" itree="28">
      <Node pos="s" depth="0" NCoef="0" IVar="3" Cut="5.3338250732421875e+02" cType="1" res="-1.5308754882426001e-05" rms="4.5930668711662292e-01" purity="5.0000000000000000e-01" nType="0">
        <Node pos="l" depth="1" NCoef="0" IVar="8" Cut="1.2621849775314331e-01" cType="1" res="-2.9367266222834587e-02" rms="4.5146843791007996e-01" purity="4.0794223546981812e-01" nType="0">
          <Node pos="l" depth="2" NCoef="0" IVar="-1" Cut="0.0000000000000000e+00" cType="1" res="1.3805985450744629e-02" rms="4.7287687659263611e-01" purity="5.7988166809082031e-01" nType="-99"/>
          <Node pos="r" depth="2" NCoef="0" IVar="-1" Cut="0.0000000000000000e+00" cType="1" res="-1.1766131967306137e-02" rms="4.4269084930419922e-01" purity="3.6404833197593689e-01" nType="-99"/>
        </Node>
        <Node pos="r" depth="1" NCoef="0" IVar="13" Cut="4.4069993495941162e-01" cType="1" res="2.8182929381728172e-02" rms="4.6497106552124023e-01" purity="5.8843928575515747e-01" nType="0">
          <Node pos="l" depth="2" NCoef="0" IVar="-1" Cut="0.0000000000000000e+00" cType="1" res="1.5541461296379566e-02" rms="4.5164129137992859e-01" purity="6.6386556625366211e-01" nType="-99"/>
          <Node pos="r" depth="2" NCoef="0" IVar="-1" Cut="0.0000000000000000e+00" cType="1" res="-5.7066639419645071e-04" rms="4.7167009115219116e-01" purity="5.3543305397033691e-01" nType="-99"/>
        </Node>
      </Node>
    </BinaryTree>
    <BinaryTree type="DecisionTree" boostWeight="1.0000000000000000e+00" itree="29">
      <Node pos="s" depth="0" NCoef="0" IVar="10" Cut="9.0196043252944946e-01" cType="1" res="-1.3232213859737385e-05" rms="4.5879447460174561e-01" purity="5.0000000000000000e-01" nType="0">
        <Node pos="l" depth="1" NCoef="0" IVar="2" Cut="6.5347419738769531e+01" cType="1" res="-2.2999715059995651e-02" rms="4.6775844693183899e-01" purity="4.1906654834747314e-01" nType="0">
          <Node pos="l" depth="2" NCoef="0" IVar="-1" Cut="0.0000000000000000e+00" cType="1" res="-9.1408547013998032e-03" rms="4.5933613181114197e-01" purity="3.6979165673255920e-01" nType="-99"/>
          <Node pos="r" depth="2" NCoef="0" IVar="-1" Cut="0.0000000000000000e+00" cType="1" res="7.9771857708692551e-03" rms="4.8874047398567200e-01" purity="5.7740586996078491e-01" nType="-99"/>
        </Node>
        <Node pos="r" depth="1" NCoef="0" IVar="5" Cut="2.4650471210479736e+00" cType="1" res="3.3582396805286407e-02" rms="4.4322970509529114e-01" purity="6.1828738451004028e-01" nType="0">
          <Node pos="l" depth="2" NCoef="0" IVar="-1" Cut="0.0000000000000000e+00" cType="1" res="1.3611424714326859e-02" rms="4.3337869644165039e-01" purity="6.9345796108245850e-01" nType="-99"/>
          <Node pos="r" depth="2" NCoef="0" IVar="-1" Cut="0.0000000000000000e+00" cType="1" res="-1.2570260092616081e-02" rms="4.6392998099327087e-01" purity="3.5714286565780640e-01" nType="-99"/>
        </Node>
      </Node>
    </BinaryTree>
    <BinaryTree type="DecisionTree" boostWeight="1.0000000000000000e+00" itree="30">
      <Node pos="s" depth="0" NCoef="0" IVar="4" Cut="2.6015313720703125e+02" cType="1" res="-8.9163768279831856e-06" rms="4.5832419395446777e-01" purity="5.0000000000000000e-01" nType="0">
        <Node pos="l" depth="1" NCoef="0" IVar="-1" Cut="0.0000000000000000e+00" cType="1" res="-2.5552427396178246e-02" rms="3.6916279792785645e-01" purity="1.8487395346164703e-01" nType="-99"/>
        <Node pos="r" depth="1" NCoef="0" IVar="11" Cut="7.3642241954803467e-01" cType="1" res="7.3634963482618332e-03" rms="4.6352326869964600e-01" purity="5.2377933263778687e-01" nType="0">
          <Node pos="l" depth="2" NCoef="0" IVar="-1" Cut="0.0000000000000000e+00" cType="1" res="8.5222180932760239e-03" rms="4.5881721377372742e-01" purity="5.9269660711288452e-01" nType="-99"/>
          <Node pos="r" depth="2" NCoef="0" IVar="-1" Cut="0.0000000000000000e+00" cType="1" res="-4.0922574698925018e-03" rms="4.6569937467575073e-01" purity="4.6705201268196106e-01" nType="-99"/>
        </Node>
      </Node>
    </BinaryTree>
    <BinaryTree type="DecisionTree" boostWeight="1.0000000000000000e+00" itree="31">
      <Node pos="s" depth="0" NCoef="0" IVar="6" Cut="9.8320847749710083e-01" cType="1" res="-1.3889797628507949e-05" rms="4.5802256464958191e-01" purity="5.0000000000000000e-01" nType="0">
        <Node pos="l" depth="1" NCoef="0" IVar="8" Cut="2.1710291504859924e-01" cType="1" res="-9.0951239690184593e-03" rms="4.6302282810211182e-01" purity="4.7097626328468323e-01" nType="0">
          <Node pos="l" depth="2" NCoef="0" IVar="-1" Cut="0.0000000000000000e+00" cType="1" res="6.2458352185785770e-03" rms="4.6677225828170776e-01" purity="5.5979204177856445e-01" nType="-99"/>
          <Node pos="r" depth="2" NCoef="0" IVar="-1" Cut="0.0000000000000000e+00" cType="1" res="-7.0602986961603165e-03" rms="4.5912650227546692e-01" purity="4.1640043258666992e-01" nType="-99"/>
        </Node>
        <Node pos="r" depth="1" NCoef="0" IVar="6" Cut="9.9094235897064209e-01" cType="1" res="7.6470285654067993e-02" rms="4.0552684664726257e-01" purity="7.4444442987442017e-01" nType="0">
          <Node pos="l" depth="2" NCoef="0" IVar="-1" Cut="0.0000000000000000e+00" cType="1" res="2.7603644877672195e-02" rms="3.6540889739990234e-01" purity="7.7419352531433105e-01" nType="-99"/>
          <Node pos="r" depth="2" NCoef="0" IVar="-1" Cut="0.0000000000000000e+00" cType="1" res="8.4525337442755699e-03" rms="4.4068276882171631e-01" purity="7.1264368295669556e-01" nType="-99"/>
        </Node>
      </Node>
    </BinaryTree>
    <BinaryTree type="DecisionTree" boostWeight="1.0000000000000000e+00" itree="32">
      <Node pos="s" depth="0" NCoef="0" IVar="4" Cut="6.9935266113281250e+02" cType="1" res="-7.6455780799733475e-06" rms="4.5771312713623047e-01" purity="5.0000000000000000e-01" nType="0">
        <Node pos="l" depth="1" NCoef="0" IVar="11" Cut="7.8180891275405884e-01" cType="1" res="-7.5921919196844101e-03" rms="4.5758128166198730e-01" purity="4.8465472459793091e-01" nType="0">
          <Node pos="l" depth="2" NCoef="0" IVar="-1" Cut="0.0000000000000000e+00" cType="1" res="5.7438719086349010e-03" rms="4.5365732908248901e-01" purity="5.5642020702362061e-01" nType="-99"/>
          <Node pos="r" depth="2" NCoef="0" IVar="-1" Cut="0.0000000000000000e+00" cType="1" res="-8.8958293199539185e-03" rms="4.5896741747856140e-01" purity="4.1488021612167358e-01" nType="-99"/>
        </Node>
        <Node pos="r" depth="1" NCoef="0" IVar="-1" Cut="0.0000000000000000e+00" cType="1" res="1.9426856189966202e-02" rms="4.4963753223419189e-01" purity="6.8181818723678589e-01" nType="-99"/>
      </Node>
    </BinaryTree>
    <BinaryTree type="DecisionTree" boostWeight="1.0000000000000000e+00" itree="33">
      <Node pos="s" depth="0" NCoef="0" IVar="6" Cut="9.2667698860168457e-01" cType="1" res="-5.5159162002382800e-06" rms="4.5736613869667053e-01" purity="5.0000000000000000e-01" nType="0">
        <Node pos="l" depth="1" NCoef="0" IVar="8" Cut="1.2389823794364929e-01" cType="1" res="-4.0018010884523392e-02" rms="4.4854021072387695e-01" purity="3.6268344521522522e-01" nType="0">
          <Node pos="l" depth="2" NCoef="0" IVar="-1" Cut="0.0000000000000000e+00" cType="1" res="6.9618583656847477e-03" rms="4.9132940173149109e-01" purity="5.0505048036575317e-01" nType="-99"/>
          <Node pos="r" depth="2" NCoef="0" IVar="-1" Cut="0.0000000000000000e+00" cType="1" res="-1.3258942402899265e-02" rms="4.3461722135543823e-01" purity="3.2539683580398560e-01" nType="-99"/>
        </Node>
        <Node pos="r" depth="1" NCoef="0" IVar="8" Cut="4.1049185395240784e-01" cType="1" res="1.5651548281311989e-02" rms="4.5982694625854492e-01" purity="5.5373257398605347e-01" nType="0">
          <Node pos="l" depth="2" NCoef="0" IVar="-1" Cut="0.0000000000000000e+00" cType="1" res="7.5183636508882046e-03" rms="4.5633456110954285e-01" purity="5.9905099868774414e-01" nType="-99"/>
          <Node pos="r" depth="2" NCoef="0" IVar="-1" Cut="0.0000000000000000e+00" cType="1" res="-5.6766155175864697e-03" rms="4.6483477950096130e-01" purity="4.5212766528129578e-01" nType="-99"/>
        </Node>
      </Node>
    </BinaryTree>
    <BinaryTree type="DecisionTree" boostWeight="1.0000000000000000e+00" itree="34">
      <Node pos="s" depth="0" NCoef="0" IVar="2" Cut="4.1065635681152344e+01" cType="1" res="-7.2588600232847966e-06" rms="4.5707255601882935e-01" purity="5.0000000000000000e-01" nType="0">
        <Node pos="l" depth="1" NCoef="0" IVar="5" Cut="2.0912437438964844e+00" cType="1" res="-4.5536048710346222e-02" rms="4.3248432874679565e-01" purity="3.4574466943740845e-01" nType="0">
          <Node pos="l" depth="2" NCoef="0" IVar="-1" Cut="0.0000000000000000e+00" cType="1" res="-3.0435563996434212e-02" rms="4.0502309799194336e-01" purity="2.8099173307418823e-01" nType="-99"/>
          <Node pos="r" depth="2" NCoef="0" IVar="-1" Cut="0.0000000000000000e+00" cType="1" res="-1.1655712733045220e-03" rms="4.3915814161300659e-01" purity="3.7647059559822083e-01" nType="-99"/>
        </Node>
        <Node pos="r" depth="1" NCoef="0" IVar="5" Cut="2.7703437805175781e+00" cType="1" res="1.2961547821760178e-02" rms="4.6301952004432678e-01" purity="5.4393941164016724e-01" nType="0">
          <Node pos="l" depth="2" NCoef="0" IVar="-1" Cut="0.0000000000000000e+00" cType="1" res="4.5195436105132103e-03" rms="4.6437358856201172e-01" purity="5.6347256898880005e-01" nType="-99"/>
          <Node pos="r" depth="2" NCoef="0" IVar="-1" Cut="0.0000000000000000e+00" cType="1" res="-1.8419513478875160e-02" rms="4.3414777517318726e-01" purity="3.0303031206130981e-01" nType="-99"/>
        </Node>
      </Node>
    </BinaryTree>
    <BinaryTree type="DecisionTree" boostWeight="1.0000000000000000e+00" itree="35">
      <Node pos="s" depth="0" NCoef="0" IVar="3" Cut="6.2216345214843750e+02" cType="1" res="-1.2524821613624226e-05" rms="4.5667189359664917e-01" purity="5.0000000000000000e-01" nType="0">
        <Node pos="l" depth="1" NCoef="0" IVar="8" Cut="4.1520267724990845e-01" cType="1" res="-1.6433756798505783e-02" rms="4.5388266444206238e-01" purity="4.4541484117507935e-01" nType="0">
          <Node pos="l" depth="2" NCoef="0" IVar="-1" Cut="0.0000000000000000e+00" cType="1" res="7.6234393054619431e-04" rms="4.5664751529693604e-01" purity="4.8894348740577698e-01" nType="-99"/>
          <Node pos="r" depth="2" NCoef="0" IVar="-1" Cut="0.0000000000000000e+00" cType="1" res="-1.4608791097998619e-02" rms="4.4322967529296875e-01" purity="3.3836859464645386e-01" nType="-99"/>
        </Node>
        <Node pos="r" depth="1" NCoef="0" IVar="13" Cut="3.1262505054473877e-01" cType="1" res="3.4111451357603073e-02" rms="4.6054545044898987e-01" purity="6.1343014240264893e-01" nType="0">
          <Node pos="l" depth="2" NCoef="0" IVar="-1" Cut="0.0000000000000000e+00" cType="1" res="2.3974498733878136e-02" rms="4.2158463597297668e-01" purity="7.3484849929809570e-01" nType="-99"/>
          <Node pos="r" depth="2" NCoef="0" IVar="-1" Cut="0.0000000000000000e+00" cType="1" res="2.3370664566755295e-03" rms="4.6976533532142639e-01" purity="5.7517898082733154e-01" nType="-99"/>
        </Node>
      </Node>
    </BinaryTree>
    <BinaryTree type="DecisionTree" boostWeight="1.0000000000000000e+00" itree="36">
      <Node pos="s" depth="0" NCoef="0" IVar="7" Cut="1.8029676284641027e-03" cType="1" res="-9.7568517958279699e-06" rms="4.5632922649383545e-01" purity="5.0000000000000000e-01" nType="0">
        <Node pos="l" depth="1" NCoef="0" IVar="7" Cut="1.3699710834771395e-03" cType="1" res="2.3178419098258018e-02" rms="4.4572848081588745e-01" purity="5.7919073104858398e-01" nType="0">
          <Node pos="l" depth="2" NCoef="0" IVar="-1" Cut="0.0000000000000000e+00" cType="1" res="6.1266642296686769e-04" rms="4.4139692187309265e-01" purity="5.7340717315673828e-01" nType="-99"/>
          <Node pos="r" depth="2" NCoef="0" IVar="-1" Cut="0.0000000000000000e+00" cType="1" res="2.7119882404804230e-02" rms="4.5306849479675293e-01" purity="6.0839158296585083e-01" nType="-99"/>
        </Node>
        <Node pos="r" depth="1" NCoef="0" IVar="8" Cut="4.5883908867835999e-01" cType="1" res="-2.4146666750311852e-02" rms="4.6588388085365295e-01" purity="4.1756919026374817e-01" nType="0">
          <Node pos="l" depth="2" NCoef="0" IVar="-1" Cut="0.0000000000000000e+00" cType="1" res="-1.4991214266046882e-03" rms="4.7127425670623779e-01" purity="4.4849446415901184e-01" nType="-99"/>
          <Node pos="r" depth="2" NCoef="0" IVar="-1" Cut="0.0000000000000000e+00" cType="1" res="-1.7285004258155823e-02" rms="4.4413420557975769e-01" purity="3.1999999284744263e-01" nType="-99"/>
        </Node>
      </Node>
    </BinaryTree>
    <BinaryTree type="DecisionTree" boostWeight="1.0000000000000000e+00" itree="37">
      <Node pos="s" depth="0" NCoef="0" IVar="6" Cut="9.7513252496719360e-01" cType="1" res="-1.2277335372345988e-05" rms="4.5589062571525574e-01" purity="5.0000000000000000e-01" nType="0">
        <Node pos="l" depth="1" NCoef="0" IVar="8" Cut="1.2040844559669495e-01" cType="1" res="-1.0858493857085705e-02" rms="4.6433934569358826e-01" purity="4.5100864768028259e-01" nType="0">
          <Node pos="l" depth="2" NCoef="0" IVar="-1" Cut="0.0000000000000000e+00" cType="1" res="9.3125393614172935e-03" rms="4.7021371126174927e-01" purity="5.8695650100708008e-01" nType="-99"/>
          <Node pos="r" depth="2" NCoef="0" IVar="-1" Cut="0.0000000000000000e+00" cType="1" res="-5.3069163113832474e-03" rms="4.6186321973800659e-01" purity="4.1726619005203247e-01" nType="-99"/>
        </Node>
        <Node pos="r" depth="1" NCoef="0" IVar="11" Cut="8.5184413194656372e-01" cType="1" res="4.8866126686334610e-02" rms="4.1216507554054260e-01" purity="7.2077924013137817e-01" nType="0">
          <Node pos="l" depth="2" NCoef="0" IVar="-1" Cut="0.0000000000000000e+00" cType="1" res="2.1850273013114929e-02" rms="3.8526970148086548e-01" purity="7.9292929172515869e-01" nType="-99"/>
          <Node pos="r" depth="2" NCoef="0" IVar="-1" Cut="0.0000000000000000e+00" cType="1" res="-4.5197349973022938e-03" rms="4.4851058721542358e-01" purity="5.9090906381607056e-01" nType="-99"/>
        </Node>
      </Node>
    </BinaryTree>
    <BinaryTree type="DecisionTree" boostWeight="1.0000000000000000e+00" itree="38">
      <Node pos="s" depth="0" NCoef="0" IVar="4" Cut="6.9935266113281250e+02" cType="1" res="-2.5271262984460918e-06" rms="4.5559099316596985e-01" purity="5.0000000000000000e-01" nType="0">
        <Node pos="l" depth="1" NCoef="0" IVar="11" Cut="7.8180891275405884e-01" cType="1" res="-6.5383142791688442e-03" rms="4.5559448003768921e-01" purity="4.8465472459793091e-01" nType="0">
          <Node pos="l" depth="2" NCoef="0" IVar="-1" Cut="0.0000000000000000e+00" cType="1" res="5.1443441770970821e-03" rms="4.5211991667747498e-01" purity="5.5642020702362061e-01" nType="-99"/>
          <Node pos="r" depth="2" NCoef="0" IVar="-1" Cut="0.0000000000000000e+00" cType="1" res="-7.8792152926325798e-03" rms="4.5708060264587402e-01" purity="4.1488021612167358e-01" nType="-99"/>
        </Node>
        <Node pos="r" depth="1" NCoef="0" IVar="-1" Cut="0.0000000000000000e+00" cType="1" res="1.6999457031488419e-02" rms="4.4835528731346130e-01" purity="6.8181818723678589e-01" nType="-99"/>
      </Node>
    </BinaryTree>
    <BinaryTree type="DecisionTree" boostWeight="1.0000000000000000e+00" itree="39">
      <Node pos="s" depth="0" NCoef="0" IVar="4" Cut="2.6015313720703125e+02" cType="1" res="-1.1229026313230861e-06" rms="4.5532748103141785e-01" purity="5.0000000000000000e-01" nType="0">
        <Node pos="l" depth="1" NCoef="0" IVar="-1" Cut="0.0000000000000000e+00" cType="1" res="-2.2106735035777092e-02" rms="3.6820352077484131e-01" purity="1.8487395346164703e-01" nType="-99"/>
        <Node pos="r" depth="1" NCoef="0" IVar="3" Cut="5.8407006835937500e+02" cType="1" res="6.0881380923092365e-03" rms="4.6066132187843323e-01" purity="5.2377933263778687e-01" nType="0">
          <Node pos="l" depth="2" NCoef="0" IVar="-1" Cut="0.0000000000000000e+00" cType="1" res="-3.2886154949665070e-03" rms="4.6230000257492065e-01" purity="4.5796459913253784e-01" nType="-99"/>
          <Node pos="r" depth="2" NCoef="0" IVar="-1" Cut="0.0000000000000000e+00" cType="1" res="7.5154383666813374e-03" rms="4.5691195130348206e-01" purity="6.1218422651290894e-01" nType="-99"/>
        </Node>
      </Node>
    </BinaryTree>
    <BinaryTree type="DecisionTree" boostWeight="1.0000000000000000e+00" itree="40">
      <Node pos="s" depth="0" NCoef="0" IVar="6" Cut="9.2667698860168457e-01" cType="1" res="-5.1035158321610652e-06" rms="4.5512402057647705e-01" purity="5.0000000000000000e-01" nType="0">
        <Node pos="l" depth="1" NCoef="0" IVar="11" Cut="8.4523350000381470e-01" cType="1" res="-3.4297768026590347e-02" rms="4.4636106491088867e-01" purity="3.6268344521522522e-01" nType="0">
          <Node pos="l" depth="2" NCoef="0" IVar="-1" Cut="0.0000000000000000e+00" cType="1" res="-8.8512769434601068e-04" rms="4.5366317033767700e-01" purity="4.2965778708457947e-01" nType="-99"/>
          <Node pos="r" depth="2" NCoef="0" IVar="-1" Cut="0.0000000000000000e+00" cType="1" res="-1.6667988151311874e-02" rms="4.3434569239616394e-01" purity="2.8037384152412415e-01" nType="-99"/>
        </Node>
        <Node pos="r" depth="1" NCoef="0" IVar="6" Cut="9.7862225770950317e-01" cType="1" res="1.3413765467703342e-02" rms="4.5780870318412781e-01" purity="5.5373257398605347e-01" nType="0">
          <Node pos="l" depth="2" NCoef="0" IVar="-1" Cut="0.0000000000000000e+00" cType="1" res="3.5620422568172216e-04" rms="4.7114756703376770e-01" purity="5.0414079427719116e-01" nType="-99"/>
          <Node pos="r" depth="2" NCoef="0" IVar="-1" Cut="0.0000000000000000e+00" cType="1" res="1.4474055729806423e-02" rms="3.9967036247253418e-01" purity="7.4308300018310547e-01" nType="-99"/>
        </Node>
      </Node>
    </BinaryTree>
    <BinaryTree type="DecisionTree" boostWeight="1.0000000000000000e+00" itree="41">
      <Node pos="s" depth="0" NCoef="0" IVar="8" Cut="3.6214461922645569e-01" cType="1" res="-4.3072877815575339e-06" rms="4.5490980148315430e-01" purity="5.0000000000000000e-01" nType="0">
        <Node pos="l" depth="1" NCoef="0" IVar="8" Cut="3.2529577612876892e-01" cType="1" res="1.5728455036878586e-02" rms="4.5582437515258789e-01" purity="5.4554170370101929e-01" nType="0">
          <Node pos="l" depth="2" NCoef="0" IVar="-1" Cut="0.0000000000000000e+00" cType="1" res="9.7925146110355854e-04" rms="4.5469439029693604e-01" purity="5.3773581981658936e-01" nType="-99"/>
          <Node pos="r" depth="2" NCoef="0" IVar="-1" Cut="0.0000000000000000e+00" cType="1" res="3.0276995152235031e-02" rms="4.5017108321189880e-01" purity="6.2921351194381714e-01" nType="-99"/>
        </Node>
        <Node pos="r" depth="1" NCoef="0" IVar="2" Cut="6.1805137634277344e+01" cType="1" res="-2.5133360177278519e-02" rms="4.5231154561042786e-01" purity="4.2725881934165955e-01" nType="0">
          <Node pos="l" depth="2" NCoef="0" IVar="-1" Cut="0.0000000000000000e+00" cType="1" res="-1.3565356843173504e-02" rms="4.4188687205314636e-01" purity="3.4389141201972961e-01" nType="-99"/>
          <Node pos="r" depth="2" NCoef="0" IVar="-1" Cut="0.0000000000000000e+00" cType="1" res="1.0558011941611767e-02" rms="4.6474906802177429e-01" purity="6.0189574956893921e-01" nType="-99"/>
        </Node>
      </Node>
    </BinaryTree>
    <BinaryTree type="DecisionTree" boostWeight="1.0000000000000000e+00" itree="42">
      <Node pos="s" depth="0" NCoef="0" IVar="4" Cut="2.6015313720703125e+02" cType="1" res="-7.0919245445111301e-06" rms="4.5445576310157776e-01" purity="5.0000000000000000e-01" nType="0">
        <Node pos="l" depth="1" NCoef="0" IVar="-1" Cut="0.0000000000000000e+00" cType="1" res="-2.0079007372260094e-02" rms="3.6809718608856201e-01" purity="1.8487395346164703e-01" nType="-99"/>
        <Node pos="r" depth="1" NCoef="0" IVar="6" Cut="9.2667698860168457e-01" cType="1" res="5.3858789615333080e-03" rms="4.5986494421958923e-01" purity="5.2377933263778687e-01" nType="0">
          <Node pos="l" depth="2" NCoef="0" IVar="-1" Cut="0.0000000000000000e+00" cType="1" res="-6.4655025489628315e-03" rms="4.5610338449478149e-01" purity="3.8747099041938782e-01" nType="-99"/>
          <Node pos="r" depth="2" NCoef="0" IVar="-1" Cut="0.0000000000000000e+00" cType="1" res="4.0858364664018154e-03" rms="4.6057951450347900e-01" purity="5.7504361867904663e-01" nType="-99"/>
        </Node>
      </Node>
    </BinaryTree>
    <BinaryTree type="DecisionTree" boostWeight="1.0000000000000000e+00" itree="43">
      <Node pos="s" depth="0" NCoef="0" IVar="8" Cut="1.6875568032264709e-01" cType="1" res="-1.1078108400397468e-05" rms="4.5430460572242737e-01" purity="5.0000000000000000e-01" nType="0">
        <Node pos="l" depth="1" NCoef="0" IVar="8" Cut="4.8838332295417786e-02" cType="1" res="2.9671363532543182e-02" rms="4.5434212684631348e-01" purity="5.9803920984268188e-01" nType="0">
          <Node pos="l" depth="2" NCoef="0" IVar="-1" Cut="0.0000000000000000e+00" cType="1" res="2.1168870851397514e-02" rms="4.3825435638427734e-01" purity="6.9662922620773315e-01" nType="-99"/>
          <Node pos="r" depth="2" NCoef="0" IVar="-1" Cut="0.0000000000000000e+00" cType="1" res="3.5905810073018074e-03" rms="4.5651206374168396e-01" purity="5.7719713449478149e-01" nType="-99"/>
        </Node>
        <Node pos="r" depth="1" NCoef="0" IVar="3" Cut="5.3521124267578125e+02" cType="1" res="-1.2775029055774212e-02" rms="4.5369178056716919e-01" purity="4.5784148573875427e-01" nType="0">
          <Node pos="l" depth="2" NCoef="0" IVar="-1" Cut="0.0000000000000000e+00" cType="1" res="-9.9838357418775558e-03" rms="4.3853136897087097e-01" purity="3.4974533319473267e-01" nType="-99"/>
          <Node pos="r" depth="2" NCoef="0" IVar="-1" Cut="0.0000000000000000e+00" cType="1" res="3.7331979256123304e-03" rms="4.6621552109718323e-01" purity="5.6448912620544434e-01" nType="-99"/>
        </Node>
      </Node>
    </BinaryTree>
    <BinaryTree type="DecisionTree" boostWeight="1.0000000000000000e+00" itree="44">
      <Node pos="s" depth="0" NCoef="0" IVar="5" Cut="2.7962517738342285e+00" cType="1" res="-1.0504843885428272e-05" rms="4.5405787229537964e-01" purity="5.0000000000000000e-01" nType="0">
        <Node pos="l" depth="1" NCoef="0" IVar="7" Cut="1.8029676284641027e-03" cType="1" res="5.5323750711977482e-03" rms="4.5627191662788391e-01" purity="5.1823419332504272e-01" nType="0">
          <Node pos="l" depth="2" NCoef="0" IVar="-1" Cut="0.0000000000000000e+00" cType="1" res="6.5980339422821999e-03" rms="4.4420233368873596e-01" purity="6.0526317358016968e-01" nType="-99"/>
          <Node pos="r" depth="2" NCoef="0" IVar="-1" Cut="0.0000000000000000e+00" cType="1" res="-4.0778345428407192e-03" rms="4.6729350090026855e-01" purity="4.2745098471641541e-01" nType="-99"/>
        </Node>
        <Node pos="r" depth="1" NCoef="0" IVar="-1" Cut="0.0000000000000000e+00" cType="1" res="-1.5037527307868004e-02" rms="4.2175620794296265e-01" purity="2.8571429848670959e-01" nType="-99"/>
      </Node>
    </BinaryTree>
    <BinaryTree type="DecisionTree" boostWeight="1.0000000000000000e+00" itree="45">
      <Node pos="s" depth="0" NCoef="0" IVar="5" Cut="1.5630326271057129e+00" cType="1" res="-1.0601385838526767e-05" rms="4.5389577746391296e-01" purity="5.0000000000000000e-01" nType="0">
        <Node pos="l" depth="1" NCoef="0" IVar="-1" Cut="0.0000000000000000e+00" cType="1" res="-1.3421574607491493e-02" rms="4.4423133134841919e-01" purity="5.0344824790954590e-01" nType="-99"/>
        <Node pos="r" depth="1" NCoef="0" IVar="4" Cut="6.9935266113281250e+02" cType="1" res="5.4988595657050610e-03" rms="4.5439830422401428e-01" purity="4.9967762827873230e-01" nType="0">
          <Node pos="l" depth="2" NCoef="0" IVar="-1" Cut="0.0000000000000000e+00" cType="1" res="-4.4679225538857281e-04" rms="4.5529827475547791e-01" purity="4.8220515251159668e-01" nType="-99"/>
          <Node pos="r" depth="2" NCoef="0" IVar="-1" Cut="0.0000000000000000e+00" cType="1" res="2.1523861214518547e-02" rms="4.3308654427528381e-01" purity="7.1186441183090210e-01" nType="-99"/>
        </Node>
      </Node>
    </BinaryTree>
    <BinaryTree type="DecisionTree" boostWeight="1.0000000000000000e+00" itree="46">
      <Node pos="s" depth="0" NCoef="0" IVar="6" Cut="9.8320847749710083e-01" cType="1" res="-5.7507586461724713e-06" rms="4.5369270443916321e-01" purity="5.0000000000000000e-01" nType="0">
        <Node pos="l" depth="1" NCoef="0" IVar="2" Cut="4.1065635681152344e+01" cType="1" res="-6.2253484502434731e-03" rms="4.5901095867156982e-01" purity="4.7097626328468323e-01" nType="0">
          <Node pos="l" depth="2" NCoef="0" IVar="-1" Cut="0.0000000000000000e+00" cType="1" res="-1.0768268257379532e-02" rms="4.2757526040077209e-01" purity="3.1623932719230652e-01" nType="-99"/>
          <Node pos="r" depth="2" NCoef="0" IVar="-1" Cut="0.0000000000000000e+00" cType="1" res="1.1743658687919378e-03" rms="4.6744012832641602e-01" purity="5.1759654283523560e-01" nType="-99"/>
        </Node>
        <Node pos="r" depth="1" NCoef="0" IVar="6" Cut="9.9094235897064209e-01" cType="1" res="5.2377086132764816e-02" rms="4.0235054492950439e-01" purity="7.4444442987442017e-01" nType="0">
          <Node pos="l" depth="2" NCoef="0" IVar="-1" Cut="0.0000000000000000e+00" cType="1" res="2.2177800536155701e-02" rms="3.6249992251396179e-01" purity="7.7419352531433105e-01" nType="-99"/>
          <Node pos="r" depth="2" NCoef="0" IVar="-1" Cut="0.0000000000000000e+00" cType="1" res="3.9273616857826710e-03" rms="4.3800449371337891e-01" purity="7.1264368295669556e-01" nType="-99"/>
        </Node>
      </Node>
    </BinaryTree>
    <BinaryTree type="DecisionTree" boostWeight="1.0000000000000000e+00" itree="47">
      <Node pos="s" depth="0" NCoef="0" IVar="13" Cut="1.4988607168197632e-01" cType="1" res="-3.9112474041758105e-06" rms="4.5353490114212036e-01" purity="5.0000000000000000e-01" nType="0">
        <Node pos="l" depth="1" NCoef="0" IVar="-1" Cut="0.0000000000000000e+00" cType="1" res="1.7489159479737282e-02" rms="4.3582460284233093e-01" purity="6.3218390941619873e-01" nType="-99"/>
        <Node pos="r" depth="1" NCoef="0" IVar="9" Cut="9.8240906000137329e-01" cType="1" res="-4.1002938523888588e-03" rms="4.5411279797554016e-01" purity="4.9285271763801575e-01" nType="0">
          <Node pos="l" depth="2" NCoef="0" IVar="-1" Cut="0.0000000000000000e+00" cType="1" res="-4.0348852053284645e-03" rms="4.5778471231460571e-01" purity="4.3133640289306641e-01" nType="-99"/>
          <Node pos="r" depth="2" NCoef="0" IVar="-1" Cut="0.0000000000000000e+00" cType="1" res="5.7310475967824459e-03" rms="4.4499927759170532e-01" purity="6.2022900581359863e-01" nType="-99"/>
        </Node>
      </Node>
    </BinaryTree>
    <BinaryTree type="DecisionTree" boostWeight="1.0000000000000000e+00" itree="48">
      <Node pos="s" depth="0" NCoef="0" IVar="8" Cut="2.6545014977455139e-01" cType="1" res="-2.5204531084455084e-06" rms="4.5340862870216370e-01" purity="5.0000000000000000e-01" nType="0">
        <Node pos="l" depth="1" NCoef="0" IVar="12" Cut="8.9024722576141357e-01" cType="1" res="1.8363574519753456e-02" rms="4.5642364025115967e-01" purity="5.6592041254043579e-01" nType="0">
          <Node pos="l" depth="2" NCoef="0" IVar="-1" Cut="0.0000000000000000e+00" cType="1" res="5.0712213851511478e-04" rms="4.5008170604705811e-01" purity="5.7748776674270630e-01" nType="-99"/>
          <Node pos="r" depth="2" NCoef="0" IVar="-1" Cut="0.0000000000000000e+00" cType="1" res="1.5420069918036461e-02" rms="4.7250321507453918e-01" purity="5.2879583835601807e-01" nType="-99"/>
        </Node>
        <Node pos="r" depth="1" NCoef="0" IVar="11" Cut="7.7935278415679932e-01" cType="1" res="-1.6556713730096817e-02" rms="4.5003196597099304e-01" purity="4.4058296084403992e-01" nType="0">
          <Node pos="l" depth="2" NCoef="0" IVar="-1" Cut="0.0000000000000000e+00" cType="1" res="4.0880963206291199e-03" rms="4.6092987060546875e-01" purity="5.2705413103103638e-01" nType="-99"/>
          <Node pos="r" depth="2" NCoef="0" IVar="-1" Cut="0.0000000000000000e+00" cType="1" res="-1.3988140970468521e-02" rms="4.3171373009681702e-01" purity="3.3078879117965698e-01" nType="-99"/>
        </Node>
      </Node>
    </BinaryTree>
    <BinaryTree type="DecisionTree" boostWeight="1.0000000000000000e+00" itree="49">
      <Node pos="s" depth="0" NCoef="0" IVar="5" Cut="1.5630326271057129e+00" cType="1" res="-6.7749324443866499e-06" rms="4.5309135317802429e-01" purity="5.0000000000000000e-01" nType="0">
        <Node pos="l" depth="1" NCoef="0" IVar="-1" Cut="0.0000000000000000e+00" cType="1" res="-1.2419116683304310e-02" rms="4.4352227449417114e-01" purity="5.0344824790954590e-01" nType="-99"/>
        <Node pos="r" depth="1" NCoef="0" IVar="5" Cut="2.8854355812072754e+00" cType="1" res="5.0823609344661236e-03" rms="4.5364186167716980e-01" purity="4.9967762827873230e-01" nType="0">
          <Node pos="l" depth="2" NCoef="0" IVar="-1" Cut="0.0000000000000000e+00" cType="1" res="2.4992034304887056e-03" rms="4.5604461431503296e-01" purity="5.1650619506835938e-01" nType="-99"/>
          <Node pos="r" depth="2" NCoef="0" IVar="-1" Cut="0.0000000000000000e+00" cType="1" res="-2.0358307287096977e-02" rms="4.0517321228981018e-01" purity="2.4742268025875092e-01" nType="-99"/>
        </Node>
      </Node>
    </BinaryTree>
    <BinaryTree type="DecisionTree" boostWeight="1.0000000000000000e+00" itree="50">
      <Node pos="s" depth="0" NCoef="0" IVar="4" Cut="2.6015313720703125e+02" cType="1" res="-8.5232886704034172e-06" rms="4.5292454957962036e-01" purity="5.0000000000000000e-01" nType="0">
        <Node pos="l" depth="1" NCoef="0" IVar="-1" Cut="0.0000000000000000e+00" cType="1" res="-1.7504004761576653e-02" rms="3.6734402179718018e-01" purity="1.8487395346164703e-01" nType="-99"/>
        <Node pos="r" depth="1" NCoef="0" IVar="11" Cut="4.4029992818832397e-01" cType="1" res="4.5227175578474998e-03" rms="4.5841598510742188e-01" purity="5.2377933263778687e-01" nType="0">
          <Node pos="l" depth="2" NCoef="0" IVar="-1" Cut="0.0000000000000000e+00" cType="1" res="1.2981678359210491e-02" rms="4.5333191752433777e-01" purity="6.3529413938522339e-01" nType="-99"/>
          <Node pos="r" depth="2" NCoef="0" IVar="-1" Cut="0.0000000000000000e+00" cType="1" res="-4.5376038178801537e-04" rms="4.5858973264694214e-01" purity="5.1030564308166504e-01" nType="-99"/>
        </Node>
      </Node>
    </BinaryTree>
    <BinaryTree type="DecisionTree" boostWeight="1.0000000000000000e+00" itree="51">
      <Node pos="s" depth="0" NCoef="0" IVar="8" Cut="1.6875568032264709e-01" cType="1" res="-1.0048135663964786e-05" rms="4.5279765129089355e-01" purity="5.0000000000000000e-01" nType="0">
        <Node pos="l" depth="1" NCoef="0" IVar="8" Cut="4.8838332295417786e-02" cType="1" res="2.4903737008571625e-02" rms="4.5323610305786133e-01" purity="5.9803920984268188e-01" nType="0">
          <Node pos="l" depth="2" NCoef="0" IVar="-1" Cut="0.0000000000000000e+00" cType="1" res="1.9135996699333191e-02" rms="4.3840396404266357e-01" purity="6.9662922620773315e-01" nType="-99"/>
          <Node pos="r" depth="2" NCoef="0" IVar="-1" Cut="0.0000000000000000e+00" cType="1" res="2.8005419299006462e-03" rms="4.5533427596092224e-01" purity="5.7719713449478149e-01" nType="-99"/>
        </Node>
        <Node pos="r" depth="1" NCoef="0" IVar="13" Cut="2.9529300332069397e-01" cType="1" res="-1.0723396204411983e-02" rms="4.5218715071678162e-01" purity="4.5784148573875427e-01" nType="0">
          <Node pos="l" depth="2" NCoef="0" IVar="-1" Cut="0.0000000000000000e+00" cType="1" res="9.1996779665350914e-03" rms="4.5021355152130127e-01" purity="5.7831323146820068e-01" nType="-99"/>
          <Node pos="r" depth="2" NCoef="0" IVar="-1" Cut="0.0000000000000000e+00" cType="1" res="-5.5108987726271152e-03" rms="4.5171710848808289e-01" purity="4.2582711577415466e-01" nType="-99"/>
        </Node>
      </Node>
    </BinaryTree>
    <BinaryTree type="DecisionTree" boostWeight="1.0000000000000000e+00" itree="52">
      <Node pos="s" depth="0" NCoef="0" IVar="6" Cut="9.2667698860168457e-01" cType="1" res="-7.4510376180114690e-06" rms="4.5259940624237061e-01" purity="5.0000000000000000e-01" nType="0">
        <Node pos="l" depth="1" NCoef="0" IVar="6" Cut="9.1739696264266968e-01" cType="1" res="-2.5015115737915039e-02" rms="4.4376459717750549e-01" purity="3.6268344521522522e-01" nType="0">
          <Node pos="l" depth="2" NCoef="0" IVar="-1" Cut="0.0000000000000000e+00" cType="1" res="-1.0591240134090185e-03" rms="4.4572597742080688e-01" purity="3.8176637887954712e-01" nType="-99"/>
          <Node pos="r" depth="2" NCoef="0" IVar="-1" Cut="0.0000000000000000e+00" cType="1" res="-1.8899977207183838e-02" rms="4.3322679400444031e-01" purity="3.0952382087707520e-01" nType="-99"/>
        </Node>
        <Node pos="r" depth="1" NCoef="0" IVar="11" Cut="1.1065754890441895e+00" cType="1" res="9.7781568765640259e-03" rms="4.5563644170761108e-01" purity="5.5373257398605347e-01" nType="0">
          <Node pos="l" depth="2" NCoef="0" IVar="-1" Cut="0.0000000000000000e+00" cType="1" res="3.8638268597424030e-03" rms="4.5735079050064087e-01" purity="5.6831121444702148e-01" nType="-99"/>
          <Node pos="r" depth="2" NCoef="0" IVar="-1" Cut="0.0000000000000000e+00" cType="1" res="-8.2776993513107300e-03" rms="4.4160529971122742e-01" purity="4.6060606837272644e-01" nType="-99"/>
        </Node>
      </Node>
    </BinaryTree>
    <BinaryTree type="DecisionTree" boostWeight="1.0000000000000000e+00" itree="53">
      <Node pos="s" depth="0" NCoef="0" IVar="5" Cut="1.5630326271057129e+00" cType="1" res="-8.4210978457122110e-06" rms="4.5242661237716675e-01" purity="5.0000000000000000e-01" nType="0">
        <Node pos="l" depth="1" NCoef="0" IVar="-1" Cut="0.0000000000000000e+00" cType="1" res="-1.1562322266399860e-02" rms="4.4194787740707397e-01" purity="5.0344824790954590e-01" nType="-99"/>
        <Node pos="r" depth="1" NCoef="0" IVar="4" Cut="6.9935266113281250e+02" cType="1" res="4.7190529294312000e-03" rms="4.5310550928115845e-01" purity="4.9967762827873230e-01" nType="0">
          <Node pos="l" depth="2" NCoef="0" IVar="-1" Cut="0.0000000000000000e+00" cType="1" res="-4.1900662472471595e-04" rms="4.5410415530204773e-01" purity="4.8220515251159668e-01" nType="-99"/>
          <Node pos="r" depth="2" NCoef="0" IVar="-1" Cut="0.0000000000000000e+00" cType="1" res="1.9185710698366165e-02" rms="4.3289336562156677e-01" purity="7.1186441183090210e-01" nType="-99"/>
        </Node>
      </Node>
    </BinaryTree>
    <BinaryTree type="DecisionTree" boostWeight="1.0000000000000000e+00" itree="54">
      <Node pos="s" depth="0" NCoef="0" IVar="6" Cut="9.8320847749710083e-01" cType="1" res="-4.5035462790110614e-06" rms="4.5227208733558655e-01" purity="5.0000000000000000e-01" nType="0">
        <Node pos="l" depth="1" NCoef="0" IVar="8" Cut="2.1710291504859924e-01" cType="1" res="-5.2963891066610813e-03" rms="4.5764368772506714e-01" purity="4.7097626328468323e-01" nType="0">
          <Node pos="l" depth="2" NCoef="0" IVar="-1" Cut="0.0000000000000000e+00" cType="1" res="4.0341587737202644e-03" rms="4.6292501688003540e-01" purity="5.5979204177856445e-01" nType="-99"/>
          <Node pos="r" depth="2" NCoef="0" IVar="-1" Cut="0.0000000000000000e+00" cType="1" res="-4.4517982751131058e-03" rms="4.5375618338584900e-01" purity="4.1640043258666992e-01" nType="-99"/>
        </Node>
        <Node pos="r" depth="1" NCoef="0" IVar="6" Cut="9.9094235897064209e-01" cType="1" res="4.4564932584762573e-02" rms="4.0145063400268555e-01" purity="7.4444442987442017e-01" nType="0">
          <Node pos="l" depth="2" NCoef="0" IVar="-1" Cut="0.0000000000000000e+00" cType="1" res="2.0072147250175476e-02" rms="3.6165553331375122e-01" purity="7.7419352531433105e-01" nType="-99"/>
          <Node pos="r" depth="2" NCoef="0" IVar="-1" Cut="0.0000000000000000e+00" cType="1" res="2.6349008549004793e-03" rms="4.3744021654129028e-01" purity="7.1264368295669556e-01" nType="-99"/>
        </Node>
      </Node>
    </BinaryTree>
    <BinaryTree type="DecisionTree" boostWeight="1.0000000000000000e+00" itree="55">
      <Node pos="s" depth="0" NCoef="0" IVar="13" Cut="1.4988607168197632e-01" cType="1" res="-1.3714910664930358e-06" rms="4.5216149091720581e-01" purity="5.0000000000000000e-01" nType="0">
        <Node pos="l" depth="1" NCoef="0" IVar="-1" Cut="0.0000000000000000e+00" cType="1" res="1.5244442969560623e-02" rms="4.3418994545936584e-01" purity="6.3218390941619873e-01" nType="-99"/>
        <Node pos="r" depth="1" NCoef="0" IVar="9" Cut="9.8240906000137329e-01" cType="1" res="-3.5376651212573051e-03" rms="4.5284384489059448e-01" purity="4.9285271763801575e-01" nType="0">
          <Node pos="l" depth="2" NCoef="0" IVar="-1" Cut="0.0000000000000000e+00" cType="1" res="-3.3783207181841135e-03" rms="4.5663893222808838e-01" purity="4.3133640289306641e-01" nType="-99"/>
          <Node pos="r" depth="2" NCoef="0" IVar="-1" Cut="0.0000000000000000e+00" cType="1" res="4.7149234451353550e-03" rms="4.4392490386962891e-01" purity="6.2022900581359863e-01" nType="-99"/>
        </Node>
      </Node>
    </BinaryTree>
    <BinaryTree type="DecisionTree" boostWeight="1.0000000000000000e+00" itree="56">
      <Node pos="s" depth="0" NCoef="0" IVar="4" Cut="2.6015313720703125e+02" cType="1" res="-4.2747706174850464e-07" rms="4.5207431912422180e-01" purity="5.0000000000000000e-01" nType="0">
        <Node pos="l" depth="1" NCoef="0" IVar="-1" Cut="0.0000000000000000e+00" cType="1" res="-1.5921093523502350e-02" rms="3.6678904294967651e-01" purity="1.8487395346164703e-01" nType="-99"/>
        <Node pos="r" depth="1" NCoef="0" IVar="3" Cut="5.8407006835937500e+02" cType="1" res="4.0252408944070339e-03" rms="4.5761349797248840e-01" purity="5.2377933263778687e-01" nType="0">
          <Node pos="l" depth="2" NCoef="0" IVar="-1" Cut="0.0000000000000000e+00" cType="1" res="-2.6074715424329042e-03" rms="4.5944979786872864e-01" purity="4.5796459913253784e-01" nType="-99"/>
          <Node pos="r" depth="2" NCoef="0" IVar="-1" Cut="0.0000000000000000e+00" cType="1" res="5.5984496138989925e-03" rms="4.5427730679512024e-01" purity="6.1218422651290894e-01" nType="-99"/>
        </Node>
      </Node>
    </BinaryTree>
    <BinaryTree type="DecisionTree" boostWeight="1.0000000000000000e+00" itree="57">
      <Node pos="s" depth="0" NCoef="0" IVar="8" Cut="4.1049185395240784e-01" cType="1" res="-2.4245314307336230e-06" rms="4.5197510719299316e-01" purity="5.0000000000000000e-01" nType="0">
        <Node pos="l" depth="1" NCoef="0" IVar="6" Cut="9.7501105070114136e-01" cType="1" res="9.6948593854904175e-03" rms="4.5303070545196533e-01" purity="5.3780066967010498e-01" nType="0">
          <Node pos="l" depth="2" NCoef="0" IVar="-1" Cut="0.0000000000000000e+00" cType="1" res="-3.7501950282603502e-04" rms="4.6539977192878723e-01" purity="4.7858673334121704e-01" nType="-99"/>
          <Node pos="r" depth="2" NCoef="0" IVar="-1" Cut="0.0000000000000000e+00" cType="1" res="1.4755583368241787e-02" rms="3.9551320672035217e-01" purity="7.7826088666915894e-01" nType="-99"/>
        </Node>
        <Node pos="r" depth="1" NCoef="0" IVar="12" Cut="7.8165167570114136e-01" cType="1" res="-2.1219791844487190e-02" rms="4.4892686605453491e-01" purity="4.1729322075843811e-01" nType="0">
          <Node pos="l" depth="2" NCoef="0" IVar="-1" Cut="0.0000000000000000e+00" cType="1" res="2.0861122757196426e-03" rms="4.5706430077552795e-01" purity="4.8800000548362732e-01" nType="-99"/>
          <Node pos="r" depth="2" NCoef="0" IVar="-1" Cut="0.0000000000000000e+00" cType="1" res="-2.2316917777061462e-02" rms="4.1997104883193970e-01" purity="2.4840764701366425e-01" nType="-99"/>
        </Node>
      </Node>
    </BinaryTree>
    <BinaryTree type="DecisionTree" boostWeight="1.0000000000000000e+00" itree="58">
      <Node pos="s" depth="0" NCoef="0" IVar="5" Cut="1.5630326271057129e+00" cType="1" res="-3.1343925002147444e-06" rms="4.5172384381294250e-01" purity="5.0000000000000000e-01" nType="0">
        <Node pos="l" depth="1" NCoef="0" IVar="-1" Cut="0.0000000000000000e+00" cType="1" res="-1.0790975764393806e-02" rms="4.4088283181190491e-01" purity="5.0344824790954590e-01" nType="-99"/>
        <Node pos="r" depth="1" NCoef="0" IVar="4" Cut="6.9935266113281250e+02" cType="1" res="4.3860622681677341e-03" rms="4.5247516036033630e-01" purity="4.9967762827873230e-01" nType="0">
          <Node pos="l" depth="2" NCoef="0" IVar="-1" Cut="0.0000000000000000e+00" cType="1" res="-3.0846809386275709e-04" rms="4.5362725853919983e-01" purity="4.8220515251159668e-01" nType="-99"/>
          <Node pos="r" depth="2" NCoef="0" IVar="-1" Cut="0.0000000000000000e+00" cType="1" res="1.7078898847103119e-02" rms="4.3218958377838135e-01" purity="7.1186441183090210e-01" nType="-99"/>
        </Node>
      </Node>
    </BinaryTree>
    <BinaryTree type="DecisionTree" boostWeight="1.0000000000000000e+00" itree="59">
      <Node pos="s" depth="0" NCoef="0" IVar="11" Cut="1.1065754890441895e+00" cType="1" res="-2.6483826331968885e-07" rms="4.5160037279129028e-01" purity="5.0000000000000000e-01" nType="0">
        <Node pos="l" depth="1" NCoef="0" IVar="12" Cut="1.0049556493759155e+00" cType="1" res="5.7200677692890167e-03" rms="4.5340549945831299e-01" purity="5.1513069868087769e-01" nType="0">
          <Node pos="l" depth="2" NCoef="0" IVar="-1" Cut="0.0000000000000000e+00" cType="1" res="-3.4598942875163630e-05" rms="4.5069065690040588e-01" purity="5.1570487022399902e-01" nType="-99"/>
          <Node pos="r" depth="2" NCoef="0" IVar="-1" Cut="0.0000000000000000e+00" cType="1" res="2.2792827337980270e-02" rms="4.8539477586746216e-01" purity="5.0588238239288330e-01" nType="-99"/>
        </Node>
        <Node pos="r" depth="1" NCoef="0" IVar="12" Cut="1.1215149164199829e+00" cType="1" res="-3.4369535744190216e-02" rms="4.3903252482414246e-01" purity="4.0909090638160706e-01" nType="0">
          <Node pos="l" depth="2" NCoef="0" IVar="-1" Cut="0.0000000000000000e+00" cType="1" res="-1.3606209307909012e-02" rms="4.4379043579101562e-01" purity="4.3382352590560913e-01" nType="-99"/>
          <Node pos="r" depth="2" NCoef="0" IVar="-1" Cut="0.0000000000000000e+00" cType="1" res="-1.3508014671970159e-04" rms="4.3049782514572144e-01" purity="3.7735849618911743e-01" nType="-99"/>
        </Node>
      </Node>
    </BinaryTree>
    <BinaryTree type="DecisionTree" boostWeight="1.0000000000000000e+00" itree="60">
      <Node pos="s" depth="0" NCoef="0" IVar="5" Cut="2.7962517738342285e+00" cType="1" res="-2.0818133634747937e-06" rms="4.5140063762664795e-01" purity="5.0000000000000000e-01" nType="0">
        <Node pos="l" depth="1" NCoef="0" IVar="7" Cut="1.8029676284641027e-03" cType="1" res="4.0302420966327190e-03" rms="4.5395269989967346e-01" purity="5.1823419332504272e-01" nType="0">
          <Node pos="l" depth="2" NCoef="0" IVar="-1" Cut="0.0000000000000000e+00" cType="1" res="5.1870793104171753e-03" rms="4.4228419661521912e-01" purity="6.0526317358016968e-01" nType="-99"/>
          <Node pos="r" depth="2" NCoef="0" IVar="-1" Cut="0.0000000000000000e+00" cType="1" res="-3.2847581896930933e-03" rms="4.6505519747734070e-01" purity="4.2745098471641541e-01" nType="-99"/>
        </Node>
        <Node pos="r" depth="1" NCoef="0" IVar="-1" Cut="0.0000000000000000e+00" cType="1" res="-1.1357889510691166e-02" rms="4.1734033823013306e-01" purity="2.8571429848670959e-01" nType="-99"/>
      </Node>
    </BinaryTree>
    <BinaryTree type="DecisionTree" boostWeight="1.0000000000000000e+00" itree="61">
      <Node pos="s" depth="0" NCoef="0" IVar="13" Cut="1.4988607168197632e-01" cType="1" res="-2.5348756480525481e-06" rms="4.5131102204322815e-01" purity="5.0000000000000000e-01" nType="0">
        <Node pos="l" depth="1" NCoef="0" IVar="-1" Cut="0.0000000000000000e+00" cType="1" res="1.3824847526848316e-02" rms="4.3338000774383545e-01" purity="6.3218390941619873e-01" nType="-99"/>
        <Node pos="r" depth="1" NCoef="0" IVar="8" Cut="3.6214461922645569e-01" cType="1" res="-3.1825525220483541e-03" rms="4.5204231142997742e-01" purity="4.9285271763801575e-01" nType="0">
          <Node pos="l" depth="2" NCoef="0" IVar="-1" Cut="0.0000000000000000e+00" cType="1" res="1.9534549210220575e-03" rms="4.5387202501296997e-01" purity="5.3931450843811035e-01" nType="-99"/>
          <Node pos="r" depth="2" NCoef="0" IVar="-1" Cut="0.0000000000000000e+00" cType="1" res="-5.0294552929699421e-03" rms="4.4843742251396179e-01" purity="4.1815236210823059e-01" nType="-99"/>
        </Node>
      </Node>
    </BinaryTree>
    <BinaryTree type="DecisionTree" boostWeight="1.0000000000000000e+00" itree="62">
      <Node pos="s" depth="0" NCoef="0" IVar="4" Cut="2.6015313720703125e+02" cType="1" res="-2.1302553250279743e-06" rms="4.5123407244682312e-01" purity="5.0000000000000000e-01" nType="0">
        <Node pos="l" depth="1" NCoef="0" IVar="-1" Cut="0.0000000000000000e+00" cType="1" res="-1.4570862986147404e-02" rms="3.6618450284004211e-01" purity="1.8487395346164703e-01" nType="-99"/>
        <Node pos="r" depth="1" NCoef="0" IVar="11" Cut="3.6626932024955750e-01" cType="1" res="3.6121099255979061e-03" rms="4.5680636167526245e-01" purity="5.2377933263778687e-01" nType="0">
          <Node pos="l" depth="2" NCoef="0" IVar="-1" Cut="0.0000000000000000e+00" cType="1" res="1.5669435262680054e-02" rms="4.3932914733886719e-01" purity="6.7741936445236206e-01" nType="-99"/>
          <Node pos="r" depth="2" NCoef="0" IVar="-1" Cut="0.0000000000000000e+00" cType="1" res="-1.0069827112602070e-04" rms="4.5757368206977844e-01" purity="5.1415091753005981e-01" nType="-99"/>
        </Node>
      </Node>
    </BinaryTree>
    <BinaryTree type="DecisionTree" boostWeight="1.0000000000000000e+00" itree="63">
      <Node pos="s" depth="0" NCoef="0" IVar="5" Cut="1.5630326271057129e+00" cType="1" res="-3.1247498100128723e-06" rms="4.5114162564277649e-01" purity="5.0000000000000000e-01" nType="0">
        <Node pos="l" depth="1" NCoef="0" IVar="-1" Cut="0.0000000000000000e+00" cType="1" res="-9.8688546568155289e-03" rms="4.3990731239318848e-01" purity="5.0344824790954590e-01" nType="-99"/>
        <Node pos="r" depth="1" NCoef="0" IVar="5" Cut="2.8854355812072754e+00" cType="1" res="4.0023042820394039e-03" rms="4.5197007060050964e-01" purity="4.9967762827873230e-01" nType="0">
          <Node pos="l" depth="2" NCoef="0" IVar="-1" Cut="0.0000000000000000e+00" cType="1" res="1.9995211623609066e-03" rms="4.5463278889656067e-01" purity="5.1650619506835938e-01" nType="-99"/>
          <Node pos="r" depth="2" NCoef="0" IVar="-1" Cut="0.0000000000000000e+00" cType="1" res="-1.6706215217709541e-02" rms="4.0317377448081970e-01" purity="2.4742268025875092e-01" nType="-99"/>
        </Node>
      </Node>
    </BinaryTree>
    <BinaryTree type="DecisionTree" boostWeight="1.0000000000000000e+00" itree="64">
      <Node pos="s" depth="0" NCoef="0" IVar="11" Cut="1.1065754890441895e+00" cType="1" res="-4.6451164052996319e-06" rms="4.5103755593299866e-01" purity="5.0000000000000000e-01" nType="0">
        <Node pos="l" depth="1" NCoef="0" IVar="12" Cut="1.0049556493759155e+00" cType="1" res="5.1041580736637115e-03" rms="4.5294263958930969e-01" purity="5.1513069868087769e-01" nType="0">
          <Node pos="l" depth="2" NCoef="0" IVar="-1" Cut="0.0000000000000000e+00" cType="1" res="-5.7119868870358914e-05" rms="4.5033475756645203e-01" purity="5.1570487022399902e-01" nType="-99"/>
          <Node pos="r" depth="2" NCoef="0" IVar="-1" Cut="0.0000000000000000e+00" cType="1" res="2.0696012303233147e-02" rms="4.8497217893600464e-01" purity="5.0588238239288330e-01" nType="-99"/>
        </Node>
        <Node pos="r" depth="1" NCoef="0" IVar="12" Cut="1.1215149164199829e+00" cType="1" res="-3.0699685215950012e-02" rms="4.3816509842872620e-01" purity="4.0909090638160706e-01" nType="0">
          <Node pos="l" depth="2" NCoef="0" IVar="-1" Cut="0.0000000000000000e+00" cType="1" res="-1.2475214898586273e-02" rms="4.4324076175689697e-01" purity="4.3382352590560913e-01" nType="-99"/>
          <Node pos="r" depth="2" NCoef="0" IVar="-1" Cut="0.0000000000000000e+00" cType="1" res="2.5691834161989391e-04" rms="4.2947682738304138e-01" purity="3.7735849618911743e-01" nType="-99"/>
        </Node>
      </Node>
    </BinaryTree>
    <BinaryTree type="DecisionTree" boostWeight="1.0000000000000000e+00" itree="65">
      <Node pos="s" depth="0" NCoef="0" IVar="13" Cut="4.4069993495941162e-01" cType="1" res="-5.5997220442804974e-06" rms="4.5086798071861267e-01" purity="5.0000000000000000e-01" nType="0">
        <Node pos="l" depth="1" NCoef="0" IVar="2" Cut="5.1435386657714844e+01" cType="1" res="1.5947109088301659e-02" rms="4.4639864563941956e-01" purity="5.6164383888244629e-01" nType="0">
          <Node pos="l" depth="2" NCoef="0" IVar="-1" Cut="0.0000000000000000e+00" cType="1" res="-7.3329601436853409e-03" rms="4.4760736823081970e-01" purity="4.4557821750640869e-01" nType="-99"/>
          <Node pos="r" depth="2" NCoef="0" IVar="-1" Cut="0.0000000000000000e+00" cType="1" res="1.2344658374786377e-02" rms="4.4167783856391907e-01" purity="6.5564739704132080e-01" nType="-99"/>
        </Node>
        <Node pos="r" depth="1" NCoef="0" IVar="13" Cut="4.9291008710861206e-01" cType="1" res="-1.0093116201460361e-02" rms="4.5338177680969238e-01" purity="4.6102020144462585e-01" nType="0">
          <Node pos="l" depth="2" NCoef="0" IVar="-1" Cut="0.0000000000000000e+00" cType="1" res="-2.7067238464951515e-02" rms="4.4134920835494995e-01" purity="4.0540540218353271e-01" nType="-99"/>
          <Node pos="r" depth="2" NCoef="0" IVar="-1" Cut="0.0000000000000000e+00" cType="1" res="7.2428205749019980e-04" rms="4.5298528671264648e-01" purity="4.6767240762710571e-01" nType="-99"/>
        </Node>
      </Node>
    </BinaryTree>
    <BinaryTree type="DecisionTree" boostWeight="1.0000000000000000e+00" itree="66">
      <Node pos="s" depth="0" NCoef="0" IVar="8" Cut="1.6875568032264709e-01" cType="1" res="-2.0840100205532508e-06" rms="4.5047685503959656e-01" purity="5.0000000000000000e-01" nType="0">
        <Node pos="l" depth="1" NCoef="0" IVar="8" Cut="4.8838332295417786e-02" cType="1" res="1.9115451723337173e-02" rms="4.5152533054351807e-01" purity="5.9803920984268188e-01" nType="0">
          <Node pos="l" depth="2" NCoef="0" IVar="-1" Cut="0.0000000000000000e+00" cType="1" res="1.6717107966542244e-02" rms="4.3896710872650146e-01" purity="6.9662922620773315e-01" nType="-99"/>
          <Node pos="r" depth="2" NCoef="0" IVar="-1" Cut="0.0000000000000000e+00" cType="1" res="1.8187060486525297e-03" rms="4.5335292816162109e-01" purity="5.7719713449478149e-01" nType="-99"/>
        </Node>
        <Node pos="r" depth="1" NCoef="0" IVar="3" Cut="5.3521124267578125e+02" cType="1" res="-8.2229459658265114e-03" rms="4.4977545738220215e-01" purity="4.5784148573875427e-01" nType="0">
          <Node pos="l" depth="2" NCoef="0" IVar="-1" Cut="0.0000000000000000e+00" cType="1" res="-7.3518343269824982e-03" rms="4.3461257219314575e-01" purity="3.4974533319473267e-01" nType="-99"/>
          <Node pos="r" depth="2" NCoef="0" IVar="-1" Cut="0.0000000000000000e+00" cType="1" res="3.0980594456195831e-03" rms="4.6316629648208618e-01" purity="5.6448912620544434e-01" nType="-99"/>
        </Node>
      </Node>
    </BinaryTree>
    <BinaryTree type="DecisionTree" boostWeight="1.0000000000000000e+00" itree="67">
      <Node pos="s" depth="0" NCoef="0" IVar="6" Cut="9.2667698860168457e-01" cType="1" res="-1.9172373413312016e-06" rms="4.5034793019294739e-01" purity="5.0000000000000000e-01" nType="0">
        <Node pos="l" depth="1" NCoef="0" IVar="6" Cut="9.1739696264266968e-01" cType="1" res="-2.0109701901674271e-02" rms="4.4154644012451172e-01" purity="3.6268344521522522e-01" nType="0">
          <Node pos="l" depth="2" NCoef="0" IVar="-1" Cut="0.0000000000000000e+00" cType="1" res="-3.6935563548468053e-04" rms="4.4351768493652344e-01" purity="3.8176637887954712e-01" nType="-99"/>
          <Node pos="r" depth="2" NCoef="0" IVar="-1" Cut="0.0000000000000000e+00" cType="1" res="-1.6911447048187256e-02" rms="4.3184271454811096e-01" purity="3.0952382087707520e-01" nType="-99"/>
        </Node>
        <Node pos="r" depth="1" NCoef="0" IVar="13" Cut="5.7090437412261963e-01" cType="1" res="7.8663462772965431e-03" rms="4.5350289344787598e-01" purity="5.5373257398605347e-01" nType="0">
          <Node pos="l" depth="2" NCoef="0" IVar="-1" Cut="0.0000000000000000e+00" cType="1" res="-1.6337898559868336e-03" rms="4.4747909903526306e-01" purity="5.7391303777694702e-01" nType="-99"/>
          <Node pos="r" depth="2" NCoef="0" IVar="-1" Cut="0.0000000000000000e+00" cType="1" res="6.1360541731119156e-03" rms="4.6051117777824402e-01" purity="5.2741020917892456e-01" nType="-99"/>
        </Node>
      </Node>
    </BinaryTree>
