<?xml version="1.0"?>
<MethodSetup Method="BDT::BDTG">
  <GeneralInfo>
    <Info name="TMVA Release" value="4.2.0 [262656]"/>
    <Info name="ROOT Release" value="6.02/13 [393741]"/>
    <Info name="Creator" value="kschweig"/>
    <Info name="Date" value="Fri Jul  1 12:50:14 2016"/>
    <Info name="Host" value="Linux vocms0301.cern.ch 2.6.32-573.7.1.el6.x86_64 #1 SMP Wed Sep 23 10:12:03 CEST 2015 x86_64 x86_64 x86_64 GNU/Linux"/>
    <Info name="Dir" value="/nfs/dust/cms/user/kschweig/Code/scriptcollection/bjetRegression/classificationtrain"/>
    <Info name="Training events" value="172076"/>
    <Info name="TrainingTime" value="2.67285777e+02"/>
    <Info name="AnalysisType" value="Classification"/>
  </GeneralInfo>
  <Options>
    <Option name="V" modified="No">False</Option>
    <Option name="VerbosityLevel" modified="No">Default</Option>
    <Option name="VarTransform" modified="No">None</Option>
    <Option name="H" modified="No">False</Option>
    <Option name="CreateMVAPdfs" modified="No">False</Option>
    <Option name="IgnoreNegWeightsInTraining" modified="No">False</Option>
    <Option name="NTrees" modified="Yes">1244</Option>
    <Option name="MaxDepth" modified="Yes">2</Option>
    <Option name="MinNodeSize" modified="No">5%</Option>
    <Option name="nCuts" modified="Yes">63</Option>
    <Option name="BoostType" modified="Yes">Grad</Option>
    <Option name="AdaBoostR2Loss" modified="No">quadratic</Option>
    <Option name="UseBaggedBoost" modified="Yes">True</Option>
    <Option name="Shrinkage" modified="Yes">2.809529e-02</Option>
    <Option name="AdaBoostBeta" modified="No">5.000000e-01</Option>
    <Option name="UseRandomisedTrees" modified="No">False</Option>
    <Option name="UseNvars" modified="No">3</Option>
    <Option name="UsePoissonNvars" modified="No">True</Option>
    <Option name="BaggedSampleFraction" modified="No">6.295185e-01</Option>
    <Option name="UseYesNoLeaf" modified="No">True</Option>
    <Option name="NegWeightTreatment" modified="Yes">ignorenegweightsintraining</Option>
    <Option name="Css" modified="No">1.000000e+00</Option>
    <Option name="Cts_sb" modified="No">1.000000e+00</Option>
    <Option name="Ctb_ss" modified="No">1.000000e+00</Option>
    <Option name="Cbb" modified="No">1.000000e+00</Option>
    <Option name="NodePurityLimit" modified="No">5.000000e-01</Option>
    <Option name="SeparationType" modified="No">giniindex</Option>
    <Option name="DoBoostMonitor" modified="No">False</Option>
    <Option name="UseFisherCuts" modified="No">False</Option>
    <Option name="MinLinCorrForFisher" modified="No">8.000000e-01</Option>
    <Option name="UseExclusiveVars" modified="No">False</Option>
    <Option name="DoPreselection" modified="No">False</Option>
    <Option name="SigToBkgFraction" modified="No">1.000000e+00</Option>
    <Option name="PruneMethod" modified="No">nopruning</Option>
    <Option name="PruneStrength" modified="No">0.000000e+00</Option>
    <Option name="PruningValFraction" modified="No">5.000000e-01</Option>
    <Option name="nEventsMin" modified="No">0</Option>
    <Option name="UseBaggedGrad" modified="No">False</Option>
    <Option name="GradBaggingFraction" modified="Yes">6.295185e-01</Option>
    <Option name="UseNTrainEvents" modified="No">0</Option>
    <Option name="NNodesMax" modified="No">0</Option>
  </Options>
  <Variables NVar="9">
    <Variable VarIndex="0" Expression="h1" Label="h1" Title="h1" Unit="units" Internal="h1" Type="F" Min="-1.99733883e-01" Max="3.75839084e-01"/>
    <Variable VarIndex="1" Expression="avg_dr_tagged_jets" Label="avg_dr_tagged_jets" Title="avg_dr_tagged_jets" Unit="units" Internal="avg_dr_tagged_jets" Type="F" Min="3.96392912e-01" Max="5.42531204e+00"/>
    <Variable VarIndex="2" Expression="sphericity" Label="sphericity" Title="sphericity" Unit="units" Internal="sphericity" Type="F" Min="5.14591904e-03" Max="9.54666674e-01"/>
    <Variable VarIndex="3" Expression="third_highest_btag" Label="third_highest_btag" Title="third_highest_btag" Unit="units" Internal="third_highest_btag" Type="F" Min="-1.00000001e-01" Max="9.99200761e-01"/>
    <Variable VarIndex="4" Expression="h3" Label="h3" Title="h3" Unit="units" Internal="h3" Type="F" Min="-2.20245607e-02" Max="1.07231236e+00"/>
    <Variable VarIndex="5" Expression="HT" Label="HT" Title="HT" Unit="units" Internal="HT" Type="F" Min="1.96144775e+02" Max="4.22311572e+03"/>
    <Variable VarIndex="6" Expression="Mlb" Label="Mlb" Title="Mlb" Unit="units" Internal="Mlb" Type="F" Min="1.47349615e+01" Max="1.16210583e+03"/>
    <Variable VarIndex="7" Expression="fifth_highest_CSV" Label="fifth_highest_CSV" Title="fifth_highest_CSV" Unit="units" Internal="fifth_highest_CSV" Type="F" Min="-1.00000001e-01" Max="9.93767202e-01"/>
    <Variable VarIndex="8" Expression="fourth_highest_btag" Label="fourth_highest_btag" Title="fourth_highest_btag" Unit="units" Internal="fourth_highest_btag" Type="F" Min="-1.00000001e-01" Max="9.97865319e-01"/>
  </Variables>
  <Spectators NSpec="0"/>
  <Classes NClass="2">
    <Class Name="Signal" Index="0"/>
    <Class Name="Background" Index="1"/>
  </Classes>
  <Transformations NTransformations="0"/>
  <MVAPdfs/>
  <Weights NTrees="1244" AnalysisType="1">
    <BinaryTree type="DecisionTree" boostWeight="1.0000000000000000e+00" itree="0">
      <Node pos="s" depth="0" NCoef="0" IVar="3" Cut="7.8198558092117310e-01" cType="1" res="6.2129111029207706e-04" rms="4.9999961256980896e-01" purity="5.0062125921249390e-01" nType="0">
        <Node pos="l" depth="1" NCoef="0" IVar="3" Cut="5.3820204734802246e-01" cType="1" res="-1.8428725004196167e-01" rms="4.6479910612106323e-01" purity="3.1571274995803833e-01" nType="0">
          <Node pos="l" depth="2" NCoef="0" IVar="-1" Cut="0.0000000000000000e+00" cType="1" res="-1.5699552372097969e-02" rms="4.2381438612937927e-01" purity="2.3470515012741089e-01" nType="-99"/>
          <Node pos="r" depth="2" NCoef="0" IVar="-1" Cut="0.0000000000000000e+00" cType="1" res="-2.7989889495074749e-03" rms="4.9657335877418518e-01" purity="4.4156289100646973e-01" nType="-99"/>
        </Node>
        <Node pos="r" depth="1" NCoef="0" IVar="3" Cut="8.8713496923446655e-01" cType="1" res="2.5936090946197510e-01" rms="4.2747154831886292e-01" purity="7.5936096906661987e-01" nType="0">
          <Node pos="l" depth="2" NCoef="0" IVar="-1" Cut="0.0000000000000000e+00" cType="1" res="5.8452957309782505e-03" rms="4.7854211926460266e-01" purity="6.4490491151809692e-01" nType="-99"/>
          <Node pos="r" depth="2" NCoef="0" IVar="-1" Cut="0.0000000000000000e+00" cType="1" res="1.2067739851772785e-02" rms="3.6113914847373962e-01" purity="8.4580123424530029e-01" nType="-99"/>
        </Node>
      </Node>
    </BinaryTree>
    <BinaryTree type="DecisionTree" boostWeight="1.0000000000000000e+00" itree="1">
      <Node pos="s" depth="0" NCoef="0" IVar="3" Cut="7.9310059547424316e-01" cType="1" res="2.9194720555096865e-03" rms="4.9738788604736328e-01" purity="5.0176936388015747e-01" nType="0">
        <Node pos="l" depth="1" NCoef="0" IVar="3" Cut="5.5586653947830200e-01" cType="1" res="-1.6924704611301422e-01" rms="4.6785828471183777e-01" purity="3.2565239071846008e-01" nType="0">
          <Node pos="l" depth="2" NCoef="0" IVar="-1" Cut="0.0000000000000000e+00" cType="1" res="-1.4755506068468094e-02" rms="4.2781442403793335e-01" purity="2.4129584431648254e-01" nType="-99"/>
          <Node pos="r" depth="2" NCoef="0" IVar="-1" Cut="0.0000000000000000e+00" cType="1" res="-1.6763982130214572e-03" rms="4.9859505891799927e-01" purity="4.6319600939750671e-01" nType="-99"/>
        </Node>
        <Node pos="r" depth="1" NCoef="0" IVar="8" Cut="5.6901168823242188e-01" cType="1" res="2.6050949096679688e-01" rms="4.2348492145538330e-01" purity="7.6526993513107300e-01" nType="0">
          <Node pos="l" depth="2" NCoef="0" IVar="-1" Cut="0.0000000000000000e+00" cType="1" res="6.3204285688698292e-03" rms="4.7224903106689453e-01" purity="6.6337281465530396e-01" nType="-99"/>
          <Node pos="r" depth="2" NCoef="0" IVar="-1" Cut="0.0000000000000000e+00" cType="1" res="1.2212190777063370e-02" rms="3.4904691576957703e-01" purity="8.5774040222167969e-01" nType="-99"/>
        </Node>
      </Node>
    </BinaryTree>
    <BinaryTree type="DecisionTree" boostWeight="1.0000000000000000e+00" itree="2">
      <Node pos="s" depth="0" NCoef="0" IVar="3" Cut="7.5875061750411987e-01" cType="1" res="2.7078532148152590e-03" rms="4.9488395452499390e-01" purity="5.0054621696472168e-01" nType="0">
        <Node pos="l" depth="1" NCoef="0" IVar="3" Cut="5.5747306346893311e-01" cType="1" res="-1.8481399118900299e-01" rms="4.5895600318908691e-01" purity="3.0448094010353088e-01" nType="0">
          <Node pos="l" depth="2" NCoef="0" IVar="-1" Cut="0.0000000000000000e+00" cType="1" res="-1.4582264237105846e-02" rms="4.2578530311584473e-01" purity="2.3799739778041840e-01" nType="-99"/>
          <Node pos="r" depth="2" NCoef="0" IVar="-1" Cut="0.0000000000000000e+00" cType="1" res="-2.8132924344390631e-03" rms="4.9628442525863647e-01" purity="4.3915787339210510e-01" nType="-99"/>
        </Node>
        <Node pos="r" depth="1" NCoef="0" IVar="3" Cut="8.8273322582244873e-01" cType="1" res="2.3450358211994171e-01" rms="4.3597549200057983e-01" purity="7.4290251731872559e-01" nType="0">
          <Node pos="l" depth="2" NCoef="0" IVar="-1" Cut="0.0000000000000000e+00" cType="1" res="4.6790372580289841e-03" rms="4.8511311411857605e-01" purity="6.1908799409866333e-01" nType="-99"/>
          <Node pos="r" depth="2" NCoef="0" IVar="-1" Cut="0.0000000000000000e+00" cType="1" res="1.1655315756797791e-02" rms="3.6227717995643616e-01" purity="8.4431028366088867e-01" nType="-99"/>
        </Node>
      </Node>
    </BinaryTree>
    <BinaryTree type="DecisionTree" boostWeight="1.0000000000000000e+00" itree="3">
      <Node pos="s" depth="0" NCoef="0" IVar="3" Cut="7.8200155496597290e-01" cType="1" res="2.9545316938310862e-03" rms="4.9246352910995483e-01" purity="4.9966877698898315e-01" nType="0">
        <Node pos="l" depth="1" NCoef="0" IVar="3" Cut="5.6027382612228394e-01" cType="1" res="-1.6882205009460449e-01" rms="4.6288323402404785e-01" purity="3.1583526730537415e-01" nType="0">
          <Node pos="l" depth="2" NCoef="0" IVar="-1" Cut="0.0000000000000000e+00" cType="1" res="-1.3981780037283897e-02" rms="4.2734503746032715e-01" purity="2.4054662883281708e-01" nType="-99"/>
          <Node pos="r" depth="2" NCoef="0" IVar="-1" Cut="0.0000000000000000e+00" cType="1" res="-2.1034071687608957e-03" rms="4.9767464399337769e-01" purity="4.5253533124923706e-01" nType="-99"/>
        </Node>
        <Node pos="r" depth="1" NCoef="0" IVar="3" Cut="8.9739233255386353e-01" cType="1" res="2.4295201897621155e-01" rms="4.2799320816993713e-01" purity="7.5651168823242188e-01" nType="0">
          <Node pos="l" depth="2" NCoef="0" IVar="-1" Cut="0.0000000000000000e+00" cType="1" res="5.4383873939514160e-03" rms="4.7810953855514526e-01" purity="6.4472913742065430e-01" nType="-99"/>
          <Node pos="r" depth="2" NCoef="0" IVar="-1" Cut="0.0000000000000000e+00" cType="1" res="1.1811513453722000e-02" rms="3.4929141402244568e-01" purity="8.5751587152481079e-01" nType="-99"/>
        </Node>
      </Node>
    </BinaryTree>
    <BinaryTree type="DecisionTree" boostWeight="1.0000000000000000e+00" itree="4">
      <Node pos="s" depth="0" NCoef="0" IVar="3" Cut="7.5875061750411987e-01" cType="1" res="3.5106623545289040e-03" rms="4.9007070064544678e-01" purity="4.9932619929313660e-01" nType="0">
        <Node pos="l" depth="1" NCoef="0" IVar="3" Cut="4.3671318888664246e-01" cType="1" res="-1.7788870632648468e-01" rms="4.5643746852874756e-01" purity="3.0097708106040955e-01" nType="0">
          <Node pos="l" depth="2" NCoef="0" IVar="-1" Cut="0.0000000000000000e+00" cType="1" res="-1.6201673075556755e-02" rms="4.0476983785629272e-01" purity="2.0646741986274719e-01" nType="-99"/>
          <Node pos="r" depth="2" NCoef="0" IVar="-1" Cut="0.0000000000000000e+00" cType="1" res="-4.8729777336120605e-03" rms="4.8646616935729980e-01" purity="3.8992956280708313e-01" nType="-99"/>
        </Node>
        <Node pos="r" depth="1" NCoef="0" IVar="3" Cut="8.9776128530502319e-01" cType="1" res="2.2661100327968597e-01" rms="4.3483051657676697e-01" purity="7.4327272176742554e-01" nType="0">
          <Node pos="l" depth="2" NCoef="0" IVar="-1" Cut="0.0000000000000000e+00" cType="1" res="4.9941474571824074e-03" rms="4.8108890652656555e-01" purity="6.3356530666351318e-01" nType="-99"/>
          <Node pos="r" depth="2" NCoef="0" IVar="-1" Cut="0.0000000000000000e+00" cType="1" res="1.1643489822745323e-02" rms="3.4831067919731140e-01" purity="8.5846734046936035e-01" nType="-99"/>
        </Node>
      </Node>
    </BinaryTree>
    <BinaryTree type="DecisionTree" boostWeight="1.0000000000000000e+00" itree="5">
      <Node pos="s" depth="0" NCoef="0" IVar="3" Cut="7.9295694828033447e-01" cType="1" res="3.8987423758953810e-03" rms="4.8784083127975464e-01" purity="4.9840500950813293e-01" nType="0">
        <Node pos="l" depth="1" NCoef="0" IVar="3" Cut="5.8366024494171143e-01" cType="1" res="-1.5344585478305817e-01" rms="4.6381869912147522e-01" purity="3.2256621122360229e-01" nType="0">
          <Node pos="l" depth="2" NCoef="0" IVar="-1" Cut="0.0000000000000000e+00" cType="1" res="-1.3210632838308811e-02" rms="4.2754033207893372e-01" purity="2.4184828996658325e-01" nType="-99"/>
          <Node pos="r" depth="2" NCoef="0" IVar="-1" Cut="0.0000000000000000e+00" cType="1" res="-9.0716482372954488e-04" rms="4.9915045499801636e-01" purity="4.7582945227622986e-01" nType="-99"/>
        </Node>
        <Node pos="r" depth="1" NCoef="0" IVar="8" Cut="6.3762825727462769e-01" cType="1" res="2.4340780079364777e-01" rms="4.2158907651901245e-01" purity="7.6606583595275879e-01" nType="0">
          <Node pos="l" depth="2" NCoef="0" IVar="-1" Cut="0.0000000000000000e+00" cType="1" res="6.3086408190429211e-03" rms="4.6493116021156311e-01" purity="6.8066668510437012e-01" nType="-99"/>
          <Node pos="r" depth="2" NCoef="0" IVar="-1" Cut="0.0000000000000000e+00" cType="1" res="1.1856084689497948e-02" rms="3.3541163802146912e-01" purity="8.6985546350479126e-01" nType="-99"/>
        </Node>
      </Node>
    </BinaryTree>
    <BinaryTree type="DecisionTree" boostWeight="1.0000000000000000e+00" itree="6">
      <Node pos="s" depth="0" NCoef="0" IVar="3" Cut="7.9535073041915894e-01" cType="1" res="7.0402296259999275e-03" rms="4.8568344116210938e-01" purity="5.0084334611892700e-01" nType="0">
        <Node pos="l" depth="1" NCoef="0" IVar="3" Cut="5.5666041374206543e-01" cType="1" res="-1.4749561250209808e-01" rms="4.6387779712677002e-01" purity="3.2426294684410095e-01" nType="0">
          <Node pos="l" depth="2" NCoef="0" IVar="-1" Cut="0.0000000000000000e+00" cType="1" res="-1.3074927031993866e-02" rms="4.2532151937484741e-01" purity="2.3766575753688812e-01" nType="-99"/>
          <Node pos="r" depth="2" NCoef="0" IVar="-1" Cut="0.0000000000000000e+00" cType="1" res="-1.4232528628781438e-03" rms="4.9826502799987793e-01" purity="4.6400341391563416e-01" nType="-99"/>
        </Node>
        <Node pos="r" depth="1" NCoef="0" IVar="3" Cut="8.9719092845916748e-01" cType="1" res="2.4079112708568573e-01" rms="4.2005425691604614e-01" purity="7.6793879270553589e-01" nType="0">
          <Node pos="l" depth="2" NCoef="0" IVar="-1" Cut="0.0000000000000000e+00" cType="1" res="5.4552019573748112e-03" rms="4.7443780303001404e-01" purity="6.5587580204010010e-01" nType="-99"/>
          <Node pos="r" depth="2" NCoef="0" IVar="-1" Cut="0.0000000000000000e+00" cType="1" res="1.1294434778392315e-02" rms="3.4859374165534973e-01" purity="8.5794866085052490e-01" nType="-99"/>
        </Node>
      </Node>
    </BinaryTree>
    <BinaryTree type="DecisionTree" boostWeight="1.0000000000000000e+00" itree="7">
      <Node pos="s" depth="0" NCoef="0" IVar="3" Cut="7.9310059547424316e-01" cType="1" res="7.1662976406514645e-03" rms="4.8369333148002625e-01" purity="5.0003683567047119e-01" nType="0">
        <Node pos="l" depth="1" NCoef="0" IVar="8" Cut="3.3082187175750732e-01" cType="1" res="-1.4468891918659210e-01" rms="4.6281468868255615e-01" purity="3.2244607806205750e-01" nType="0">
          <Node pos="l" depth="2" NCoef="0" IVar="-1" Cut="0.0000000000000000e+00" cType="1" res="-1.1801646091043949e-02" rms="4.3452298641204834e-01" purity="2.5744402408599854e-01" nType="-99"/>
          <Node pos="r" depth="2" NCoef="0" IVar="-1" Cut="0.0000000000000000e+00" cType="1" res="-6.5179739613085985e-04" rms="4.9626633524894714e-01" purity="4.6795111894607544e-01" nType="-99"/>
        </Node>
        <Node pos="r" depth="1" NCoef="0" IVar="8" Cut="6.7191755771636963e-01" cType="1" res="2.3423877358436584e-01" rms="4.2126646637916565e-01" purity="7.6559227705001831e-01" nType="0">
          <Node pos="l" depth="2" NCoef="0" IVar="-1" Cut="0.0000000000000000e+00" cType="1" res="6.1536519788205624e-03" rms="4.6310636401176453e-01" purity="6.8438535928726196e-01" nType="-99"/>
          <Node pos="r" depth="2" NCoef="0" IVar="-1" Cut="0.0000000000000000e+00" cType="1" res="1.1722318828105927e-02" rms="3.2670798897743225e-01" purity="8.7753170728683472e-01" nType="-99"/>
        </Node>
      </Node>
    </BinaryTree>
    <BinaryTree type="DecisionTree" boostWeight="1.0000000000000000e+00" itree="8">
      <Node pos="s" depth="0" NCoef="0" IVar="3" Cut="8.1027561426162720e-01" cType="1" res="9.1655310243368149e-03" rms="4.8190903663635254e-01" purity="5.0125265121459961e-01" nType="0">
        <Node pos="l" depth="1" NCoef="0" IVar="3" Cut="5.5425959825515747e-01" cType="1" res="-1.3079535961151123e-01" rms="4.6605974435806274e-01" purity="3.3485659956932068e-01" nType="0">
          <Node pos="l" depth="2" NCoef="0" IVar="-1" Cut="0.0000000000000000e+00" cType="1" res="-1.2188266962766647e-02" rms="4.2727664113044739e-01" purity="2.4113513529300690e-01" nType="-99"/>
          <Node pos="r" depth="2" NCoef="0" IVar="-1" Cut="0.0000000000000000e+00" cType="1" res="-1.1237489525228739e-03" rms="4.9767479300498962e-01" purity="4.6954900026321411e-01" nType="-99"/>
        </Node>
        <Node pos="r" depth="1" NCoef="0" IVar="8" Cut="6.4539170265197754e-01" cType="1" res="2.4301871657371521e-01" rms="4.1221663355827332e-01" purity="7.7927488088607788e-01" nType="0">
          <Node pos="l" depth="2" NCoef="0" IVar="-1" Cut="0.0000000000000000e+00" cType="1" res="6.3917157240211964e-03" rms="4.5886078476905823e-01" purity="6.9508761167526245e-01" nType="-99"/>
          <Node pos="r" depth="2" NCoef="0" IVar="-1" Cut="0.0000000000000000e+00" cType="1" res="1.1579185724258423e-02" rms="3.2502704858779907e-01" purity="8.7894523143768311e-01" nType="-99"/>
        </Node>
      </Node>
    </BinaryTree>
    <BinaryTree type="DecisionTree" boostWeight="1.0000000000000000e+00" itree="9">
      <Node pos="s" depth="0" NCoef="0" IVar="3" Cut="7.2440057992935181e-01" cType="1" res="9.1663673520088196e-03" rms="4.8002275824546814e-01" purity="5.0068354606628418e-01" nType="0">
        <Node pos="l" depth="1" NCoef="0" IVar="8" Cut="3.1116348505020142e-01" cType="1" res="-1.6147637367248535e-01" rms="4.5083969831466675e-01" purity="2.9217362403869629e-01" nType="0">
          <Node pos="l" depth="2" NCoef="0" IVar="-1" Cut="0.0000000000000000e+00" cType="1" res="-1.2456163763999939e-02" rms="4.2391854524612427e-01" purity="2.3783351480960846e-01" nType="-99"/>
          <Node pos="r" depth="2" NCoef="0" IVar="-1" Cut="0.0000000000000000e+00" cType="1" res="-2.5839598383754492e-03" rms="4.9056953191757202e-01" purity="4.1774213314056396e-01" nType="-99"/>
        </Node>
        <Node pos="r" depth="1" NCoef="0" IVar="3" Cut="8.7898617982864380e-01" cType="1" res="1.9141182303428650e-01" rms="4.4172623753547668e-01" purity="7.2337090969085693e-01" nType="0">
          <Node pos="l" depth="2" NCoef="0" IVar="-1" Cut="0.0000000000000000e+00" cType="1" res="3.3500746358186007e-03" rms="4.8838782310485840e-01" purity="5.9628492593765259e-01" nType="-99"/>
          <Node pos="r" depth="2" NCoef="0" IVar="-1" Cut="0.0000000000000000e+00" cType="1" res="1.0406011715531349e-02" rms="3.6454966664314270e-01" purity="8.4071302413940430e-01" nType="-99"/>
        </Node>
      </Node>
    </BinaryTree>
    <BinaryTree type="DecisionTree" boostWeight="1.0000000000000000e+00" itree="10">
      <Node pos="s" depth="0" NCoef="0" IVar="3" Cut="8.2459056377410889e-01" cType="1" res="7.6131662353873253e-03" rms="4.7806814312934875e-01" purity="4.9828803539276123e-01" nType="0">
        <Node pos="l" depth="1" NCoef="0" IVar="3" Cut="6.1177253723144531e-01" cType="1" res="-1.2088850885629654e-01" rms="4.6569159626960754e-01" purity="3.3997431397438049e-01" nType="0">
          <Node pos="l" depth="2" NCoef="0" IVar="-1" Cut="0.0000000000000000e+00" cType="1" res="-1.1148143559694290e-02" rms="4.3183550238609314e-01" purity="2.5097537040710449e-01" nType="-99"/>
          <Node pos="r" depth="2" NCoef="0" IVar="-1" Cut="0.0000000000000000e+00" cType="1" res="7.2560607804916799e-05" rms="4.9816593527793884e-01" purity="5.0002270936965942e-01" nType="-99"/>
        </Node>
        <Node pos="r" depth="1" NCoef="0" IVar="8" Cut="5.5823385715484619e-01" cType="1" res="2.4456222355365753e-01" rms="4.0434402227401733e-01" purity="7.9020863771438599e-01" nType="0">
          <Node pos="l" depth="2" NCoef="0" IVar="-1" Cut="0.0000000000000000e+00" cType="1" res="6.1021787114441395e-03" rms="4.5872512459754944e-01" purity="6.9487059116363525e-01" nType="-99"/>
          <Node pos="r" depth="2" NCoef="0" IVar="-1" Cut="0.0000000000000000e+00" cType="1" res="1.1024232953786850e-02" rms="3.3653751015663147e-01" purity="8.6849129199981689e-01" nType="-99"/>
        </Node>
      </Node>
    </BinaryTree>
    <BinaryTree type="DecisionTree" boostWeight="1.0000000000000000e+00" itree="11">
      <Node pos="s" depth="0" NCoef="0" IVar="3" Cut="7.5854730606079102e-01" cType="1" res="1.4320415444672108e-02" rms="4.7643220424652100e-01" purity="5.0451475381851196e-01" nType="0">
        <Node pos="l" depth="1" NCoef="0" IVar="8" Cut="2.7531197667121887e-01" cType="1" res="-1.3785658776760101e-01" rms="4.5703086256980896e-01" purity="3.0957624316215515e-01" nType="0">
          <Node pos="l" depth="2" NCoef="0" IVar="-1" Cut="0.0000000000000000e+00" cType="1" res="-1.1811195872724056e-02" rms="4.2427116632461548e-01" purity="2.3918296396732330e-01" nType="-99"/>
          <Node pos="r" depth="2" NCoef="0" IVar="-1" Cut="0.0000000000000000e+00" cType="1" res="-2.4227993562817574e-03" rms="4.8886632919311523e-01" purity="4.1509458422660828e-01" nType="-99"/>
        </Node>
        <Node pos="r" depth="1" NCoef="0" IVar="3" Cut="8.9001268148422241e-01" cType="1" res="2.0136752724647522e-01" rms="4.3104183673858643e-01" purity="7.4412178993225098e-01" nType="0">
          <Node pos="l" depth="2" NCoef="0" IVar="-1" Cut="0.0000000000000000e+00" cType="1" res="4.0652104653418064e-03" rms="4.8164802789688110e-01" purity="6.2625652551651001e-01" nType="-99"/>
          <Node pos="r" depth="2" NCoef="0" IVar="-1" Cut="0.0000000000000000e+00" cType="1" res="1.0413385927677155e-02" rms="3.5303354263305664e-01" purity="8.5275995731353760e-01" nType="-99"/>
        </Node>
      </Node>
    </BinaryTree>
    <BinaryTree type="DecisionTree" boostWeight="1.0000000000000000e+00" itree="12">
      <Node pos="s" depth="0" NCoef="0" IVar="3" Cut="7.5875061750411987e-01" cType="1" res="1.0095604695379734e-02" rms="4.7476625442504883e-01" purity="4.9936574697494507e-01" nType="0">
        <Node pos="l" depth="1" NCoef="0" IVar="6" Cut="1.5486720275878906e+02" cType="1" res="-1.3909375667572021e-01" rms="4.5449471473693848e-01" purity="3.0419707298278809e-01" nType="0">
          <Node pos="l" depth="2" NCoef="0" IVar="-1" Cut="0.0000000000000000e+00" cType="1" res="-9.2620672658085823e-03" rms="4.4360426068305969e-01" purity="2.8057572245597839e-01" nType="-99"/>
          <Node pos="r" depth="2" NCoef="0" IVar="-1" Cut="0.0000000000000000e+00" cType="1" res="3.5381852649152279e-03" rms="4.9611368775367737e-01" purity="5.2632349729537964e-01" nType="-99"/>
        </Node>
        <Node pos="r" depth="1" NCoef="0" IVar="3" Cut="9.0152072906494141e-01" cType="1" res="1.9489635527133942e-01" rms="4.3245279788970947e-01" purity="7.4112105369567871e-01" nType="0">
          <Node pos="l" depth="2" NCoef="0" IVar="-1" Cut="0.0000000000000000e+00" cType="1" res="4.3389843776822090e-03" rms="4.7793939709663391e-01" purity="6.3798171281814575e-01" nType="-99"/>
          <Node pos="r" depth="2" NCoef="0" IVar="-1" Cut="0.0000000000000000e+00" cType="1" res="1.0348391719162464e-02" rms="3.4946048259735107e-01" purity="8.5652059316635132e-01" nType="-99"/>
        </Node>
      </Node>
    </BinaryTree>
    <BinaryTree type="DecisionTree" boostWeight="1.0000000000000000e+00" itree="13">
      <Node pos="s" depth="0" NCoef="0" IVar="3" Cut="8.1027561426162720e-01" cType="1" res="1.2864735908806324e-02" rms="4.7355681657791138e-01" purity="5.0156295299530029e-01" nType="0">
        <Node pos="l" depth="1" NCoef="0" IVar="3" Cut="5.4003369808197021e-01" cType="1" res="-1.1140635609626770e-01" rms="4.6422800421714783e-01" purity="3.3680900931358337e-01" nType="0">
          <Node pos="l" depth="2" NCoef="0" IVar="-1" Cut="0.0000000000000000e+00" cType="1" res="-1.1029182933270931e-02" rms="4.2482951283454895e-01" purity="2.3799951374530792e-01" nType="-99"/>
          <Node pos="r" depth="2" NCoef="0" IVar="-1" Cut="0.0000000000000000e+00" cType="1" res="-8.7105465354397893e-04" rms="4.9613159894943237e-01" purity="4.6614682674407959e-01" nType="-99"/>
        </Node>
        <Node pos="r" depth="1" NCoef="0" IVar="8" Cut="6.4423531293869019e-01" cType="1" res="2.2087024152278900e-01" rms="4.1204833984375000e-01" purity="7.7732884883880615e-01" nType="0">
          <Node pos="l" depth="2" NCoef="0" IVar="-1" Cut="0.0000000000000000e+00" cType="1" res="5.7118227705359459e-03" rms="4.5843428373336792e-01" purity="6.9386583566665649e-01" nType="-99"/>
          <Node pos="r" depth="2" NCoef="0" IVar="-1" Cut="0.0000000000000000e+00" cType="1" res="1.0791227221488953e-02" rms="3.2807794213294983e-01" purity="8.7563544511795044e-01" nType="-99"/>
        </Node>
      </Node>
    </BinaryTree>
    <BinaryTree type="DecisionTree" boostWeight="1.0000000000000000e+00" itree="14">
      <Node pos="s" depth="0" NCoef="0" IVar="3" Cut="8.2442647218704224e-01" cType="1" res="1.2289512902498245e-02" rms="4.7166559100151062e-01" purity="5.0031220912933350e-01" nType="0">
        <Node pos="l" depth="1" NCoef="0" IVar="8" Cut="3.5910266637802124e-01" cType="1" res="-1.0492876172065735e-01" rms="4.6470999717712402e-01" purity="3.4342810511589050e-01" nType="0">
          <Node pos="l" depth="2" NCoef="0" IVar="-1" Cut="0.0000000000000000e+00" cType="1" res="-9.2368945479393005e-03" rms="4.4044440984725952e-01" purity="2.7382585406303406e-01" nType="-99"/>
          <Node pos="r" depth="2" NCoef="0" IVar="-1" Cut="0.0000000000000000e+00" cType="1" res="1.2569372775033116e-03" rms="4.9438101053237915e-01" purity="5.1244330406188965e-01" nType="-99"/>
        </Node>
        <Node pos="r" depth="1" NCoef="0" IVar="8" Cut="5.6899523735046387e-01" cType="1" res="2.3065374791622162e-01" rms="4.0164947509765625e-01" purity="7.9256927967071533e-01" nType="0">
          <Node pos="l" depth="2" NCoef="0" IVar="-1" Cut="0.0000000000000000e+00" cType="1" res="5.7528186589479446e-03" rms="4.5639604330062866e-01" purity="6.9902837276458740e-01" nType="-99"/>
          <Node pos="r" depth="2" NCoef="0" IVar="-1" Cut="0.0000000000000000e+00" cType="1" res="1.0567399673163891e-02" rms="3.3226868510246277e-01" purity="8.7200391292572021e-01" nType="-99"/>
        </Node>
      </Node>
    </BinaryTree>
    <BinaryTree type="DecisionTree" boostWeight="1.0000000000000000e+00" itree="15">
      <Node pos="s" depth="0" NCoef="0" IVar="3" Cut="8.2529771327972412e-01" cType="1" res="1.1698305606842041e-02" rms="4.7071066498756409e-01" purity="4.9908894300460815e-01" nType="0">
        <Node pos="l" depth="1" NCoef="0" IVar="8" Cut="3.9017385244369507e-01" cType="1" res="-1.0098268091678619e-01" rms="4.6499153971672058e-01" purity="3.4439840912818909e-01" nType="0">
          <Node pos="l" depth="2" NCoef="0" IVar="-1" Cut="0.0000000000000000e+00" cType="1" res="-8.4002213552594185e-03" rms="4.4544205069541931e-01" purity="2.8447973728179932e-01" nType="-99"/>
          <Node pos="r" depth="2" NCoef="0" IVar="-1" Cut="0.0000000000000000e+00" cType="1" res="1.6034410800784826e-03" rms="4.9460732936859131e-01" purity="5.2413564920425415e-01" nType="-99"/>
        </Node>
        <Node pos="r" depth="1" NCoef="0" IVar="8" Cut="5.7288819551467896e-01" cType="1" res="2.2289404273033142e-01" rms="4.0397667884826660e-01" purity="7.8902232646942139e-01" nType="0">
          <Node pos="l" depth="2" NCoef="0" IVar="-1" Cut="0.0000000000000000e+00" cType="1" res="5.5603049695491791e-03" rms="4.5749410986900330e-01" purity="6.9671905040740967e-01" nType="-99"/>
          <Node pos="r" depth="2" NCoef="0" IVar="-1" Cut="0.0000000000000000e+00" cType="1" res="1.0359427891671658e-02" rms="3.3410182595252991e-01" purity="8.7030994892120361e-01" nType="-99"/>
        </Node>
      </Node>
    </BinaryTree>
    <BinaryTree type="DecisionTree" boostWeight="1.0000000000000000e+00" itree="16">
      <Node pos="s" depth="0" NCoef="0" IVar="3" Cut="8.2732909917831421e-01" cType="1" res="1.4726938679814339e-02" rms="4.6924915909767151e-01" purity="5.0170242786407471e-01" nType="0">
        <Node pos="l" depth="1" NCoef="0" IVar="8" Cut="2.9029068350791931e-01" cType="1" res="-9.5587357878684998e-02" rms="4.6528902649879456e-01" purity="3.4705874323844910e-01" nType="0">
          <Node pos="l" depth="2" NCoef="0" IVar="-1" Cut="0.0000000000000000e+00" cType="1" res="-9.5729613676667213e-03" rms="4.3353426456451416e-01" purity="2.5926527380943298e-01" nType="-99"/>
          <Node pos="r" depth="2" NCoef="0" IVar="-1" Cut="0.0000000000000000e+00" cType="1" res="-1.7616307013668120e-04" rms="4.9160897731781006e-01" purity="4.6913832426071167e-01" nType="-99"/>
        </Node>
        <Node pos="r" depth="1" NCoef="0" IVar="8" Cut="5.9117788076400757e-01" cType="1" res="2.2170552611351013e-01" rms="4.0182802081108093e-01" purity="7.9185456037521362e-01" nType="0">
          <Node pos="l" depth="2" NCoef="0" IVar="-1" Cut="0.0000000000000000e+00" cType="1" res="5.6937616318464279e-03" rms="4.5445126295089722e-01" purity="7.0380288362503052e-01" nType="-99"/>
          <Node pos="r" depth="2" NCoef="0" IVar="-1" Cut="0.0000000000000000e+00" cType="1" res="1.0306749492883682e-02" rms="3.3017587661743164e-01" purity="8.7389600276947021e-01" nType="-99"/>
        </Node>
      </Node>
    </BinaryTree>
    <BinaryTree type="DecisionTree" boostWeight="1.0000000000000000e+00" itree="17">
      <Node pos="s" depth="0" NCoef="0" IVar="3" Cut="7.3856174945831299e-01" cType="1" res="1.5402767807245255e-02" rms="4.6786844730377197e-01" purity="5.0199711322784424e-01" nType="0">
        <Node pos="l" depth="1" NCoef="0" IVar="6" Cut="1.5237338256835938e+02" cType="1" res="-1.2281116843223572e-01" rms="4.5218822360038757e-01" purity="3.0149722099304199e-01" nType="0">
          <Node pos="l" depth="2" NCoef="0" IVar="-1" Cut="0.0000000000000000e+00" cType="1" res="-8.5517931729555130e-03" rms="4.4048762321472168e-01" purity="2.7570647001266479e-01" nType="-99"/>
          <Node pos="r" depth="2" NCoef="0" IVar="-1" Cut="0.0000000000000000e+00" cType="1" res="4.0612346492707729e-03" rms="4.9460363388061523e-01" purity="5.2475017309188843e-01" nType="-99"/>
        </Node>
        <Node pos="r" depth="1" NCoef="0" IVar="3" Cut="8.8110178709030151e-01" cType="1" res="1.7284080386161804e-01" rms="4.3449658155441284e-01" purity="7.3038446903228760e-01" nType="0">
          <Node pos="l" depth="2" NCoef="0" IVar="-1" Cut="0.0000000000000000e+00" cType="1" res="3.2116246875375509e-03" rms="4.8435688018798828e-01" purity="6.0687458515167236e-01" nType="-99"/>
          <Node pos="r" depth="2" NCoef="0" IVar="-1" Cut="0.0000000000000000e+00" cType="1" res="9.3202916905283928e-03" rms="3.6361587047576904e-01" purity="8.4073495864868164e-01" nType="-99"/>
        </Node>
      </Node>
    </BinaryTree>
    <BinaryTree type="DecisionTree" boostWeight="1.0000000000000000e+00" itree="18">
      <Node pos="s" depth="0" NCoef="0" IVar="3" Cut="7.9648149013519287e-01" cType="1" res="1.2369616888463497e-02" rms="4.6612882614135742e-01" purity="4.9877133965492249e-01" nType="0">
        <Node pos="l" depth="1" NCoef="0" IVar="8" Cut="3.4747472405433655e-01" cType="1" res="-1.0777085274457932e-01" rms="4.5809268951416016e-01" purity="3.2237195968627930e-01" nType="0">
          <Node pos="l" depth="2" NCoef="0" IVar="-1" Cut="0.0000000000000000e+00" cType="1" res="-9.0003041550517082e-03" rms="4.3497803807258606e-01" purity="2.6178634166717529e-01" nType="-99"/>
          <Node pos="r" depth="2" NCoef="0" IVar="-1" Cut="0.0000000000000000e+00" cType="1" res="1.6898709873203188e-04" rms="4.9477490782737732e-01" purity="4.7575512528419495e-01" nType="-99"/>
        </Node>
        <Node pos="r" depth="1" NCoef="0" IVar="8" Cut="5.6901168823242188e-01" cType="1" res="1.9616414606571198e-01" rms="4.1566428542137146e-01" purity="7.6863247156143188e-01" nType="0">
          <Node pos="l" depth="2" NCoef="0" IVar="-1" Cut="0.0000000000000000e+00" cType="1" res="4.5954319648444653e-03" rms="4.6565774083137512e-01" purity="6.7263180017471313e-01" nType="-99"/>
          <Node pos="r" depth="2" NCoef="0" IVar="-1" Cut="0.0000000000000000e+00" cType="1" res="9.6520027145743370e-03" rms="3.4880846738815308e-01" purity="8.5514229536056519e-01" nType="-99"/>
        </Node>
      </Node>
    </BinaryTree>
    <BinaryTree type="DecisionTree" boostWeight="1.0000000000000000e+00" itree="19">
      <Node pos="s" depth="0" NCoef="0" IVar="3" Cut="7.3952901363372803e-01" cType="1" res="1.2934559024870396e-02" rms="4.6460786461830139e-01" purity="4.9857646226882935e-01" nType="0">
        <Node pos="l" depth="1" NCoef="0" IVar="3" Cut="3.7685355544090271e-01" cType="1" res="-1.2412068992853165e-01" rms="4.4824939966201782e-01" purity="2.9319736361503601e-01" nType="0">
          <Node pos="l" depth="2" NCoef="0" IVar="-1" Cut="0.0000000000000000e+00" cType="1" res="-1.3019453734159470e-02" rms="3.9292639493942261e-01" purity="1.9162416458129883e-01" nType="-99"/>
          <Node pos="r" depth="2" NCoef="0" IVar="-1" Cut="0.0000000000000000e+00" cType="1" res="-3.7670815363526344e-03" rms="4.7616073489189148e-01" purity="3.6414587497711182e-01" nType="-99"/>
        </Node>
        <Node pos="r" depth="1" NCoef="0" IVar="3" Cut="8.7739640474319458e-01" cType="1" res="1.6855759918689728e-01" rms="4.3274584412574768e-01" purity="7.3177969455718994e-01" nType="0">
          <Node pos="l" depth="2" NCoef="0" IVar="-1" Cut="0.0000000000000000e+00" cType="1" res="2.8856953140348196e-03" rms="4.8556101322174072e-01" purity="6.0032385587692261e-01" nType="-99"/>
          <Node pos="r" depth="2" NCoef="0" IVar="-1" Cut="0.0000000000000000e+00" cType="1" res="9.1279018670320511e-03" rms="3.6251375079154968e-01" purity="8.4155410528182983e-01" nType="-99"/>
        </Node>
      </Node>
    </BinaryTree>
    <BinaryTree type="DecisionTree" boostWeight="1.0000000000000000e+00" itree="20">
      <Node pos="s" depth="0" NCoef="0" IVar="3" Cut="8.2459056377410889e-01" cType="1" res="1.4352999627590179e-02" rms="4.6309182047843933e-01" purity="5.0037682056427002e-01" nType="0">
        <Node pos="l" depth="1" NCoef="0" IVar="3" Cut="5.5266505479812622e-01" cType="1" res="-9.1430544853210449e-02" rms="4.6091195940971375e-01" purity="3.4049308300018311e-01" nType="0">
          <Node pos="l" depth="2" NCoef="0" IVar="-1" Cut="0.0000000000000000e+00" cType="1" res="-9.8952697589993477e-03" rms="4.2085871100425720e-01" purity="2.3334786295890808e-01" nType="-99"/>
          <Node pos="r" depth="2" NCoef="0" IVar="-1" Cut="0.0000000000000000e+00" cType="1" res="-1.5463451563846320e-04" rms="4.9454179406166077e-01" purity="4.7965472936630249e-01" nType="-99"/>
        </Node>
        <Node pos="r" depth="1" NCoef="0" IVar="8" Cut="5.6901168823242188e-01" cType="1" res="2.0771965384483337e-01" rms="4.0036258101463318e-01" purity="7.9263585805892944e-01" nType="0">
          <Node pos="l" depth="2" NCoef="0" IVar="-1" Cut="0.0000000000000000e+00" cType="1" res="5.1012830808758736e-03" rms="4.5605021715164185e-01" purity="6.9869822263717651e-01" nType="-99"/>
          <Node pos="r" depth="2" NCoef="0" IVar="-1" Cut="0.0000000000000000e+00" cType="1" res="9.7684552893042564e-03" rms="3.3307510614395142e-01" purity="8.7112098932266235e-01" nType="-99"/>
        </Node>
      </Node>
    </BinaryTree>
    <BinaryTree type="DecisionTree" boostWeight="1.0000000000000000e+00" itree="21">
      <Node pos="s" depth="0" NCoef="0" IVar="3" Cut="7.2384619712829590e-01" cType="1" res="1.7284883186221123e-02" rms="4.6235948801040649e-01" purity="5.0224316120147705e-01" nType="0">
        <Node pos="l" depth="1" NCoef="0" IVar="5" Cut="5.0300833129882812e+02" cType="1" res="-1.1639096587896347e-01" rms="4.4793534278869629e-01" purity="2.9238820075988770e-01" nType="0">
          <Node pos="l" depth="2" NCoef="0" IVar="-1" Cut="0.0000000000000000e+00" cType="1" res="-1.1085135862231255e-02" rms="4.1274914145469666e-01" purity="2.2676561772823334e-01" nType="-99"/>
          <Node pos="r" depth="2" NCoef="0" IVar="-1" Cut="0.0000000000000000e+00" cType="1" res="-3.3975264523178339e-03" rms="4.6971681714057922e-01" purity="3.4917920827865601e-01" nType="-99"/>
        </Node>
        <Node pos="r" depth="1" NCoef="0" IVar="3" Cut="8.9573854207992554e-01" cType="1" res="1.6020254790782928e-01" rms="4.3391725420951843e-01" purity="7.2660666704177856e-01" nType="0">
          <Node pos="l" depth="2" NCoef="0" IVar="-1" Cut="0.0000000000000000e+00" cType="1" res="3.2262632157653570e-03" rms="4.8094454407691956e-01" purity="6.1453616619110107e-01" nType="-99"/>
          <Node pos="r" depth="2" NCoef="0" IVar="-1" Cut="0.0000000000000000e+00" cType="1" res="9.3063293024897575e-03" rms="3.4660792350769043e-01" purity="8.5824686288833618e-01" nType="-99"/>
        </Node>
      </Node>
    </BinaryTree>
    <BinaryTree type="DecisionTree" boostWeight="1.0000000000000000e+00" itree="22">
      <Node pos="s" depth="0" NCoef="0" IVar="3" Cut="8.1027561426162720e-01" cType="1" res="1.5658682212233543e-02" rms="4.6137592196464539e-01" purity="5.0020092725753784e-01" nType="0">
        <Node pos="l" depth="1" NCoef="0" IVar="8" Cut="3.9614889025688171e-01" cType="1" res="-8.8688760995864868e-02" rms="4.5960363745689392e-01" purity="3.3343648910522461e-01" nType="0">
          <Node pos="l" depth="2" NCoef="0" IVar="-1" Cut="0.0000000000000000e+00" cType="1" res="-7.3622702620923519e-03" rms="4.4215556979179382e-01" purity="2.7927008271217346e-01" nType="-99"/>
          <Node pos="r" depth="2" NCoef="0" IVar="-1" Cut="0.0000000000000000e+00" cType="1" res="1.5813981881365180e-03" rms="4.9428141117095947e-01" purity="5.1570516824722290e-01" nType="-99"/>
        </Node>
        <Node pos="r" depth="1" NCoef="0" IVar="8" Cut="6.3476508855819702e-01" cType="1" res="1.8977823853492737e-01" rms="4.0878462791442871e-01" purity="7.7847266197204590e-01" nType="0">
          <Node pos="l" depth="2" NCoef="0" IVar="-1" Cut="0.0000000000000000e+00" cType="1" res="4.6915849670767784e-03" rms="4.5810937881469727e-01" purity="6.9119346141815186e-01" nType="-99"/>
          <Node pos="r" depth="2" NCoef="0" IVar="-1" Cut="0.0000000000000000e+00" cType="1" res="9.7212446853518486e-03" rms="3.2613390684127808e-01" purity="8.7691885232925415e-01" nType="-99"/>
        </Node>
      </Node>
    </BinaryTree>
    <BinaryTree type="DecisionTree" boostWeight="1.0000000000000000e+00" itree="23">
      <Node pos="s" depth="0" NCoef="0" IVar="3" Cut="8.2728022336959839e-01" cType="1" res="1.5867210924625397e-02" rms="4.6003091335296631e-01" purity="5.0061231851577759e-01" nType="0">
        <Node pos="l" depth="1" NCoef="0" IVar="3" Cut="6.0994529724121094e-01" cType="1" res="-8.1817619502544403e-02" rms="4.6062791347503662e-01" purity="3.4334102272987366e-01" nType="0">
          <Node pos="l" depth="2" NCoef="0" IVar="-1" Cut="0.0000000000000000e+00" cType="1" res="-8.3932718262076378e-03" rms="4.2996042966842651e-01" purity="2.5141257047653198e-01" nType="-99"/>
          <Node pos="r" depth="2" NCoef="0" IVar="-1" Cut="0.0000000000000000e+00" cType="1" res="6.6274037817493081e-04" rms="4.9502751231193542e-01" purity="5.0321400165557861e-01" nType="-99"/>
        </Node>
        <Node pos="r" depth="1" NCoef="0" IVar="8" Cut="5.8663088083267212e-01" cType="1" res="1.9732359051704407e-01" rms="3.9994442462921143e-01" purity="7.9275482892990112e-01" nType="0">
          <Node pos="l" depth="2" NCoef="0" IVar="-1" Cut="0.0000000000000000e+00" cType="1" res="5.0411610864102840e-03" rms="4.5299255847930908e-01" purity="7.0580697059631348e-01" nType="-99"/>
          <Node pos="r" depth="2" NCoef="0" IVar="-1" Cut="0.0000000000000000e+00" cType="1" res="9.4189001247286797e-03" rms="3.3237302303314209e-01" purity="8.7161660194396973e-01" nType="-99"/>
        </Node>
      </Node>
    </BinaryTree>
    <BinaryTree type="DecisionTree" boostWeight="1.0000000000000000e+00" itree="24">
      <Node pos="s" depth="0" NCoef="0" IVar="3" Cut="8.3899497985839844e-01" cType="1" res="1.7266271635890007e-02" rms="4.5942687988281250e-01" purity="5.0065165758132935e-01" nType="0">
        <Node pos="l" depth="1" NCoef="0" IVar="8" Cut="3.8411074876785278e-01" cType="1" res="-7.1737058460712433e-02" rms="4.6282130479812622e-01" purity="3.5529366135597229e-01" nType="0">
          <Node pos="l" depth="2" NCoef="0" IVar="-1" Cut="0.0000000000000000e+00" cType="1" res="-6.7718434147536755e-03" rms="4.4405376911163330e-01" purity="2.8712958097457886e-01" nType="-99"/>
          <Node pos="r" depth="2" NCoef="0" IVar="-1" Cut="0.0000000000000000e+00" cType="1" res="2.1338707301765680e-03" rms="4.9067759513854980e-01" purity="5.4045432806015015e-01" nType="-99"/>
        </Node>
        <Node pos="r" depth="1" NCoef="0" IVar="8" Cut="5.6901168823242188e-01" cType="1" res="2.0268344879150391e-01" rms="3.9200654625892639e-01" purity="8.0347025394439697e-01" nType="0">
          <Node pos="l" depth="2" NCoef="0" IVar="-1" Cut="0.0000000000000000e+00" cType="1" res="5.0586829893290997e-03" rms="4.5125785470008850e-01" purity="7.1019566059112549e-01" nType="-99"/>
          <Node pos="r" depth="2" NCoef="0" IVar="-1" Cut="0.0000000000000000e+00" cType="1" res="9.5383590087294579e-03" rms="3.2264649868011475e-01" purity="8.8035047054290771e-01" nType="-99"/>
        </Node>
      </Node>
    </BinaryTree>
    <BinaryTree type="DecisionTree" boostWeight="1.0000000000000000e+00" itree="25">
      <Node pos="s" depth="0" NCoef="0" IVar="3" Cut="8.4450185298919678e-01" cType="1" res="1.7039928585290909e-02" rms="4.5816817879676819e-01" purity="5.0076156854629517e-01" nType="0">
        <Node pos="l" depth="1" NCoef="0" IVar="8" Cut="3.5571050643920898e-01" cType="1" res="-6.9344677031040192e-02" rms="4.6262785792350769e-01" purity="3.5825559496879578e-01" nType="0">
          <Node pos="l" depth="2" NCoef="0" IVar="-1" Cut="0.0000000000000000e+00" cType="1" res="-7.0612076669931412e-03" rms="4.4051128625869751e-01" purity="2.7914443612098694e-01" nType="-99"/>
          <Node pos="r" depth="2" NCoef="0" IVar="-1" Cut="0.0000000000000000e+00" cType="1" res="1.7522725975140929e-03" rms="4.9010524153709412e-01" purity="5.3002959489822388e-01" nType="-99"/>
        </Node>
        <Node pos="r" depth="1" NCoef="0" IVar="8" Cut="5.7056242227554321e-01" cType="1" res="2.0453020930290222e-01" rms="3.8685467839241028e-01" purity="8.1005841493606567e-01" nType="0">
          <Node pos="l" depth="2" NCoef="0" IVar="-1" Cut="0.0000000000000000e+00" cType="1" res="5.1301298663020134e-03" rms="4.4862341880798340e-01" purity="7.1573466062545776e-01" nType="-99"/>
          <Node pos="r" depth="2" NCoef="0" IVar="-1" Cut="0.0000000000000000e+00" cType="1" res="9.5437215641140938e-03" rms="3.1719210743904114e-01" purity="8.8518619537353516e-01" nType="-99"/>
        </Node>
      </Node>
    </BinaryTree>
    <BinaryTree type="DecisionTree" boostWeight="1.0000000000000000e+00" itree="26">
      <Node pos="s" depth="0" NCoef="0" IVar="3" Cut="8.4450185298919678e-01" cType="1" res="1.7085816711187363e-02" rms="4.5769894123077393e-01" purity="5.0007587671279907e-01" nType="0">
        <Node pos="l" depth="1" NCoef="0" IVar="8" Cut="5.4840308427810669e-01" cType="1" res="-6.6732279956340790e-02" rms="4.6292349696159363e-01" purity="3.5835951566696167e-01" nType="0">
          <Node pos="l" depth="2" NCoef="0" IVar="-1" Cut="0.0000000000000000e+00" cType="1" res="-5.1555517129600048e-03" rms="4.5563632249832153e-01" purity="3.2017779350280762e-01" nType="-99"/>
          <Node pos="r" depth="2" NCoef="0" IVar="-1" Cut="0.0000000000000000e+00" cType="1" res="4.8968871124088764e-03" rms="4.7419598698616028e-01" purity="6.4452713727951050e-01" nType="-99"/>
        </Node>
        <Node pos="r" depth="1" NCoef="0" IVar="8" Cut="6.1601889133453369e-01" cType="1" res="1.9950710237026215e-01" rms="3.8788205385208130e-01" purity="8.0850672721862793e-01" nType="0">
          <Node pos="l" depth="2" NCoef="0" IVar="-1" Cut="0.0000000000000000e+00" cType="1" res="5.2813361398875713e-03" rms="4.4447249174118042e-01" purity="7.2392368316650391e-01" nType="-99"/>
          <Node pos="r" depth="2" NCoef="0" IVar="-1" Cut="0.0000000000000000e+00" cType="1" res="9.4863632693886757e-03" rms="3.1315168738365173e-01" purity="8.8850700855255127e-01" nType="-99"/>
        </Node>
      </Node>
    </BinaryTree>
    <BinaryTree type="DecisionTree" boostWeight="1.0000000000000000e+00" itree="27">
      <Node pos="s" depth="0" NCoef="0" IVar="3" Cut="8.2459056377410889e-01" cType="1" res="1.6604982316493988e-02" rms="4.5618444681167603e-01" purity="4.9936792254447937e-01" nType="0">
        <Node pos="l" depth="1" NCoef="0" IVar="8" Cut="2.4600505828857422e-01" cType="1" res="-7.4447378516197205e-02" rms="4.5954039692878723e-01" purity="3.4061563014984131e-01" nType="0">
          <Node pos="l" depth="2" NCoef="0" IVar="-1" Cut="0.0000000000000000e+00" cType="1" res="-8.9922277256846428e-03" rms="4.1916328668594360e-01" purity="2.3733517527580261e-01" nType="-99"/>
          <Node pos="r" depth="2" NCoef="0" IVar="-1" Cut="0.0000000000000000e+00" cType="1" res="-5.8635725872591138e-04" rms="4.8503026366233826e-01" purity="4.3461525440216064e-01" nType="-99"/>
        </Node>
        <Node pos="r" depth="1" NCoef="0" IVar="1" Cut="2.4310414791107178e+00" cType="1" res="1.8520988523960114e-01" rms="3.9828902482986450e-01" purity="7.9333513975143433e-01" nType="0">
          <Node pos="l" depth="2" NCoef="0" IVar="-1" Cut="0.0000000000000000e+00" cType="1" res="8.0820349976420403e-03" rms="3.7303972244262695e-01" purity="8.2592236995697021e-01" nType="-99"/>
          <Node pos="r" depth="2" NCoef="0" IVar="-1" Cut="0.0000000000000000e+00" cType="1" res="2.0950776524841785e-03" rms="4.6919408440589905e-01" purity="6.5261459350585938e-01" nType="-99"/>
        </Node>
      </Node>
    </BinaryTree>
    <BinaryTree type="DecisionTree" boostWeight="1.0000000000000000e+00" itree="28">
      <Node pos="s" depth="0" NCoef="0" IVar="3" Cut="7.2273463010787964e-01" cType="1" res="1.6990639269351959e-02" rms="4.5529371500015259e-01" purity="5.0059551000595093e-01" nType="0">
        <Node pos="l" depth="1" NCoef="0" IVar="6" Cut="1.3701728820800781e+02" cType="1" res="-1.0121883451938629e-01" rms="4.4506844878196716e-01" purity="2.8866970539093018e-01" nType="0">
          <Node pos="l" depth="2" NCoef="0" IVar="-1" Cut="0.0000000000000000e+00" cType="1" res="-7.6503767631947994e-03" rms="4.3213433027267456e-01" purity="2.6171815395355225e-01" nType="-99"/>
          <Node pos="r" depth="2" NCoef="0" IVar="-1" Cut="0.0000000000000000e+00" cType="1" res="1.5823174035176635e-03" rms="4.8756965994834900e-01" purity="4.3237748742103577e-01" nType="-99"/>
        </Node>
        <Node pos="r" depth="1" NCoef="0" IVar="8" Cut="5.6901168823242188e-01" cType="1" res="1.4178264141082764e-01" rms="4.3207266926765442e-01" purity="7.2432243824005127e-01" nType="0">
          <Node pos="l" depth="2" NCoef="0" IVar="-1" Cut="0.0000000000000000e+00" cType="1" res="2.8958555776625872e-03" rms="4.7429251670837402e-01" purity="6.2420374155044556e-01" nType="-99"/>
          <Node pos="r" depth="2" NCoef="0" IVar="-1" Cut="0.0000000000000000e+00" cType="1" res="8.2935867831110954e-03" rms="3.6401972174644470e-01" purity="8.3411693572998047e-01" nType="-99"/>
        </Node>
      </Node>
    </BinaryTree>
    <BinaryTree type="DecisionTree" boostWeight="1.0000000000000000e+00" itree="29">
      <Node pos="s" depth="0" NCoef="0" IVar="3" Cut="7.0711976289749146e-01" cType="1" res="1.7790406942367554e-02" rms="4.5470708608627319e-01" purity="5.0088822841644287e-01" nType="0">
        <Node pos="l" depth="1" NCoef="0" IVar="6" Cut="1.3884338378906250e+02" cType="1" res="-1.0005967319011688e-01" rms="4.4367706775665283e-01" purity="2.8525123000144958e-01" nType="0">
          <Node pos="l" depth="2" NCoef="0" IVar="-1" Cut="0.0000000000000000e+00" cType="1" res="-7.5853927992284298e-03" rms="4.3093517422676086e-01" purity="2.5852748751640320e-01" nType="-99"/>
          <Node pos="r" depth="2" NCoef="0" IVar="-1" Cut="0.0000000000000000e+00" cType="1" res="1.9071585265919566e-03" rms="4.8871025443077087e-01" purity="4.3957132101058960e-01" nType="-99"/>
        </Node>
        <Node pos="r" depth="1" NCoef="0" IVar="3" Cut="8.9870655536651611e-01" cType="1" res="1.3591384887695312e-01" rms="4.3453046679496765e-01" purity="7.1702533960342407e-01" nType="0">
          <Node pos="l" depth="2" NCoef="0" IVar="-1" Cut="0.0000000000000000e+00" cType="1" res="2.7229120023548603e-03" rms="4.7990205883979797e-01" purity="6.0794341564178467e-01" nType="-99"/>
          <Node pos="r" depth="2" NCoef="0" IVar="-1" Cut="0.0000000000000000e+00" cType="1" res="8.4715625271201134e-03" rms="3.4741532802581787e-01" purity="8.5666793584823608e-01" nType="-99"/>
        </Node>
      </Node>
    </BinaryTree>
    <BinaryTree type="DecisionTree" boostWeight="1.0000000000000000e+00" itree="30">
      <Node pos="s" depth="0" NCoef="0" IVar="3" Cut="7.6747220754623413e-01" cType="1" res="1.7979431897401810e-02" rms="4.5377328991889954e-01" purity="5.0063204765319824e-01" nType="0">
        <Node pos="l" depth="1" NCoef="0" IVar="6" Cut="1.5649053955078125e+02" cType="1" res="-8.3856396377086639e-02" rms="4.5154547691345215e-01" purity="3.0864563584327698e-01" nType="0">
          <Node pos="l" depth="2" NCoef="0" IVar="-1" Cut="0.0000000000000000e+00" cType="1" res="-6.1671203002333641e-03" rms="4.4211429357528687e-01" purity="2.8538823127746582e-01" nType="-99"/>
          <Node pos="r" depth="2" NCoef="0" IVar="-1" Cut="0.0000000000000000e+00" cType="1" res="4.9899020232260227e-03" rms="4.9234056472778320e-01" purity="5.2806091308593750e-01" nType="-99"/>
        </Node>
        <Node pos="r" depth="1" NCoef="0" IVar="1" Cut="2.6045088768005371e+00" cType="1" res="1.4955617487430573e-01" rms="4.2166858911514282e-01" purity="7.4868762493133545e-01" nType="0">
          <Node pos="l" depth="2" NCoef="0" IVar="-1" Cut="0.0000000000000000e+00" cType="1" res="6.8457555025815964e-03" rms="4.0280005335807800e-01" purity="7.8053683042526245e-01" nType="-99"/>
          <Node pos="r" depth="2" NCoef="0" IVar="-1" Cut="0.0000000000000000e+00" cType="1" res="-1.6714376397430897e-03" rms="4.9096003174781799e-01" purity="5.3753721714019775e-01" nType="-99"/>
        </Node>
      </Node>
    </BinaryTree>
    <BinaryTree type="DecisionTree" boostWeight="1.0000000000000000e+00" itree="31">
      <Node pos="s" depth="0" NCoef="0" IVar="3" Cut="8.5500925779342651e-01" cType="1" res="1.8953843042254448e-02" rms="4.5296418666839600e-01" purity="5.0143885612487793e-01" nType="0">
        <Node pos="l" depth="1" NCoef="0" IVar="3" Cut="4.9002146720886230e-01" cType="1" res="-5.5046774446964264e-02" rms="4.6151867508888245e-01" purity="3.6674281954765320e-01" nType="0">
          <Node pos="l" depth="2" NCoef="0" IVar="-1" Cut="0.0000000000000000e+00" cType="1" res="-8.5287233814597130e-03" rms="4.1463431715965271e-01" purity="2.2443166375160217e-01" nType="-99"/>
          <Node pos="r" depth="2" NCoef="0" IVar="-1" Cut="0.0000000000000000e+00" cType="1" res="2.8484733775258064e-04" rms="4.8776391148567200e-01" purity="4.8195952177047729e-01" nType="-99"/>
        </Node>
        <Node pos="r" depth="1" NCoef="0" IVar="1" Cut="2.3710846900939941e+00" cType="1" res="1.9442290067672729e-01" rms="3.7795871496200562e-01" purity="8.2082802057266235e-01" nType="0">
          <Node pos="l" depth="2" NCoef="0" IVar="-1" Cut="0.0000000000000000e+00" cType="1" res="8.4250001236796379e-03" rms="3.4806707501411438e-01" purity="8.5430175065994263e-01" nType="-99"/>
          <Node pos="r" depth="2" NCoef="0" IVar="-1" Cut="0.0000000000000000e+00" cType="1" res="3.6027675960212946e-03" rms="4.4906395673751831e-01" purity="7.0743936300277710e-01" nType="-99"/>
        </Node>
      </Node>
    </BinaryTree>
    <BinaryTree type="DecisionTree" boostWeight="1.0000000000000000e+00" itree="32">
      <Node pos="s" depth="0" NCoef="0" IVar="3" Cut="8.3914142847061157e-01" cType="1" res="1.8218917772173882e-02" rms="4.5176547765731812e-01" purity="5.0044190883636475e-01" nType="0">
        <Node pos="l" depth="1" NCoef="0" IVar="8" Cut="4.4123733043670654e-01" cType="1" res="-6.0179732739925385e-02" rms="4.5934823155403137e-01" purity="3.5211047530174255e-01" nType="0">
          <Node pos="l" depth="2" NCoef="0" IVar="-1" Cut="0.0000000000000000e+00" cType="1" res="-5.3985333070158958e-03" rms="4.4621574878692627e-01" purity="2.9708966612815857e-01" nType="-99"/>
          <Node pos="r" depth="2" NCoef="0" IVar="-1" Cut="0.0000000000000000e+00" cType="1" res="2.7927700430154800e-03" rms="4.8796975612640381e-01" purity="5.6760764122009277e-01" nType="-99"/>
        </Node>
        <Node pos="r" depth="1" NCoef="0" IVar="8" Cut="7.0624482631683350e-01" cType="1" res="1.7979826033115387e-01" rms="3.8868707418441772e-01" purity="8.0615240335464478e-01" nType="0">
          <Node pos="l" depth="2" NCoef="0" IVar="-1" Cut="0.0000000000000000e+00" cType="1" res="5.0592296756803989e-03" rms="4.3641757965087891e-01" purity="7.3695671558380127e-01" nType="-99"/>
          <Node pos="r" depth="2" NCoef="0" IVar="-1" Cut="0.0000000000000000e+00" cType="1" res="9.2599550262093544e-03" rms="2.9920718073844910e-01" purity="8.9916658401489258e-01" nType="-99"/>
        </Node>
      </Node>
    </BinaryTree>
    <BinaryTree type="DecisionTree" boostWeight="1.0000000000000000e+00" itree="33">
      <Node pos="s" depth="0" NCoef="0" IVar="3" Cut="8.4450185298919678e-01" cType="1" res="1.7028041183948517e-02" rms="4.5150080323219299e-01" purity="4.9851918220520020e-01" nType="0">
        <Node pos="l" depth="1" NCoef="0" IVar="6" Cut="1.5486720275878906e+02" cType="1" res="-5.6844409555196762e-02" rms="4.5985242724418640e-01" purity="3.5632312297821045e-01" nType="0">
          <Node pos="l" depth="2" NCoef="0" IVar="-1" Cut="0.0000000000000000e+00" cType="1" res="-4.3368483893573284e-03" rms="4.5228672027587891e-01" purity="3.3311256766319275e-01" nType="-99"/>
          <Node pos="r" depth="2" NCoef="0" IVar="-1" Cut="0.0000000000000000e+00" cType="1" res="5.8100786991417408e-03" rms="4.8519602417945862e-01" purity="5.6898951530456543e-01" nType="-99"/>
        </Node>
        <Node pos="r" depth="1" NCoef="0" IVar="8" Cut="5.7260894775390625e-01" cType="1" res="1.7856252193450928e-01" rms="3.8624256849288940e-01" purity="8.0945467948913574e-01" nType="0">
          <Node pos="l" depth="2" NCoef="0" IVar="-1" Cut="0.0000000000000000e+00" cType="1" res="4.5849168673157692e-03" rms="4.4516980648040771e-01" purity="7.2151750326156616e-01" nType="-99"/>
          <Node pos="r" depth="2" NCoef="0" IVar="-1" Cut="0.0000000000000000e+00" cType="1" res="8.6517194285988808e-03" rms="3.2166031002998352e-01" purity="8.8075727224349976e-01" nType="-99"/>
        </Node>
      </Node>
    </BinaryTree>
    <BinaryTree type="DecisionTree" boostWeight="1.0000000000000000e+00" itree="34">
      <Node pos="s" depth="0" NCoef="0" IVar="3" Cut="6.9005054235458374e-01" cType="1" res="2.1171437576413155e-02" rms="4.5003780722618103e-01" purity="5.0317668914794922e-01" nType="0">
        <Node pos="l" depth="1" NCoef="0" IVar="6" Cut="1.3931527709960938e+02" cType="1" res="-9.0866521000862122e-02" rms="4.4076353311538696e-01" purity="2.8092709183692932e-01" nType="0">
          <Node pos="l" depth="2" NCoef="0" IVar="-1" Cut="0.0000000000000000e+00" cType="1" res="-7.0600905455648899e-03" rms="4.2851829528808594e-01" purity="2.5434261560440063e-01" nType="-99"/>
          <Node pos="r" depth="2" NCoef="0" IVar="-1" Cut="0.0000000000000000e+00" cType="1" res="1.9293207442387938e-03" rms="4.8654007911682129e-01" purity="4.3567290902137756e-01" nType="-99"/>
        </Node>
        <Node pos="r" depth="1" NCoef="0" IVar="3" Cut="8.8810235261917114e-01" cType="1" res="1.2691079080104828e-01" rms="4.3278574943542480e-01" purity="7.1293169260025024e-01" nType="0">
          <Node pos="l" depth="2" NCoef="0" IVar="-1" Cut="0.0000000000000000e+00" cType="1" res="2.3724699858576059e-03" rms="4.8198771476745605e-01" purity="5.9188890457153320e-01" nType="-99"/>
          <Node pos="r" depth="2" NCoef="0" IVar="-1" Cut="0.0000000000000000e+00" cType="1" res="8.0093825235962868e-03" rms="3.4836733341217041e-01" purity="8.5495817661285400e-01" nType="-99"/>
        </Node>
      </Node>
    </BinaryTree>
    <BinaryTree type="DecisionTree" boostWeight="1.0000000000000000e+00" itree="35">
      <Node pos="s" depth="0" NCoef="0" IVar="3" Cut="8.3897578716278076e-01" cType="1" res="1.8134297803044319e-02" rms="4.4967681169509888e-01" purity="5.0010812282562256e-01" nType="0">
        <Node pos="l" depth="1" NCoef="0" IVar="8" Cut="3.3821332454681396e-01" cType="1" res="-5.5278100073337555e-02" rms="4.5863255858421326e-01" purity="3.5223957896232605e-01" nType="0">
          <Node pos="l" depth="2" NCoef="0" IVar="-1" Cut="0.0000000000000000e+00" cType="1" res="-6.1845434829592705e-03" rms="4.3589615821838379e-01" purity="2.7094802260398865e-01" nType="-99"/>
          <Node pos="r" depth="2" NCoef="0" IVar="-1" Cut="0.0000000000000000e+00" cType="1" res="1.6007018275558949e-03" rms="4.8822686076164246e-01" purity="5.1328653097152710e-01" nType="-99"/>
        </Node>
        <Node pos="r" depth="1" NCoef="0" IVar="1" Cut="2.4056489467620850e+00" cType="1" res="1.6931834816932678e-01" rms="3.8923212885856628e-01" purity="8.0462580919265747e-01" nType="0">
          <Node pos="l" depth="2" NCoef="0" IVar="-1" Cut="0.0000000000000000e+00" cType="1" res="7.6224459335207939e-03" rms="3.6263749003410339e-01" purity="8.3753150701522827e-01" nType="-99"/>
          <Node pos="r" depth="2" NCoef="0" IVar="-1" Cut="0.0000000000000000e+00" cType="1" res="2.2058475296944380e-03" rms="4.6021464467048645e-01" purity="6.7700672149658203e-01" nType="-99"/>
        </Node>
      </Node>
    </BinaryTree>
    <BinaryTree type="DecisionTree" boostWeight="1.0000000000000000e+00" itree="36">
      <Node pos="s" depth="0" NCoef="0" IVar="3" Cut="6.9351416826248169e-01" cType="1" res="1.9728712737560272e-02" rms="4.4953742623329163e-01" purity="5.0163108110427856e-01" nType="0">
        <Node pos="l" depth="1" NCoef="0" IVar="5" Cut="4.9264776611328125e+02" cType="1" res="-8.4106281399726868e-02" rms="4.4212511181831360e-01" purity="2.8326076269149780e-01" nType="0">
          <Node pos="l" depth="2" NCoef="0" IVar="-1" Cut="0.0000000000000000e+00" cType="1" res="-9.5101762562990189e-03" rms="4.0520605444908142e-01" purity="2.1557913720607758e-01" nType="-99"/>
          <Node pos="r" depth="2" NCoef="0" IVar="-1" Cut="0.0000000000000000e+00" cType="1" res="-1.9999039359390736e-03" rms="4.6424683928489685e-01" purity="3.3819121122360229e-01" nType="-99"/>
        </Node>
        <Node pos="r" depth="1" NCoef="0" IVar="3" Cut="8.9879238605499268e-01" cType="1" res="1.1904411017894745e-01" rms="4.3385428190231323e-01" purity="7.1049642562866211e-01" nType="0">
          <Node pos="l" depth="2" NCoef="0" IVar="-1" Cut="0.0000000000000000e+00" cType="1" res="2.4180461186915636e-03" rms="4.7864353656768799e-01" purity="6.0300683975219727e-01" nType="-99"/>
          <Node pos="r" depth="2" NCoef="0" IVar="-1" Cut="0.0000000000000000e+00" cType="1" res="7.8306207433342934e-03" rms="3.4633287787437439e-01" purity="8.5688811540603638e-01" nType="-99"/>
        </Node>
      </Node>
    </BinaryTree>
    <BinaryTree type="DecisionTree" boostWeight="1.0000000000000000e+00" itree="37">
      <Node pos="s" depth="0" NCoef="0" IVar="3" Cut="8.3914142847061157e-01" cType="1" res="2.0804008468985558e-02" rms="4.4872894883155823e-01" purity="5.0321352481842041e-01" nType="0">
        <Node pos="l" depth="1" NCoef="0" IVar="8" Cut="2.8142058849334717e-01" cType="1" res="-4.9326479434967041e-02" rms="4.5937258005142212e-01" purity="3.5585165023803711e-01" nType="0">
          <Node pos="l" depth="2" NCoef="0" IVar="-1" Cut="0.0000000000000000e+00" cType="1" res="-6.5055936574935913e-03" rms="4.2933458089828491e-01" purity="2.5787615776062012e-01" nType="-99"/>
          <Node pos="r" depth="2" NCoef="0" IVar="-1" Cut="0.0000000000000000e+00" cType="1" res="7.7519059414044023e-04" rms="4.8535284399986267e-01" purity="4.7472158074378967e-01" nType="-99"/>
        </Node>
        <Node pos="r" depth="1" NCoef="0" IVar="1" Cut="2.4434776306152344e+00" cType="1" res="1.6482301056385040e-01" rms="3.8815861940383911e-01" purity="8.0583405494689941e-01" nType="0">
          <Node pos="l" depth="2" NCoef="0" IVar="-1" Cut="0.0000000000000000e+00" cType="1" res="7.4225920252501965e-03" rms="3.6331334710121155e-01" purity="8.3676850795745850e-01" nType="-99"/>
          <Node pos="r" depth="2" NCoef="0" IVar="-1" Cut="0.0000000000000000e+00" cType="1" res="1.5699651557952166e-03" rms="4.6532475948333740e-01" purity="6.6359174251556396e-01" nType="-99"/>
        </Node>
      </Node>
    </BinaryTree>
    <BinaryTree type="DecisionTree" boostWeight="1.0000000000000000e+00" itree="38">
      <Node pos="s" depth="0" NCoef="0" IVar="8" Cut="5.6899523735046387e-01" cType="1" res="1.8295731395483017e-02" rms="4.4842514395713806e-01" purity="4.9956837296485901e-01" nType="0">
        <Node pos="l" depth="1" NCoef="0" IVar="3" Cut="8.6872929334640503e-01" cType="1" res="-3.7336863577365875e-02" rms="4.5701277256011963e-01" purity="3.9553970098495483e-01" nType="0">
          <Node pos="l" depth="2" NCoef="0" IVar="-1" Cut="0.0000000000000000e+00" cType="1" res="-3.6898066755384207e-03" rms="4.5545530319213867e-01" purity="3.3299964666366577e-01" nType="-99"/>
          <Node pos="r" depth="2" NCoef="0" IVar="-1" Cut="0.0000000000000000e+00" cType="1" res="4.6986392699182034e-03" rms="4.3428879976272583e-01" purity="7.4354434013366699e-01" nType="-99"/>
        </Node>
        <Node pos="r" depth="1" NCoef="0" IVar="1" Cut="2.3432171344757080e+00" cType="1" res="1.8760515749454498e-01" rms="3.7327811121940613e-01" purity="8.1616401672363281e-01" nType="0">
          <Node pos="l" depth="2" NCoef="0" IVar="-1" Cut="0.0000000000000000e+00" cType="1" res="8.3666313439607620e-03" rms="3.3948406577110291e-01" purity="8.5654753446578979e-01" nType="-99"/>
          <Node pos="r" depth="2" NCoef="0" IVar="-1" Cut="0.0000000000000000e+00" cType="1" res="4.3558799661695957e-03" rms="4.3963018059730530e-01" purity="7.1019214391708374e-01" nType="-99"/>
        </Node>
      </Node>
    </BinaryTree>
    <BinaryTree type="DecisionTree" boostWeight="1.0000000000000000e+00" itree="39">
      <Node pos="s" depth="0" NCoef="0" IVar="3" Cut="7.2273463010787964e-01" cType="1" res="1.8397025763988495e-02" rms="4.4700190424919128e-01" purity="5.0010281801223755e-01" nType="0">
        <Node pos="l" depth="1" NCoef="0" IVar="5" Cut="4.9506158447265625e+02" cType="1" res="-7.6759688556194305e-02" rms="4.4347670674324036e-01" purity="2.8898361325263977e-01" nType="0">
          <Node pos="l" depth="2" NCoef="0" IVar="-1" Cut="0.0000000000000000e+00" cType="1" res="-9.0838279575109482e-03" rms="4.0636754035949707e-01" purity="2.1859015524387360e-01" nType="-99"/>
          <Node pos="r" depth="2" NCoef="0" IVar="-1" Cut="0.0000000000000000e+00" cType="1" res="-1.5700600342825055e-03" rms="4.6547177433967590e-01" purity="3.4560337662696838e-01" nType="-99"/>
        </Node>
        <Node pos="r" depth="1" NCoef="0" IVar="8" Cut="6.0316038131713867e-01" cType="1" res="1.1901572346687317e-01" rms="4.2828881740570068e-01" purity="7.2334027290344238e-01" nType="0">
          <Node pos="l" depth="2" NCoef="0" IVar="-1" Cut="0.0000000000000000e+00" cType="1" res="2.3589367046952248e-03" rms="4.7018676996231079e-01" purity="6.2682688236236572e-01" nType="-99"/>
          <Node pos="r" depth="2" NCoef="0" IVar="-1" Cut="0.0000000000000000e+00" cType="1" res="7.7320043928921223e-03" rms="3.5232213139533997e-01" purity="8.4549707174301147e-01" nType="-99"/>
        </Node>
      </Node>
    </BinaryTree>
    <BinaryTree type="DecisionTree" boostWeight="1.0000000000000000e+00" itree="40">
      <Node pos="s" depth="0" NCoef="0" IVar="3" Cut="7.8082776069641113e-01" cType="1" res="1.8009861931204796e-02" rms="4.4628861546516418e-01" purity="4.9969244003295898e-01" nType="0">
        <Node pos="l" depth="1" NCoef="0" IVar="6" Cut="1.5143080139160156e+02" cType="1" res="-6.2897346913814545e-02" rms="4.5047867298126221e-01" purity="3.1450074911117554e-01" nType="0">
          <Node pos="l" depth="2" NCoef="0" IVar="-1" Cut="0.0000000000000000e+00" cType="1" res="-4.9553704448044300e-03" rms="4.4127720594406128e-01" purity="2.9015427827835083e-01" nType="-99"/>
          <Node pos="r" depth="2" NCoef="0" IVar="-1" Cut="0.0000000000000000e+00" cType="1" res="4.6189073473215103e-03" rms="4.9101051688194275e-01" purity="5.1481896638870239e-01" nType="-99"/>
        </Node>
        <Node pos="r" depth="1" NCoef="0" IVar="8" Cut="6.0331994295120239e-01" cType="1" res="1.3028165698051453e-01" rms="4.1505521535873413e-01" purity="7.5667566061019897e-01" nType="0">
          <Node pos="l" depth="2" NCoef="0" IVar="-1" Cut="0.0000000000000000e+00" cType="1" res="2.8034294955432415e-03" rms="4.6337857842445374e-01" purity="6.6314923763275146e-01" nType="-99"/>
          <Node pos="r" depth="2" NCoef="0" IVar="-1" Cut="0.0000000000000000e+00" cType="1" res="7.7620404772460461e-03" rms="3.4111514687538147e-01" purity="8.5950571298599243e-01" nType="-99"/>
        </Node>
      </Node>
    </BinaryTree>
    <BinaryTree type="DecisionTree" boostWeight="1.0000000000000000e+00" itree="41">
      <Node pos="s" depth="0" NCoef="0" IVar="3" Cut="8.6824315786361694e-01" cType="1" res="1.9337657839059830e-02" rms="4.4585615396499634e-01" purity="5.0054663419723511e-01" nType="0">
        <Node pos="l" depth="1" NCoef="0" IVar="8" Cut="5.4921507835388184e-01" cType="1" res="-3.8451638072729111e-02" rms="4.5876291394233704e-01" purity="3.7598833441734314e-01" nType="0">
          <Node pos="l" depth="2" NCoef="0" IVar="-1" Cut="0.0000000000000000e+00" cType="1" res="-3.5969382151961327e-03" rms="4.5344612002372742e-01" purity="3.2864564657211304e-01" nType="-99"/>
          <Node pos="r" depth="2" NCoef="0" IVar="-1" Cut="0.0000000000000000e+00" cType="1" res="4.6139191836118698e-03" rms="4.6260920166969299e-01" purity="6.7070859670639038e-01" nType="-99"/>
        </Node>
        <Node pos="r" depth="1" NCoef="0" IVar="1" Cut="2.3306610584259033e+00" cType="1" res="1.7334705591201782e-01" rms="3.6749535799026489e-01" purity="8.3249658346176147e-01" nType="0">
          <Node pos="l" depth="2" NCoef="0" IVar="-1" Cut="0.0000000000000000e+00" cType="1" res="7.8229568898677826e-03" rms="3.3712559938430786e-01" purity="8.6481732130050659e-01" nType="-99"/>
          <Node pos="r" depth="2" NCoef="0" IVar="-1" Cut="0.0000000000000000e+00" cType="1" res="3.8528661243617535e-03" rms="4.3188571929931641e-01" purity="7.4155110120773315e-01" nType="-99"/>
        </Node>
      </Node>
    </BinaryTree>
    <BinaryTree type="DecisionTree" boostWeight="1.0000000000000000e+00" itree="42">
      <Node pos="s" depth="0" NCoef="0" IVar="3" Cut="8.5369229316711426e-01" cType="1" res="1.7582347616553307e-02" rms="4.4539758563041687e-01" purity="4.9891746044158936e-01" nType="0">
        <Node pos="l" depth="1" NCoef="0" IVar="3" Cut="3.8715562224388123e-01" cType="1" res="-4.3228402733802795e-02" rms="4.5738777518272400e-01" purity="3.6241835355758667e-01" nType="0">
          <Node pos="l" depth="2" NCoef="0" IVar="-1" Cut="0.0000000000000000e+00" cType="1" res="-9.1141378507018089e-03" rms="3.9379402995109558e-01" purity="1.9468782842159271e-01" nType="-99"/>
          <Node pos="r" depth="2" NCoef="0" IVar="-1" Cut="0.0000000000000000e+00" cType="1" res="-1.3847018999513239e-04" rms="4.7926920652389526e-01" purity="4.4171983003616333e-01" nType="-99"/>
        </Node>
        <Node pos="r" depth="1" NCoef="0" IVar="1" Cut="2.3807241916656494e+00" cType="1" res="1.5891525149345398e-01" rms="3.8033089041709900e-01" purity="8.1616097688674927e-01" nType="0">
          <Node pos="l" depth="2" NCoef="0" IVar="-1" Cut="0.0000000000000000e+00" cType="1" res="7.3272245936095715e-03" rms="3.5275885462760925e-01" purity="8.4857308864593506e-01" nType="-99"/>
          <Node pos="r" depth="2" NCoef="0" IVar="-1" Cut="0.0000000000000000e+00" cType="1" res="2.4392891209572554e-03" rms="4.5144480466842651e-01" purity="7.0020806789398193e-01" nType="-99"/>
        </Node>
      </Node>
    </BinaryTree>
    <BinaryTree type="DecisionTree" boostWeight="1.0000000000000000e+00" itree="43">
      <Node pos="s" depth="0" NCoef="0" IVar="3" Cut="8.6180067062377930e-01" cType="1" res="1.9686486572027206e-02" rms="4.4454452395439148e-01" purity="5.0087362527847290e-01" nType="0">
        <Node pos="l" depth="1" NCoef="0" IVar="8" Cut="3.7909168004989624e-01" cType="1" res="-3.8704514503479004e-02" rms="4.5807144045829773e-01" purity="3.6982202529907227e-01" nType="0">
          <Node pos="l" depth="2" NCoef="0" IVar="-1" Cut="0.0000000000000000e+00" cType="1" res="-4.7005037777125835e-03" rms="4.4140726327896118e-01" purity="2.8983089327812195e-01" nType="-99"/>
          <Node pos="r" depth="2" NCoef="0" IVar="-1" Cut="0.0000000000000000e+00" cType="1" res="2.3213196545839310e-03" rms="4.8312759399414062e-01" purity="5.5870401859283447e-01" nType="-99"/>
        </Node>
        <Node pos="r" depth="1" NCoef="0" IVar="8" Cut="7.3993301391601562e-01" cType="1" res="1.6548149287700653e-01" rms="3.7062743306159973e-01" purity="8.2809317111968994e-01" nType="0">
          <Node pos="l" depth="2" NCoef="0" IVar="-1" Cut="0.0000000000000000e+00" cType="1" res="4.9508302472531796e-03" rms="4.1877692937850952e-01" purity="7.6707512140274048e-01" nType="-99"/>
          <Node pos="r" depth="2" NCoef="0" IVar="-1" Cut="0.0000000000000000e+00" cType="1" res="8.7680276483297348e-03" rms="2.7986308932304382e-01" purity="9.1303831338882446e-01" nType="-99"/>
        </Node>
      </Node>
    </BinaryTree>
    <BinaryTree type="DecisionTree" boostWeight="1.0000000000000000e+00" itree="44">
      <Node pos="s" depth="0" NCoef="0" IVar="8" Cut="5.3470337390899658e-01" cType="1" res="2.0735563710331917e-02" rms="4.4421416521072388e-01" purity="5.0209444761276245e-01" nType="0">
        <Node pos="l" depth="1" NCoef="0" IVar="3" Cut="6.5157151222229004e-01" cType="1" res="-3.4621380269527435e-02" rms="4.5391431450843811e-01" purity="3.8879787921905518e-01" nType="0">
          <Node pos="l" depth="2" NCoef="0" IVar="-1" Cut="0.0000000000000000e+00" cType="1" res="-5.1703583449125290e-03" rms="4.3293192982673645e-01" purity="2.6197680830955505e-01" nType="-99"/>
          <Node pos="r" depth="2" NCoef="0" IVar="-1" Cut="0.0000000000000000e+00" cType="1" res="1.6402811743319035e-03" rms="4.7573328018188477e-01" purity="5.8477938175201416e-01" nType="-99"/>
        </Node>
        <Node pos="r" depth="1" NCoef="0" IVar="3" Cut="9.1280037164688110e-01" cType="1" res="1.6737206280231476e-01" rms="3.8030147552490234e-01" purity="8.0220872163772583e-01" nType="0">
          <Node pos="l" depth="2" NCoef="0" IVar="-1" Cut="0.0000000000000000e+00" cType="1" res="5.0012050196528435e-03" rms="4.4075044989585876e-01" purity="7.1187448501586914e-01" nType="-99"/>
          <Node pos="r" depth="2" NCoef="0" IVar="-1" Cut="0.0000000000000000e+00" cType="1" res="8.7386304512619972e-03" rms="2.7750405669212341e-01" purity="9.1508311033248901e-01" nType="-99"/>
        </Node>
      </Node>
    </BinaryTree>
    <BinaryTree type="DecisionTree" boostWeight="1.0000000000000000e+00" itree="45">
      <Node pos="s" depth="0" NCoef="0" IVar="3" Cut="8.5511934757232666e-01" cType="1" res="1.7437562346458435e-02" rms="4.4373777508735657e-01" purity="4.9923595786094666e-01" nType="0">
        <Node pos="l" depth="1" NCoef="0" IVar="8" Cut="3.6193341016769409e-01" cType="1" res="-3.9649650454521179e-02" rms="4.5696830749511719e-01" purity="3.6318022012710571e-01" nType="0">
          <Node pos="l" depth="2" NCoef="0" IVar="-1" Cut="0.0000000000000000e+00" cType="1" res="-4.7637629322707653e-03" rms="4.3902021646499634e-01" purity="2.8279197216033936e-01" nType="-99"/>
          <Node pos="r" depth="2" NCoef="0" IVar="-1" Cut="0.0000000000000000e+00" cType="1" res="1.9352810923010111e-03" rms="4.8406839370727539e-01" purity="5.4034608602523804e-01" nType="-99"/>
        </Node>
        <Node pos="r" depth="1" NCoef="0" IVar="1" Cut="2.3710846900939941e+00" cType="1" res="1.5066589415073395e-01" rms="3.7912622094154358e-01" purity="8.1675851345062256e-01" nType="0">
          <Node pos="l" depth="2" NCoef="0" IVar="-1" Cut="0.0000000000000000e+00" cType="1" res="7.1454634889960289e-03" rms="3.5012152791023254e-01" purity="8.5083866119384766e-01" nType="-99"/>
          <Node pos="r" depth="2" NCoef="0" IVar="-1" Cut="0.0000000000000000e+00" cType="1" res="2.0697365980595350e-03" rms="4.5112287998199463e-01" purity="6.9865214824676514e-01" nType="-99"/>
        </Node>
      </Node>
    </BinaryTree>
    <BinaryTree type="DecisionTree" boostWeight="1.0000000000000000e+00" itree="46">
      <Node pos="s" depth="0" NCoef="0" IVar="8" Cut="5.6901168823242188e-01" cType="1" res="2.0559158176183701e-02" rms="4.4319784641265869e-01" purity="5.0205385684967041e-01" nType="0">
        <Node pos="l" depth="1" NCoef="0" IVar="3" Cut="8.7881815433502197e-01" cType="1" res="-2.9416872188448906e-02" rms="4.5455464720726013e-01" purity="3.9658558368682861e-01" nType="0">
          <Node pos="l" depth="2" NCoef="0" IVar="-1" Cut="0.0000000000000000e+00" cType="1" res="-2.9561854898929596e-03" rms="4.5482787489891052e-01" purity="3.3902394771575928e-01" nType="-99"/>
          <Node pos="r" depth="2" NCoef="0" IVar="-1" Cut="0.0000000000000000e+00" cType="1" res="4.5086676254868507e-03" rms="4.2686733603477478e-01" purity="7.5728136301040649e-01" nType="-99"/>
        </Node>
        <Node pos="r" depth="1" NCoef="0" IVar="1" Cut="2.3771088123321533e+00" cType="1" res="1.7220732569694519e-01" rms="3.6730197072029114e-01" purity="8.2208859920501709e-01" nType="0">
          <Node pos="l" depth="2" NCoef="0" IVar="-1" Cut="0.0000000000000000e+00" cType="1" res="7.8583629801869392e-03" rms="3.3518487215042114e-01" purity="8.5949504375457764e-01" nType="-99"/>
          <Node pos="r" depth="2" NCoef="0" IVar="-1" Cut="0.0000000000000000e+00" cType="1" res="3.8130742032080889e-03" rms="4.4137561321258545e-01" purity="7.0821505784988403e-01" nType="-99"/>
        </Node>
      </Node>
    </BinaryTree>
    <BinaryTree type="DecisionTree" boostWeight="1.0000000000000000e+00" itree="47">
      <Node pos="s" depth="0" NCoef="0" IVar="3" Cut="6.9630187749862671e-01" cType="1" res="1.8168237060308456e-02" rms="4.4275933504104614e-01" purity="5.0025963783264160e-01" nType="0">
        <Node pos="l" depth="1" NCoef="0" IVar="5" Cut="4.8390759277343750e+02" cType="1" res="-6.8239875137805939e-02" rms="4.3918749690055847e-01" purity="2.7970230579376221e-01" nType="0">
          <Node pos="l" depth="2" NCoef="0" IVar="-1" Cut="0.0000000000000000e+00" cType="1" res="-8.6340568959712982e-03" rms="4.0078529715538025e-01" purity="2.1013864874839783e-01" nType="-99"/>
          <Node pos="r" depth="2" NCoef="0" IVar="-1" Cut="0.0000000000000000e+00" cType="1" res="-1.4786350075155497e-03" rms="4.6097198128700256e-01" purity="3.3132064342498779e-01" nType="-99"/>
        </Node>
        <Node pos="r" depth="1" NCoef="0" IVar="1" Cut="2.5197980403900146e+00" cType="1" res="1.0080576688051224e-01" rms="4.3020811676979065e-01" purity="7.1119254827499390e-01" nType="0">
          <Node pos="l" depth="2" NCoef="0" IVar="-1" Cut="0.0000000000000000e+00" cType="1" res="5.4977936670184135e-03" rms="4.0881261229515076e-01" purity="7.5715261697769165e-01" nType="-99"/>
          <Node pos="r" depth="2" NCoef="0" IVar="-1" Cut="0.0000000000000000e+00" cType="1" res="-1.5574520220980048e-03" rms="4.8447957634925842e-01" purity="5.2657192945480347e-01" nType="-99"/>
        </Node>
      </Node>
    </BinaryTree>
    <BinaryTree type="DecisionTree" boostWeight="1.0000000000000000e+00" itree="48">
      <Node pos="s" depth="0" NCoef="0" IVar="8" Cut="5.6899523735046387e-01" cType="1" res="1.7858320847153664e-02" rms="4.4219517707824707e-01" purity="4.9888974428176880e-01" nType="0">
        <Node pos="l" depth="1" NCoef="0" IVar="3" Cut="4.4951194524765015e-01" cType="1" res="-3.0190229415893555e-02" rms="4.5331254601478577e-01" purity="3.9373034238815308e-01" nType="0">
          <Node pos="l" depth="2" NCoef="0" IVar="-1" Cut="0.0000000000000000e+00" cType="1" res="-7.2348034009337425e-03" rms="4.0503135323524475e-01" purity="2.1153374016284943e-01" nType="-99"/>
          <Node pos="r" depth="2" NCoef="0" IVar="-1" Cut="0.0000000000000000e+00" cType="1" res="6.2134780455380678e-04" rms="4.7450974583625793e-01" purity="5.0215882062911987e-01" nType="-99"/>
        </Node>
        <Node pos="r" depth="1" NCoef="0" IVar="1" Cut="2.3221039772033691e+00" cType="1" res="1.6346232593059540e-01" rms="3.7036579847335815e-01" purity="8.1755959987640381e-01" nType="0">
          <Node pos="l" depth="2" NCoef="0" IVar="-1" Cut="0.0000000000000000e+00" cType="1" res="7.6840315014123917e-03" rms="3.3670178055763245e-01" purity="8.5814213752746582e-01" nType="-99"/>
          <Node pos="r" depth="2" NCoef="0" IVar="-1" Cut="0.0000000000000000e+00" cType="1" res="3.8107677828520536e-03" rms="4.3469190597534180e-01" purity="7.1652507781982422e-01" nType="-99"/>
        </Node>
      </Node>
    </BinaryTree>
    <BinaryTree type="DecisionTree" boostWeight="1.0000000000000000e+00" itree="49">
      <Node pos="s" depth="0" NCoef="0" IVar="8" Cut="5.5185753107070923e-01" cType="1" res="1.6261894255876541e-02" rms="4.4119998812675476e-01" purity="4.9741870164871216e-01" nType="0">
        <Node pos="l" depth="1" NCoef="0" IVar="3" Cut="8.9704638719558716e-01" cType="1" res="-3.3446282148361206e-02" rms="4.5189499855041504e-01" purity="3.8749277591705322e-01" nType="0">
          <Node pos="l" depth="2" NCoef="0" IVar="-1" Cut="0.0000000000000000e+00" cType="1" res="-3.0436548404395580e-03" rms="4.5249199867248535e-01" purity="3.3831161260604858e-01" nType="-99"/>
          <Node pos="r" depth="2" NCoef="0" IVar="-1" Cut="0.0000000000000000e+00" cType="1" res="4.8926323652267456e-03" rms="4.1615161299705505e-01" purity="7.7536273002624512e-01" nType="-99"/>
        </Node>
        <Node pos="r" depth="1" NCoef="0" IVar="1" Cut="2.3816695213317871e+00" cType="1" res="1.5745188295841217e-01" rms="3.7493222951889038e-01" purity="8.0965000391006470e-01" nType="0">
          <Node pos="l" depth="2" NCoef="0" IVar="-1" Cut="0.0000000000000000e+00" cType="1" res="7.3817810043692589e-03" rms="3.4434941411018372e-01" purity="8.4865617752075195e-01" nType="-99"/>
          <Node pos="r" depth="2" NCoef="0" IVar="-1" Cut="0.0000000000000000e+00" cType="1" res="3.3006377052515745e-03" rms="4.4591671228408813e-01" purity="6.9132989645004272e-01" nType="-99"/>
        </Node>
      </Node>
    </BinaryTree>
    <BinaryTree type="DecisionTree" boostWeight="1.0000000000000000e+00" itree="50">
      <Node pos="s" depth="0" NCoef="0" IVar="8" Cut="5.5185753107070923e-01" cType="1" res="1.8973266705870628e-02" rms="4.4125115871429443e-01" purity="5.0018930435180664e-01" nType="0">
        <Node pos="l" depth="1" NCoef="0" IVar="3" Cut="3.8075372576713562e-01" cType="1" res="-2.8355151414871216e-02" rms="4.5262220501899719e-01" purity="3.9226073026657104e-01" nType="0">
          <Node pos="l" depth="2" NCoef="0" IVar="-1" Cut="0.0000000000000000e+00" cType="1" res="-8.4994724020361900e-03" rms="3.8964912295341492e-01" purity="1.8963024020195007e-01" nType="-99"/>
          <Node pos="r" depth="2" NCoef="0" IVar="-1" Cut="0.0000000000000000e+00" cType="1" res="4.1100315866060555e-04" rms="4.7178170084953308e-01" purity="4.7731098532676697e-01" nType="-99"/>
        </Node>
        <Node pos="r" depth="1" NCoef="0" IVar="3" Cut="9.1557645797729492e-01" cType="1" res="1.5492521226406097e-01" rms="3.7495082616806030e-01" purity="8.1021654605865479e-01" nType="0">
          <Node pos="l" depth="2" NCoef="0" IVar="-1" Cut="0.0000000000000000e+00" cType="1" res="4.6441191807389259e-03" rms="4.3555057048797607e-01" purity="7.2343188524246216e-01" nType="-99"/>
          <Node pos="r" depth="2" NCoef="0" IVar="-1" Cut="0.0000000000000000e+00" cType="1" res="8.3716725930571556e-03" rms="2.7480036020278931e-01" purity="9.1659915447235107e-01" nType="-99"/>
        </Node>
      </Node>
    </BinaryTree>
    <BinaryTree type="DecisionTree" boostWeight="1.0000000000000000e+00" itree="51">
      <Node pos="s" depth="0" NCoef="0" IVar="3" Cut="8.6824315786361694e-01" cType="1" res="1.7327925190329552e-02" rms="4.4116032123565674e-01" purity="4.9864691495895386e-01" nType="0">
        <Node pos="l" depth="1" NCoef="0" IVar="5" Cut="5.0552246093750000e+02" cType="1" res="-3.2201431691646576e-02" rms="4.5657333731651306e-01" purity="3.7266606092453003e-01" nType="0">
          <Node pos="l" depth="2" NCoef="0" IVar="-1" Cut="0.0000000000000000e+00" cType="1" res="-5.4210512898862362e-03" rms="4.3325525522232056e-01" purity="2.9924297332763672e-01" nType="-99"/>
          <Node pos="r" depth="2" NCoef="0" IVar="-1" Cut="0.0000000000000000e+00" cType="1" res="8.0027745570987463e-04" rms="4.6971121430397034e-01" purity="4.3348100781440735e-01" nType="-99"/>
        </Node>
        <Node pos="r" depth="1" NCoef="0" IVar="8" Cut="7.9156005382537842e-01" cType="1" res="1.4826436340808868e-01" rms="3.6662486195564270e-01" purity="8.3169150352478027e-01" nType="0">
          <Node pos="l" depth="2" NCoef="0" IVar="-1" Cut="0.0000000000000000e+00" cType="1" res="4.7062928788363934e-03" rms="4.0926772356033325e-01" purity="7.8004050254821777e-01" nType="-99"/>
          <Node pos="r" depth="2" NCoef="0" IVar="-1" Cut="0.0000000000000000e+00" cType="1" res="8.4382370114326477e-03" rms="2.6820975542068481e-01" purity="9.2058527469635010e-01" nType="-99"/>
        </Node>
      </Node>
    </BinaryTree>
    <BinaryTree type="DecisionTree" boostWeight="1.0000000000000000e+00" itree="52">
      <Node pos="s" depth="0" NCoef="0" IVar="3" Cut="8.6167460680007935e-01" cType="1" res="2.0567605271935463e-02" rms="4.4150379300117493e-01" purity="5.0133866071701050e-01" nType="0">
        <Node pos="l" depth="1" NCoef="0" IVar="6" Cut="1.5736515808105469e+02" cType="1" res="-2.8319537639617920e-02" rms="4.5740121603012085e-01" purity="3.7164148688316345e-01" nType="0">
          <Node pos="l" depth="2" NCoef="0" IVar="-1" Cut="0.0000000000000000e+00" cType="1" res="-2.5756373070180416e-03" rms="4.5123988389968872e-01" purity="3.5088366270065308e-01" nType="-99"/>
          <Node pos="r" depth="2" NCoef="0" IVar="-1" Cut="0.0000000000000000e+00" cType="1" res="6.1843018047511578e-03" rms="4.8312368988990784e-01" purity="5.7480764389038086e-01" nType="-99"/>
        </Node>
        <Node pos="r" depth="1" NCoef="0" IVar="1" Cut="2.3365247249603271e+00" cType="1" res="1.4264543354511261e-01" rms="3.7198087573051453e-01" purity="8.2521003484725952e-01" nType="0">
          <Node pos="l" depth="2" NCoef="0" IVar="-1" Cut="0.0000000000000000e+00" cType="1" res="6.9048060104250908e-03" rms="3.4258699417114258e-01" purity="8.5866671800613403e-01" nType="-99"/>
          <Node pos="r" depth="2" NCoef="0" IVar="-1" Cut="0.0000000000000000e+00" cType="1" res="2.7868309989571571e-03" rms="4.3692868947982788e-01" purity="7.2862100601196289e-01" nType="-99"/>
        </Node>
      </Node>
    </BinaryTree>
    <BinaryTree type="DecisionTree" boostWeight="1.0000000000000000e+00" itree="53">
      <Node pos="s" depth="0" NCoef="0" IVar="3" Cut="8.1027561426162720e-01" cType="1" res="1.5502884052693844e-02" rms="4.4006180763244629e-01" purity="4.9620437622070312e-01" nType="0">
        <Node pos="l" depth="1" NCoef="0" IVar="6" Cut="1.5230541992187500e+02" cType="1" res="-4.4215697795152664e-02" rms="4.5114850997924805e-01" purity="3.2817858457565308e-01" nType="0">
          <Node pos="l" depth="2" NCoef="0" IVar="-1" Cut="0.0000000000000000e+00" cType="1" res="-3.8671453949064016e-03" rms="4.4243818521499634e-01" purity="3.0249831080436707e-01" nType="-99"/>
          <Node pos="r" depth="2" NCoef="0" IVar="-1" Cut="0.0000000000000000e+00" cType="1" res="5.4880590178072453e-03" rms="4.8709172010421753e-01" purity="5.3811377286911011e-01" nType="-99"/>
        </Node>
        <Node pos="r" depth="1" NCoef="0" IVar="1" Cut="2.4514329433441162e+00" cType="1" res="1.1590016633272171e-01" rms="4.0120840072631836e-01" purity="7.7868491411209106e-01" nType="0">
          <Node pos="l" depth="2" NCoef="0" IVar="-1" Cut="0.0000000000000000e+00" cType="1" res="5.8302078396081924e-03" rms="3.8013532757759094e-01" purity="8.1037390232086182e-01" nType="-99"/>
          <Node pos="r" depth="2" NCoef="0" IVar="-1" Cut="0.0000000000000000e+00" cType="1" res="-1.1328264372423291e-04" rms="4.6859192848205566e-01" purity="6.3301765918731689e-01" nType="-99"/>
        </Node>
      </Node>
    </BinaryTree>
    <BinaryTree type="DecisionTree" boostWeight="1.0000000000000000e+00" itree="54">
      <Node pos="s" depth="0" NCoef="0" IVar="3" Cut="6.6453129053115845e-01" cType="1" res="2.1684419363737106e-02" rms="4.3942826986312866e-01" purity="5.0459778308868408e-01" nType="0">
        <Node pos="l" depth="1" NCoef="0" IVar="6" Cut="1.4013002014160156e+02" cType="1" res="-6.1890941113233566e-02" rms="4.3548148870468140e-01" purity="2.7160346508026123e-01" nType="0">
          <Node pos="l" depth="2" NCoef="0" IVar="-1" Cut="0.0000000000000000e+00" cType="1" res="-5.2818665280938148e-03" rms="4.2447414994239807e-01" purity="2.4809212982654572e-01" nType="-99"/>
          <Node pos="r" depth="2" NCoef="0" IVar="-1" Cut="0.0000000000000000e+00" cType="1" res="2.7317116037011147e-03" rms="4.8550304770469666e-01" purity="4.2321076989173889e-01" nType="-99"/>
        </Node>
        <Node pos="r" depth="1" NCoef="0" IVar="1" Cut="2.5494632720947266e+00" cType="1" res="9.2660486698150635e-02" rms="4.3018627166748047e-01" purity="7.0246744155883789e-01" nType="0">
          <Node pos="l" depth="2" NCoef="0" IVar="-1" Cut="0.0000000000000000e+00" cType="1" res="5.0650327466428280e-03" rms="4.1098979115486145e-01" purity="7.4632614850997925e-01" nType="-99"/>
          <Node pos="r" depth="2" NCoef="0" IVar="-1" Cut="0.0000000000000000e+00" cType="1" res="-1.1306079104542732e-03" rms="4.8511993885040283e-01" purity="5.2001452445983887e-01" nType="-99"/>
        </Node>
      </Node>
    </BinaryTree>
    <BinaryTree type="DecisionTree" boostWeight="1.0000000000000000e+00" itree="55">
      <Node pos="s" depth="0" NCoef="0" IVar="8" Cut="5.3470337390899658e-01" cType="1" res="1.8466135486960411e-02" rms="4.3973052501678467e-01" purity="4.9943134188652039e-01" nType="0">
        <Node pos="l" depth="1" NCoef="0" IVar="1" Cut="2.3994154930114746e+00" cType="1" res="-2.7590004727244377e-02" rms="4.5141229033470154e-01" purity="3.8658785820007324e-01" nType="0">
          <Node pos="l" depth="2" NCoef="0" IVar="-1" Cut="0.0000000000000000e+00" cType="1" res="6.5577740315347910e-04" rms="4.5763468742370605e-01" purity="4.4781512022018433e-01" nType="-99"/>
          <Node pos="r" depth="2" NCoef="0" IVar="-1" Cut="0.0000000000000000e+00" cType="1" res="-5.2773547358810902e-03" rms="4.3547394871711731e-01" purity="2.9671958088874817e-01" nType="-99"/>
        </Node>
        <Node pos="r" depth="1" NCoef="0" IVar="1" Cut="2.4203774929046631e+00" cType="1" res="1.4060695469379425e-01" rms="3.8106641173362732e-01" purity="7.9869210720062256e-01" nType="0">
          <Node pos="l" depth="2" NCoef="0" IVar="-1" Cut="0.0000000000000000e+00" cType="1" res="6.8355496041476727e-03" rms="3.5189971327781677e-01" purity="8.3897852897644043e-01" nType="-99"/>
          <Node pos="r" depth="2" NCoef="0" IVar="-1" Cut="0.0000000000000000e+00" cType="1" res="2.3473969195038080e-03" rms="4.5771211385726929e-01" purity="6.5932327508926392e-01" nType="-99"/>
        </Node>
      </Node>
    </BinaryTree>
    <BinaryTree type="DecisionTree" boostWeight="1.0000000000000000e+00" itree="56">
      <Node pos="s" depth="0" NCoef="0" IVar="3" Cut="6.6440182924270630e-01" cType="1" res="1.9514568150043488e-02" rms="4.3956717848777771e-01" purity="5.0121849775314331e-01" nType="0">
        <Node pos="l" depth="1" NCoef="0" IVar="5" Cut="5.5106079101562500e+02" cType="1" res="-5.9113733470439911e-02" rms="4.3512922525405884e-01" purity="2.7133023738861084e-01" nType="0">
          <Node pos="l" depth="2" NCoef="0" IVar="-1" Cut="0.0000000000000000e+00" cType="1" res="-6.7002680152654648e-03" rms="4.0946584939956665e-01" purity="2.2297000885009766e-01" nType="-99"/>
          <Node pos="r" depth="2" NCoef="0" IVar="-1" Cut="0.0000000000000000e+00" cType="1" res="-5.9350056108087301e-04" rms="4.6178597211837769e-01" purity="3.3418598771095276e-01" nType="-99"/>
        </Node>
        <Node pos="r" depth="1" NCoef="0" IVar="1" Cut="2.5571331977844238e+00" cType="1" res="8.6628280580043793e-02" rms="4.3214744329452515e-01" purity="6.9744116067886353e-01" nType="0">
          <Node pos="l" depth="2" NCoef="0" IVar="-1" Cut="0.0000000000000000e+00" cType="1" res="4.7961315140128136e-03" rms="4.1359588503837585e-01" purity="7.4107128381729126e-01" nType="-99"/>
          <Node pos="r" depth="2" NCoef="0" IVar="-1" Cut="0.0000000000000000e+00" cType="1" res="-1.2716703349724412e-03" rms="4.8697879910469055e-01" purity="5.1294815540313721e-01" nType="-99"/>
        </Node>
      </Node>
    </BinaryTree>
    <BinaryTree type="DecisionTree" boostWeight="1.0000000000000000e+00" itree="57">
      <Node pos="s" depth="0" NCoef="0" IVar="3" Cut="8.8279396295547485e-01" cType="1" res="1.5888288617134094e-02" rms="4.3923628330230713e-01" purity="4.9636533856391907e-01" nType="0">
        <Node pos="l" depth="1" NCoef="0" IVar="5" Cut="4.5417166137695312e+02" cType="1" res="-2.4970516562461853e-02" rms="4.5508894324302673e-01" purity="3.8532242178916931e-01" nType="0">
          <Node pos="l" depth="2" NCoef="0" IVar="-1" Cut="0.0000000000000000e+00" cType="1" res="-5.8967294171452522e-03" rms="4.2700147628784180e-01" purity="2.9074192047119141e-01" nType="-99"/>
          <Node pos="r" depth="2" NCoef="0" IVar="-1" Cut="0.0000000000000000e+00" cType="1" res="5.5788049940019846e-04" rms="4.6462130546569824e-01" purity="4.3322193622589111e-01" nType="-99"/>
        </Node>
        <Node pos="r" depth="1" NCoef="0" IVar="3" Cut="9.5373111963272095e-01" cType="1" res="1.4366297423839569e-01" rms="3.5643425583839417e-01" purity="8.4362155199050903e-01" nType="0">
          <Node pos="l" depth="2" NCoef="0" IVar="-1" Cut="0.0000000000000000e+00" cType="1" res="4.5460276305675507e-03" rms="3.9230898022651672e-01" purity="8.0062568187713623e-01" nType="-99"/>
          <Node pos="r" depth="2" NCoef="0" IVar="-1" Cut="0.0000000000000000e+00" cType="1" res="7.8334035351872444e-03" rms="2.9821154475212097e-01" purity="8.9815425872802734e-01" nType="-99"/>
        </Node>
      </Node>
    </BinaryTree>
    <BinaryTree type="DecisionTree" boostWeight="1.0000000000000000e+00" itree="58">
      <Node pos="s" depth="0" NCoef="0" IVar="8" Cut="4.8296967148780823e-01" cType="1" res="1.9473493099212646e-02" rms="4.3889096379280090e-01" purity="5.0030565261840820e-01" nType="0">
        <Node pos="l" depth="1" NCoef="0" IVar="1" Cut="2.3498344421386719e+00" cType="1" res="-2.7696020901203156e-02" rms="4.4914236664772034e-01" purity="3.7919965386390686e-01" nType="0">
          <Node pos="l" depth="2" NCoef="0" IVar="-1" Cut="0.0000000000000000e+00" cType="1" res="7.5918412767350674e-04" rms="4.5625895261764526e-01" purity="4.4310176372528076e-01" nType="-99"/>
          <Node pos="r" depth="2" NCoef="0" IVar="-1" Cut="0.0000000000000000e+00" cType="1" res="-5.1381243392825127e-03" rms="4.3332928419113159e-01" purity="2.9468691349029541e-01" nType="-99"/>
        </Node>
        <Node pos="r" depth="1" NCoef="0" IVar="1" Cut="2.5303332805633545e+00" cType="1" res="1.2436196208000183e-01" rms="3.9551612734794617e-01" purity="7.6960301399230957e-01" nType="0">
          <Node pos="l" depth="2" NCoef="0" IVar="-1" Cut="0.0000000000000000e+00" cType="1" res="6.2138293869793415e-03" rms="3.7021416425704956e-01" purity="8.1077158451080322e-01" nType="-99"/>
          <Node pos="r" depth="2" NCoef="0" IVar="-1" Cut="0.0000000000000000e+00" cType="1" res="8.5747934645041823e-04" rms="4.7722417116165161e-01" purity="5.8913606405258179e-01" nType="-99"/>
        </Node>
      </Node>
    </BinaryTree>
    <BinaryTree type="DecisionTree" boostWeight="1.0000000000000000e+00" itree="59">
      <Node pos="s" depth="0" NCoef="0" IVar="3" Cut="8.6811929941177368e-01" cType="1" res="1.6813674941658974e-02" rms="4.3659245967864990e-01" purity="4.9865123629570007e-01" nType="0">
        <Node pos="l" depth="1" NCoef="0" IVar="7" Cut="2.2535498440265656e-01" cType="1" res="-2.9231419786810875e-02" rms="4.5348209142684937e-01" purity="3.7069648504257202e-01" nType="0">
          <Node pos="l" depth="2" NCoef="0" IVar="-1" Cut="0.0000000000000000e+00" cType="1" res="-3.6712428554892540e-03" rms="4.4072723388671875e-01" purity="3.0814918875694275e-01" nType="-99"/>
          <Node pos="r" depth="2" NCoef="0" IVar="-1" Cut="0.0000000000000000e+00" cType="1" res="2.4242782965302467e-03" rms="4.7562521696090698e-01" purity="5.3384608030319214e-01" nType="-99"/>
        </Node>
        <Node pos="r" depth="1" NCoef="0" IVar="3" Cut="9.3564683198928833e-01" cType="1" res="1.3852265477180481e-01" rms="3.6119204759597778e-01" purity="8.3686834573745728e-01" nType="0">
          <Node pos="l" depth="2" NCoef="0" IVar="-1" Cut="0.0000000000000000e+00" cType="1" res="4.0472713299095631e-03" rms="4.0647342801094055e-01" purity="7.7938425540924072e-01" nType="-99"/>
          <Node pos="r" depth="2" NCoef="0" IVar="-1" Cut="0.0000000000000000e+00" cType="1" res="7.4744964949786663e-03" rms="3.0690553784370422e-01" purity="8.9098477363586426e-01" nType="-99"/>
        </Node>
      </Node>
    </BinaryTree>
    <BinaryTree type="DecisionTree" boostWeight="1.0000000000000000e+00" itree="60">
      <Node pos="s" depth="0" NCoef="0" IVar="3" Cut="6.5174287557601929e-01" cType="1" res="1.9391525536775589e-02" rms="4.3830630183219910e-01" purity="5.0169849395751953e-01" nType="0">
        <Node pos="l" depth="1" NCoef="0" IVar="4" Cut="3.1995573639869690e-01" cType="1" res="-5.6410953402519226e-02" rms="4.3338099122047424e-01" purity="2.6769083738327026e-01" nType="0">
          <Node pos="l" depth="2" NCoef="0" IVar="-1" Cut="0.0000000000000000e+00" cType="1" res="-1.3237794337328523e-04" rms="4.5699378848075867e-01" purity="3.2206344604492188e-01" nType="-99"/>
          <Node pos="r" depth="2" NCoef="0" IVar="-1" Cut="0.0000000000000000e+00" cType="1" res="-6.2595400959253311e-03" rms="4.1329056024551392e-01" purity="2.3198433220386505e-01" nType="-99"/>
        </Node>
        <Node pos="r" depth="1" NCoef="0" IVar="1" Cut="2.4728162288665771e+00" cType="1" res="8.1266917288303375e-02" rms="4.3254834413528442e-01" purity="6.9271230697631836e-01" nType="0">
          <Node pos="l" depth="2" NCoef="0" IVar="-1" Cut="0.0000000000000000e+00" cType="1" res="4.7995815984904766e-03" rms="4.1044381260871887e-01" purity="7.4520504474639893e-01" nType="-99"/>
          <Node pos="r" depth="2" NCoef="0" IVar="-1" Cut="0.0000000000000000e+00" cType="1" res="-9.0715382248163223e-04" rms="4.8337206244468689e-01" purity="5.2424466609954834e-01" nType="-99"/>
        </Node>
      </Node>
    </BinaryTree>
    <BinaryTree type="DecisionTree" boostWeight="1.0000000000000000e+00" itree="61">
      <Node pos="s" depth="0" NCoef="0" IVar="3" Cut="6.9005054235458374e-01" cType="1" res="2.0301533862948418e-02" rms="4.3745914101600647e-01" purity="5.0289618968963623e-01" nType="0">
        <Node pos="l" depth="1" NCoef="0" IVar="6" Cut="1.3537551879882812e+02" cType="1" res="-5.0733994692564011e-02" rms="4.3748942017555237e-01" purity="2.7920767664909363e-01" nType="0">
          <Node pos="l" depth="2" NCoef="0" IVar="-1" Cut="0.0000000000000000e+00" cType="1" res="-4.6758009120821953e-03" rms="4.2601215839385986e-01" purity="2.5265604257583618e-01" nType="-99"/>
          <Node pos="r" depth="2" NCoef="0" IVar="-1" Cut="0.0000000000000000e+00" cType="1" res="2.6460634544491768e-03" rms="4.8018559813499451e-01" purity="4.1639930009841919e-01" nType="-99"/>
        </Node>
        <Node pos="r" depth="1" NCoef="0" IVar="1" Cut="2.6014888286590576e+00" cType="1" res="8.6573176085948944e-02" rms="4.2690303921699524e-01" purity="7.1158337593078613e-01" nType="0">
          <Node pos="l" depth="2" NCoef="0" IVar="-1" Cut="0.0000000000000000e+00" cType="1" res="4.7149532474577427e-03" rms="4.0972861647605896e-01" purity="7.5156056880950928e-01" nType="-99"/>
          <Node pos="r" depth="2" NCoef="0" IVar="-1" Cut="0.0000000000000000e+00" cType="1" res="-1.7638978315517306e-03" rms="4.8704943060874939e-01" purity="5.0770783424377441e-01" nType="-99"/>
        </Node>
      </Node>
    </BinaryTree>
    <BinaryTree type="DecisionTree" boostWeight="1.0000000000000000e+00" itree="62">
      <Node pos="s" depth="0" NCoef="0" IVar="3" Cut="8.6888122558593750e-01" cType="1" res="1.7810389399528503e-02" rms="4.3608719110488892e-01" purity="5.0092107057571411e-01" nType="0">
        <Node pos="l" depth="1" NCoef="0" IVar="6" Cut="1.5649053955078125e+02" cType="1" res="-2.4992816150188446e-02" rms="4.5355346798896790e-01" purity="3.7468397617340088e-01" nType="0">
          <Node pos="l" depth="2" NCoef="0" IVar="-1" Cut="0.0000000000000000e+00" cType="1" res="-2.3390993010252714e-03" rms="4.4769325852394104e-01" purity="3.5406520962715149e-01" nType="-99"/>
          <Node pos="r" depth="2" NCoef="0" IVar="-1" Cut="0.0000000000000000e+00" cType="1" res="5.6654326617717743e-03" rms="4.8079732060432434e-01" purity="5.7251167297363281e-01" nType="-99"/>
        </Node>
        <Node pos="r" depth="1" NCoef="0" IVar="3" Cut="9.3811666965484619e-01" cType="1" res="1.3116779923439026e-01" rms="3.6237859725952148e-01" purity="8.3523970842361450e-01" nType="0">
